<?xml version="1.0"?>
<opencv_storage>
<cascade>
  <stageType>BOOST</stageType>
  <featureType>LBP</featureType>
  <height>48</height>
  <width>24</width>
  <stageParams>
    <boostType>GAB</boostType>
    <minHitRate>9.9500000476837158e-01</minHitRate>
    <maxFalseAlarm>5.0000000000000000e-01</maxFalseAlarm>
    <weightTrimRate>9.4999999999999996e-01</weightTrimRate>
    <maxDepth>1</maxDepth>
    <maxWeakCount>100</maxWeakCount></stageParams>
  <featureParams>
    <maxCatCount>256</maxCatCount>
    <featSize>1</featSize></featureParams>
  <stageNum>23</stageNum>
  <stages>
    <!-- stage 0 -->
    <_>
      <maxWeakCount>4</maxWeakCount>
      <stageThreshold>-1.8173338174819946e+00</stageThreshold>
      <weakClassifiers>
        <_>
          <internalNodes>
            0 -1 108 -545260069 262099219 -1282731695 1531434971
            -14955829 -74727349 1629217781 -1</internalNodes>
          <leafValues>
            -8.4002614021301270e-01 2.5256672501564026e-01</leafValues></_>
        <_>
          <internalNodes>
            0 -1 49 -495074304 1372715377 277942705 827838819
            -1064951126 -87301925 1879233775 -142606625</internalNodes>
          <leafValues>
            -7.9610705375671387e-01 3.3196982741355896e-01</leafValues></_>
        <_>
          <internalNodes>
            0 -1 16 -825758997 200205451 -2147335953 -1576017233
            185205550 -357844849 1352522735 -270536833</internalNodes>
          <leafValues>
            -6.6008853912353516e-01 4.9785682559013367e-01</leafValues></_>
        <_>
          <internalNodes>
            0 -1 69 -635322302 1983634113 -1727925584 487052581 656542
            1058688131 138331287 -29360385</internalNodes>
          <leafValues>
            -6.4918899536132813e-01 4.9533784389495850e-01</leafValues></_></weakClassifiers></_>
    <!-- stage 1 -->
    <_>
      <maxWeakCount>3</maxWeakCount>
      <stageThreshold>-1.4698516130447388e+00</stageThreshold>
      <weakClassifiers>
        <_>
          <internalNodes>
            0 -1 94 -134218973 218828811 -238693519 2074071519 -67118261
            467388495 -150211741 -1</internalNodes>
          <leafValues>
            -8.8214659690856934e-01 9.2989988625049591e-02</leafValues></_>
        <_>
          <internalNodes>
            0 -1 9 -487592401 15680290 22219326 -830512361 1314855191
            1111191655 1408217371 -1153</internalNodes>
          <leafValues>
            -7.5371390581130981e-01 3.6321818828582764e-01</leafValues></_>
        <_>
          <internalNodes>
            0 -1 82 -272634005 787476479 -737019985 576639199 2074820423
            1464312383 -201592009 -16777225</internalNodes>
          <leafValues>
            -8.0912774801254272e-01 4.0168210864067078e-01</leafValues></_></weakClassifiers></_>
    <!-- stage 2 -->
    <_>
      <maxWeakCount>5</maxWeakCount>
      <stageThreshold>-1.3772027492523193e+00</stageThreshold>
      <weakClassifiers>
        <_>
          <internalNodes>
            0 -1 75 -4194305 -9249 -573440001 -16779809 -104071169
            -72630853 -67372041 -5377</internalNodes>
          <leafValues>
            -8.1186223030090332e-01 2.3188406229019165e-01</leafValues></_>
        <_>
          <internalNodes>
            0 -1 12 1179111015 -844111993 1255573463 -288439409
            1966560783 2147477503 876596695 -76547073</internalNodes>
          <leafValues>
            -7.1496301889419556e-01 3.4056460857391357e-01</leafValues></_>
        <_>
          <internalNodes>
            0 -1 4 -353376766 -1562640661 -1231853229 -1680352813
            -1854939040 1660673823 -311417 -16785409</internalNodes>
          <leafValues>
            -7.3366820812225342e-01 3.6266994476318359e-01</leafValues></_>
        <_>
          <internalNodes>
            0 -1 60 -402668496 1684938276 -35652304 -555752257 -2401092
            -297544337 -592055728 -570425417</internalNodes>
          <leafValues>
            -7.1356123685836792e-01 3.7983518838882446e-01</leafValues></_>
        <_>
          <internalNodes>
            0 -1 117 -75530473 721420158 -1346371585 812642302
            2147474954 -595591170 -1762199334 -388038721</internalNodes>
          <leafValues>
            -5.4029083251953125e-01 5.6341469287872314e-01</leafValues></_></weakClassifiers></_>
    <!-- stage 3 -->
    <_>
      <maxWeakCount>5</maxWeakCount>
      <stageThreshold>-1.6546325683593750e+00</stageThreshold>
      <weakClassifiers>
        <_>
          <internalNodes>
            0 -1 99 -1397080997 -1077842561 -1643913729 -2638083
            193666559 -1146362950 -79168577 -25665</internalNodes>
          <leafValues>
            -8.3985888957977295e-01 -9.6503496170043945e-02</leafValues></_>
        <_>
          <internalNodes>
            0 -1 54 -669787696 -1667540229 -1785603087 1561591545
            274601403 -1691432453 2103156218 1526726655</internalNodes>
          <leafValues>
            -6.9046771526336670e-01 2.3277691006660461e-01</leafValues></_>
        <_>
          <internalNodes>
            0 -1 88 -320336780 -136809100 -95160837 -176836303
            -938803205 -352410957 1812588471 -329783819</internalNodes>
          <leafValues>
            -6.8365138769149780e-01 3.0918595194816589e-01</leafValues></_>
        <_>
          <internalNodes>
            0 -1 141 -268494034 -367005329 -1567108474 -1428401122
            1548413491 -67401671 -140657961 -293868545</internalNodes>
          <leafValues>
            -5.9298801422119141e-01 3.7898707389831543e-01</leafValues></_>
        <_>
          <internalNodes>
            0 -1 110 -268533833 -507718242 -1791567880 -661072141
            -655695372 -1447419154 865009140 -600113220</internalNodes>
          <leafValues>
            -5.6299704313278198e-01 4.3730416893959045e-01</leafValues></_></weakClassifiers></_>
    <!-- stage 4 -->
    <_>
      <maxWeakCount>5</maxWeakCount>
      <stageThreshold>-1.6150746345520020e+00</stageThreshold>
      <weakClassifiers>
        <_>
          <internalNodes>
            0 -1 27 -719593765 -12856965 1410404319 1433653855
            -937829633 -109506410 1498135295 -8655873</internalNodes>
          <leafValues>
            -7.9641848802566528e-01 2.3160763084888458e-01</leafValues></_>
        <_>
          <internalNodes>
            0 -1 41 461883274 2131972278 419629347 1434153805 1527483039
            -656891837 136526779 257948671</internalNodes>
          <leafValues>
            -7.4429577589035034e-01 2.0793677866458893e-01</leafValues></_>
        <_>
          <internalNodes>
            0 -1 6 -810549585 789035466 -83765006 -36701746 2006675715
            988539245 -202673417 -171968545</internalNodes>
          <leafValues>
            -5.9331572055816650e-01 3.8827094435691833e-01</leafValues></_>
        <_>
          <internalNodes>
            0 -1 103 785321511 646425955 1209522654 788404095 1775966983
            975851535 2072712309 -285540428</internalNodes>
          <leafValues>
            -8.6622315645217896e-01 2.7511671185493469e-01</leafValues></_>
        <_>
          <internalNodes>
            0 -1 46 -268961154 1758384335 1342787802 1883623870
            851865934 50888704 1930011380 -690488403</internalNodes>
          <leafValues>
            -5.9508007764816284e-01 4.3138620257377625e-01</leafValues></_></weakClassifiers></_>
    <!-- stage 5 -->
    <_>
      <maxWeakCount>5</maxWeakCount>
      <stageThreshold>-1.4158340692520142e+00</stageThreshold>
      <weakClassifiers>
        <_>
          <internalNodes>
            0 -1 40 -67109153 -9846400 -1694410241 -69906350 -645268578
            -90600726 -1198982914 -19922945</internalNodes>
          <leafValues>
            -7.9084968566894531e-01 2.7002966403961182e-01</leafValues></_>
        <_>
          <internalNodes>
            0 -1 20 16960130 327283155 -1781409837 1442173851 1529606315
            -74506804 1562602411 -204998225</internalNodes>
          <leafValues>
            -7.3241853713989258e-01 2.1013753116130829e-01</leafValues></_>
        <_>
          <internalNodes>
            0 -1 98 -1975845379 -36384164 1461506525 -1613573800
            -1177914631 -1145323381 2040453309 -1167403728</internalNodes>
          <leafValues>
            -5.8775609731674194e-01 3.8503172993659973e-01</leafValues></_>
        <_>
          <internalNodes>
            0 -1 59 1459275826 1057717778 -1638605359 1066648533
            504037631 457271986 1304119999 758905223</internalNodes>
          <leafValues>
            -6.6706424951553345e-01 3.2753887772560120e-01</leafValues></_>
        <_>
          <internalNodes>
            0 -1 137 -83892625 -1367095098 1900124432 -20258350
            -1937049278 1326153923 -209194062 -168433222</internalNodes>
          <leafValues>
            -5.5308943986892700e-01 4.7115585207939148e-01</leafValues></_></weakClassifiers></_>
    <!-- stage 6 -->
    <_>
      <maxWeakCount>5</maxWeakCount>
      <stageThreshold>-1.3819475173950195e+00</stageThreshold>
      <weakClassifiers>
        <_>
          <internalNodes>
            0 -1 14 -268435457 -3934249 -821105441 -550316317 430144991
            -573861417 1171771631 -276828165</internalNodes>
          <leafValues>
            -8.0439776182174683e-01 1.9880714826285839e-03</leafValues></_>
        <_>
          <internalNodes>
            0 -1 105 782503481 -1097895492 2030164471 -2362657
            -217485833 -270556950 -1097221137 -67112289</internalNodes>
          <leafValues>
            -5.9400200843811035e-01 3.0735912919044495e-01</leafValues></_>
        <_>
          <internalNodes>
            0 -1 8 -807408733 -895580777 -1685796218 -120588897
            -309368745 -92284097 -470822045 -201326597</internalNodes>
          <leafValues>
            -5.0597393512725830e-01 4.3084424734115601e-01</leafValues></_>
        <_>
          <internalNodes>
            0 -1 92 -1345097793 1786724862 -1756933169 -1429020193
            1273211249 -417410629 -354929803 -556996780</internalNodes>
          <leafValues>
            -6.7065429687500000e-01 3.2127314805984497e-01</leafValues></_>
        <_>
          <internalNodes>
            0 -1 131 -8388741 783779890 -1848041135 858248081
            -1147733086 -1962212662 1099164976 1231813587</internalNodes>
          <leafValues>
            -5.1466655731201172e-01 4.5542177557945251e-01</leafValues></_></weakClassifiers></_>
    <!-- stage 7 -->
    <_>
      <maxWeakCount>6</maxWeakCount>
      <stageThreshold>-1.8814729452133179e+00</stageThreshold>
      <weakClassifiers>
        <_>
          <internalNodes>
            0 -1 48 -1 -12598832 -44860161 -169908928 -341061988
            -653329413 -623981826 -17826829</internalNodes>
          <leafValues>
            -7.9239201545715332e-01 1.7857143655419350e-02</leafValues></_>
        <_>
          <internalNodes>
            0 -1 15 -67109121 -6554705 -2104824098 -966007593 203748479
            -1996234051 1194069215 -554699777</internalNodes>
          <leafValues>
            -5.6100010871887207e-01 3.0619892477989197e-01</leafValues></_>
        <_>
          <internalNodes>
            0 -1 134 -201851057 -1899554596 1586568702 1425986071
            -926846204 -91056118 -24379716 -1393566794</internalNodes>
          <leafValues>
            -5.5967044830322266e-01 3.6170059442520142e-01</leafValues></_>
        <_>
          <internalNodes>
            0 -1 32 -68225136 -2046902945 -594739224 -1057699617
            -73270403 -14710565 -379773835 -1242366001</internalNodes>
          <leafValues>
            -7.3702067136764526e-01 2.6562392711639404e-01</leafValues></_>
        <_>
          <internalNodes>
            0 -1 28 -1683504085 1071498630 -809481688 1063080000
            -890705155 -1164394360 -552935621 876051295</internalNodes>
          <leafValues>
            -5.6181102991104126e-01 3.8197970390319824e-01</leafValues></_>
        <_>
          <internalNodes>
            0 -1 87 76024849 1118672788 -620102241 -606612748 1064198164
            -1148624365 -1329141302 -52627012</internalNodes>
          <leafValues>
            -5.8824270963668823e-01 3.2777678966522217e-01</leafValues></_></weakClassifiers></_>
    <!-- stage 8 -->
    <_>
      <maxWeakCount>7</maxWeakCount>
      <stageThreshold>-1.8773444890975952e+00</stageThreshold>
      <weakClassifiers>
        <_>
          <internalNodes>
            0 -1 52 -2099201 -33557537 525850591 -134491939 -17827073
            -28604261 -809960465 -1115944</internalNodes>
          <leafValues>
            -7.8587263822555542e-01 7.8880406916141510e-02</leafValues></_>
        <_>
          <internalNodes>
            0 -1 11 -363903394 -42246415 -1501114785 -1368872106
            1338446293 969562514 1307004621 -344917653</internalNodes>
          <leafValues>
            -7.1537017822265625e-01 1.2875707447528839e-01</leafValues></_>
        <_>
          <internalNodes>
            0 -1 143 1809783587 772756463 -1168282944 249361298
            -830129370 583529745 2069869876 -890242065</internalNodes>
          <leafValues>
            -6.3071018457412720e-01 2.9177302122116089e-01</leafValues></_>
        <_>
          <internalNodes>
            0 -1 67 -217612096 292810492 1162727454 1437039219 161420173
            1642978543 1438084063 -981467394</internalNodes>
          <leafValues>
            -5.8822673559188843e-01 3.2716780900955200e-01</leafValues></_>
        <_>
          <internalNodes>
            0 -1 7 -322968209 172999151 -648953658 -95578915 -1159892147
            -913735525 2043373943 -2100355</internalNodes>
          <leafValues>
            -5.2528959512710571e-01 3.8871628046035767e-01</leafValues></_>
        <_>
          <internalNodes>
            0 -1 101 -1364062092 2077006824 285465311 -1095344844
            -1161139203 -615589621 -81167362 -1640211787</internalNodes>
          <leafValues>
            -6.8451541662216187e-01 3.1084567308425903e-01</leafValues></_>
        <_>
          <internalNodes>
            0 -1 13 -288406490 1792080773 -1729998690 -1429341202
            2142130989 1982515739 2077344364 -210242753</internalNodes>
          <leafValues>
            -7.2286844253540039e-01 2.6877635717391968e-01</leafValues></_></weakClassifiers></_>
    <!-- stage 9 -->
    <_>
      <maxWeakCount>6</maxWeakCount>
      <stageThreshold>-1.4642980098724365e+00</stageThreshold>
      <weakClassifiers>
        <_>
          <internalNodes>
            0 -1 55 -686817825 -141790862 1966134783 -682276032
            -1165240164 -1337182 -87311105 -1057</internalNodes>
          <leafValues>
            -7.8632748126983643e-01 5.6790124624967575e-02</leafValues></_>
        <_>
          <internalNodes>
            0 -1 79 -32899184 -15269415 -1321083435 588641151 1842372568
            1416276517 804793215 956260223</internalNodes>
          <leafValues>
            -6.8796336650848389e-01 1.2106125801801682e-01</leafValues></_>
        <_>
          <internalNodes>
            0 -1 111 -1547838256 320435793 294687700 222282605
            1519043292 747160350 1084619257 435016117</internalNodes>
          <leafValues>
            -7.0014435052871704e-01 2.2637508809566498e-01</leafValues></_>
        <_>
          <internalNodes>
            0 -1 126 -419436672 579771791 1107484034 -488320305
            714191556 1132187907 -751177086 1371929595</internalNodes>
          <leafValues>
            -6.8783670663833618e-01 2.8231611847877502e-01</leafValues></_>
        <_>
          <internalNodes>
            0 -1 23 1289741926 1573571855 -493860170 -225143666
            -610798252 1644310531 2074738130 -708980869</internalNodes>
          <leafValues>
            -5.9555029869079590e-01 3.0244892835617065e-01</leafValues></_>
        <_>
          <internalNodes>
            0 -1 63 1618930704 -1629785516 -2004684280 -1698707389
            685502550 -167149325 -1906577197 -163583177</internalNodes>
          <leafValues>
            -6.4001899957656860e-01 2.9542049765586853e-01</leafValues></_></weakClassifiers></_>
    <!-- stage 10 -->
    <_>
      <maxWeakCount>7</maxWeakCount>
      <stageThreshold>-1.5302627086639404e+00</stageThreshold>
      <weakClassifiers>
        <_>
          <internalNodes>
            0 -1 38 -70254593 -136332849 -47981185 -136776225 -80740353
            -72735837 -276169025 -1117508</internalNodes>
          <leafValues>
            -7.8536587953567505e-01 -7.3684208095073700e-02</leafValues></_>
        <_>
          <internalNodes>
            0 -1 132 -603979777 -1613121221 -1919976227 -539179013
            -1190675969 -611771474 -573849603 -537330692</internalNodes>
          <leafValues>
            -4.8294192552566528e-01 3.9703658223152161e-01</leafValues></_>
        <_>
          <internalNodes>
            0 -1 139 -23069653 -1395683218 -586417310 -186738225
            -204508289 655043023 1066398694 -33817665</internalNodes>
          <leafValues>
            -4.7680383920669556e-01 3.6667090654373169e-01</leafValues></_>
        <_>
          <internalNodes>
            0 -1 102 725584898 286760683 -1583613185 97904335 388825752
            -814750521 823589367 1048561119</internalNodes>
          <leafValues>
            -6.3804876804351807e-01 2.7527132630348206e-01</leafValues></_>
        <_>
          <internalNodes>
            0 -1 18 -866716546 -37304634 -1054633124 -324603240
            -393127810 -1375885007 -2815317 -439883447</internalNodes>
          <leafValues>
            -5.2833181619644165e-01 3.5485780239105225e-01</leafValues></_>
        <_>
          <internalNodes>
            0 -1 53 736415832 -1408375662 1493268447 1432278288
            1791640094 -80360002 294451836 -396891689</internalNodes>
          <leafValues>
            -6.0139417648315430e-01 3.0574831366539001e-01</leafValues></_>
        <_>
          <internalNodes>
            0 -1 44 -792204562 960698070 -1854893500 -763962909
            1644876502 1199846061 -482181097 -988373146</internalNodes>
          <leafValues>
            -5.2556765079498291e-01 3.5292783379554749e-01</leafValues></_></weakClassifiers></_>
    <!-- stage 11 -->
    <_>
      <maxWeakCount>6</maxWeakCount>
      <stageThreshold>-1.8061937093734741e+00</stageThreshold>
      <weakClassifiers>
        <_>
          <internalNodes>
            0 -1 56 -144704513 -9695990 -594539009 -575298958
            -1732407666 -21921350 2017523903 -2622506</internalNodes>
          <leafValues>
            -7.8112000226974487e-01 -2.1176470443606377e-02</leafValues></_>
        <_>
          <internalNodes>
            0 -1 96 -53740105 1607942135 -583051265 685667037 751284367
            -125572423 1991996257 -1426129675</internalNodes>
          <leafValues>
            -5.8118855953216553e-01 1.9251063466072083e-01</leafValues></_>
        <_>
          <internalNodes>
            0 -1 3 103475874 521084450 1292980699 -709635006 63010247
            496640246 2008937100 -553667674</internalNodes>
          <leafValues>
            -5.8437359333038330e-01 2.8158113360404968e-01</leafValues></_>
        <_>
          <internalNodes>
            0 -1 29 1014647426 992544554 1211779702 2135901951 -51653505
            2033922843 1788941311 2053065183</internalNodes>
          <leafValues>
            -7.3987460136413574e-01 2.2104054689407349e-01</leafValues></_>
        <_>
          <internalNodes>
            0 -1 140 -17072625 179551758 -2032691586 1291220323
            -304129266 -619710162 -389856113 -434377878</internalNodes>
          <leafValues>
            -4.6135044097900391e-01 3.9484649896621704e-01</leafValues></_>
        <_>
          <internalNodes>
            0 -1 1 228583807 -470906618 1417803675 -1110687472 789541802
            688849073 1525124727 -9965081</internalNodes>
          <leafValues>
            -4.8515632748603821e-01 3.8867318630218506e-01</leafValues></_></weakClassifiers></_>
    <!-- stage 12 -->
    <_>
      <maxWeakCount>7</maxWeakCount>
      <stageThreshold>-1.5038639307022095e+00</stageThreshold>
      <weakClassifiers>
        <_>
          <internalNodes>
            0 -1 127 -672138273 -2100361 1976670175 -33832961 -240407926
            -2127617 -1299542342 -87171073</internalNodes>
          <leafValues>
            -7.6734060049057007e-01 5.0746269524097443e-02</leafValues></_>
        <_>
          <internalNodes>
            0 -1 123 -41944305 1562334043 2043222385 1599027483
            -87051493 -1634018625 2146367857 -637549633</internalNodes>
          <leafValues>
            -5.0837564468383789e-01 2.8665795922279358e-01</leafValues></_>
        <_>
          <internalNodes>
            0 -1 89 -1100190656 2085942869 -761764106 341172177
            -835010160 -634054206 -536243300 -243944197</internalNodes>
          <leafValues>
            -6.7014652490615845e-01 2.4204507470130920e-01</leafValues></_>
        <_>
          <internalNodes>
            0 -1 97 800009767 718229999 -1182017481 576385529 2109696886
            1017853963 1994339184 -296814349</internalNodes>
          <leafValues>
            -8.3269959688186646e-01 1.7959684133529663e-01</leafValues></_>
        <_>
          <internalNodes>
            0 -1 39 -1373058952 -539296900 -352284163 -1219748 671619067
            -1077313342 650683064 -378704140</internalNodes>
          <leafValues>
            -4.7893303632736206e-01 3.4871980547904968e-01</leafValues></_>
        <_>
          <internalNodes>
            0 -1 31 -338696638 1426975946 -800888361 -708329345
            1884027091 134349463 1322015434 -741649545</internalNodes>
          <leafValues>
            -4.3073230981826782e-01 4.2178699374198914e-01</leafValues></_>
        <_>
          <internalNodes>
            0 -1 51 1479784371 -96471519 1576680179 1987968561 350617339
            -1101529162 1603796698 -1137729993</internalNodes>
          <leafValues>
            -3.7356752157211304e-01 4.7683236002922058e-01</leafValues></_></weakClassifiers></_>
    <!-- stage 13 -->
    <_>
      <maxWeakCount>7</maxWeakCount>
      <stageThreshold>-1.5659734010696411e+00</stageThreshold>
      <weakClassifiers>
        <_>
          <internalNodes>
            0 -1 133 -8913121 2145371007 -598484001 -547374737
            -656410488 -17132917 -759497989 -83887169</internalNodes>
          <leafValues>
            -7.8337699174880981e-01 -1.1336032301187515e-01</leafValues></_>
        <_>
          <internalNodes>
            0 -1 11 -889237894 2138305223 -1362181603 -1436365997
            1262695833 433989802 200360655 -347013789</internalNodes>
          <leafValues>
            -6.7474114894866943e-01 8.9497849345207214e-02</leafValues></_>
        <_>
          <internalNodes>
            0 -1 122 -67122021 -148958952 -2121805480 489257937
            -79392534 -1175820224 454970265 1600909293</internalNodes>
          <leafValues>
            -4.0701642632484436e-01 3.8905206322669983e-01</leafValues></_>
        <_>
          <internalNodes>
            0 -1 50 -924406014 819252381 73195096 2147154380 1089074819
            -860248763 -792640785 988248491</internalNodes>
          <leafValues>
            -5.8463895320892334e-01 2.8089272975921631e-01</leafValues></_>
        <_>
          <internalNodes>
            0 -1 138 -151993 642208721 1615397978 1792782813 -248814076
            1253212526 -87054370 -184556545</internalNodes>
          <leafValues>
            -4.8511755466461182e-01 3.5071334242820740e-01</leafValues></_>
        <_>
          <internalNodes>
            0 -1 109 -102765232 1205276991 89344117 1733090427
            -371277942 -595051345 -1815420093 1558966527</internalNodes>
          <leafValues>
            -5.2824443578720093e-01 3.2955235242843628e-01</leafValues></_>
        <_>
          <internalNodes>
            0 -1 114 -1898293473 634967543 -720906913 489343291
            -2087338241 -560248182 -352710403 -870274696</internalNodes>
          <leafValues>
            -4.9897623062133789e-01 3.6366823315620422e-01</leafValues></_></weakClassifiers></_>
    <!-- stage 14 -->
    <_>
      <maxWeakCount>7</maxWeakCount>
      <stageThreshold>-1.4897726774215698e+00</stageThreshold>
      <weakClassifiers>
        <_>
          <internalNodes>
            0 -1 34 -46399521 -538570306 1543655935 -138951197
            -1971732740 -398353 -190121217 -3691521</internalNodes>
          <leafValues>
            -7.6915800571441650e-01 -2.9023746028542519e-02</leafValues></_>
        <_>
          <internalNodes>
            0 -1 133 -579358194 1046431615 -732045537 1226526575
            -660752248 -64767481 -762140454 -357564738</internalNodes>
          <leafValues>
            -5.2581071853637695e-01 2.1250604093074799e-01</leafValues></_>
        <_>
          <internalNodes>
            0 -1 17 -420483089 -306846769 -906771889 -399463241
            1321687924 -1355395505 -894706954 2104615551</internalNodes>
          <leafValues>
            -4.8937064409255981e-01 3.1555354595184326e-01</leafValues></_>
        <_>
          <internalNodes>
            0 -1 71 -277632182 391865110 -552764131 198816179 670519618
            -18790389 1602449751 -97585305</internalNodes>
          <leafValues>
            -5.2761662006378174e-01 3.0268099904060364e-01</leafValues></_>
        <_>
          <internalNodes>
            0 -1 43 -584418654 -1414887994 -812853162 -962637148
            -1322656262 250673473 -1294689057 2019906423</internalNodes>
          <leafValues>
            -5.4873925447463989e-01 3.0450373888015747e-01</leafValues></_>
        <_>
          <internalNodes>
            0 -1 136 2113923030 -1715798273 1593835250 -643711014
            1660944297 1056964475 -13148975 -600702981</internalNodes>
          <leafValues>
            -3.8080680370330811e-01 4.1792783141136169e-01</leafValues></_>
        <_>
          <internalNodes>
            0 -1 5 -2066765522 239767949 -1991193246 -593014369
            -1821668589 801735673 2068530275 -168820745</internalNodes>
          <leafValues>
            -5.8960580825805664e-01 2.7327841520309448e-01</leafValues></_></weakClassifiers></_>
    <!-- stage 15 -->
    <_>
      <maxWeakCount>8</maxWeakCount>
      <stageThreshold>-1.5641565322875977e+00</stageThreshold>
      <weakClassifiers>
        <_>
          <internalNodes>
            0 -1 47 -2622465 -572817072 1285586901 -549332620 -254433032
            -67915265 953064959 -603980033</internalNodes>
          <leafValues>
            -7.7293133735656738e-01 -9.2592589557170868e-02</leafValues></_>
        <_>
          <internalNodes>
            0 -1 100 1347273488 984702432 -58290179 -520322685
            2030795742 -351661418 -1177944132 -37750081</internalNodes>
          <leafValues>
            -5.5541020631790161e-01 1.6960473358631134e-01</leafValues></_>
        <_>
          <internalNodes>
            0 -1 10 1656465067 -1363742290 -1667401074 -757931262
            1523073814 2139884418 1869025621 -100794529</internalNodes>
          <leafValues>
            -5.1976895332336426e-01 2.6214635372161865e-01</leafValues></_>
        <_>
          <internalNodes>
            0 -1 24 -269747330 -1081936865 -1005809842 -428896513
            474997118 790833152 1258775807 1382399005</internalNodes>
          <leafValues>
            -5.4971653223037720e-01 2.6109290122985840e-01</leafValues></_>
        <_>
          <internalNodes>
            0 -1 77 713708560 397078648 -989824010 1205618964 716730840
            -1161521078 -156236934 -592059905</internalNodes>
          <leafValues>
            -5.9887111186981201e-01 2.6950305700302124e-01</leafValues></_>
        <_>
          <internalNodes>
            0 -1 142 -1085293013 772441030 -1726555568 -2070621794
            -610570652 1276645403 564585957 -486551561</internalNodes>
          <leafValues>
            -5.2438360452651978e-01 2.9434069991111755e-01</leafValues></_>
        <_>
          <internalNodes>
            0 -1 93 -627047248 991326297 -935039045 1065210587 946346422
            -1699919206 -542434387 1853725181</internalNodes>
          <leafValues>
            -5.8678257465362549e-01 2.6648241281509399e-01</leafValues></_>
        <_>
          <internalNodes>
            0 -1 81 -1890239713 173506775 1367893210 987672998
            1536322133 1054417028 -87299532 -1091374365</internalNodes>
          <leafValues>
            -6.3521170616149902e-01 2.4976950883865356e-01</leafValues></_></weakClassifiers></_>
    <!-- stage 16 -->
    <_>
      <maxWeakCount>8</maxWeakCount>
      <stageThreshold>-1.8579059839248657e+00</stageThreshold>
      <weakClassifiers>
        <_>
          <internalNodes>
            0 -1 85 -2360321 -18989 188833279 -577284417 -368641093
            -22511515 -1962157057 -1355031937</internalNodes>
          <leafValues>
            -7.5364077091217041e-01 1.3385826349258423e-01</leafValues></_>
        <_>
          <internalNodes>
            0 -1 66 -36715053 -1089588528 1288755071 -1793628544
            -1092720436 -1693785622 -1437140034 -1158188237</internalNodes>
          <leafValues>
            -4.7497224807739258e-01 2.9082989692687988e-01</leafValues></_>
        <_>
          <internalNodes>
            0 -1 90 -29628248 257196419 -1144730560 -596262947
            -691861248 -1810298313 450657034 891279359</internalNodes>
          <leafValues>
            -6.2920945882797241e-01 2.3385125398635864e-01</leafValues></_>
        <_>
          <internalNodes>
            0 -1 84 1518119458 1326686815 -899601569 -273968319
            -290397517 -1147950914 169857779 -966926477</internalNodes>
          <leafValues>
            -5.3607076406478882e-01 2.8280374407768250e-01</leafValues></_>
        <_>
          <internalNodes>
            0 -1 135 -194310382 681826584 -2126408884 1544215987
            1128991930 464175116 -2002781636 -287446533</internalNodes>
          <leafValues>
            -4.8128885030746460e-01 3.4209138154983521e-01</leafValues></_>
        <_>
          <internalNodes>
            0 -1 76 -1848942889 -836971954 1593955935 -17403427
            -1280616071 1536754048 -74919075 1142877756</internalNodes>
          <leafValues>
            -5.7982164621353149e-01 2.7193701267242432e-01</leafValues></_>
        <_>
          <internalNodes>
            0 -1 68 -2000242912 -1575712249 -1208417356 -2056959937
            -1828054795 1479247880 309146043 -1490123811</internalNodes>
          <leafValues>
            -6.4272075891494751e-01 2.6404732465744019e-01</leafValues></_>
        <_>
          <internalNodes>
            0 -1 0 -234627113 1895561058 -9240741 -739510623 1998798122
            -71303249 1599602199 -6980105</internalNodes>
          <leafValues>
            -3.4208837151527405e-01 5.0546795129776001e-01</leafValues></_></weakClassifiers></_>
    <!-- stage 17 -->
    <_>
      <maxWeakCount>8</maxWeakCount>
      <stageThreshold>-1.7715523242950439e+00</stageThreshold>
      <weakClassifiers>
        <_>
          <internalNodes>
            0 -1 78 -109061153 -15079692 -1019551905 -773336675
            -125071110 -117931027 -1433353985 -545830465</internalNodes>
          <leafValues>
            -7.7282851934432983e-01 -5.1597051322460175e-02</leafValues></_>
        <_>
          <internalNodes>
            0 -1 119 -1355549926 -1625988429 822694287 -7223542
            -2120888375 -1709209407 299884025 -840971851</internalNodes>
          <leafValues>
            -5.6031936407089233e-01 1.5290321409702301e-01</leafValues></_>
        <_>
          <internalNodes>
            0 -1 45 -1643731782 -1770026843 373304351 605045275
            270145791 -1144323327 1559104062 140915119</internalNodes>
          <leafValues>
            -7.2189676761627197e-01 1.8447802960872650e-01</leafValues></_>
        <_>
          <internalNodes>
            0 -1 83 -932196330 361878481 201543753 -384838563 981619418
            503398582 142696058 1402037345</internalNodes>
          <leafValues>
            -5.0556230545043945e-01 3.1509301066398621e-01</leafValues></_>
        <_>
          <internalNodes>
            0 -1 121 -149984005 1903644570 1342703185 1515947656
            599806944 -494272375 -2127947523 1573911469</internalNodes>
          <leafValues>
            -4.3823045492172241e-01 3.7110951542854309e-01</leafValues></_>
        <_>
          <internalNodes>
            0 -1 30 -46171603 455868402 -528581 1933031147 1199472589
            1199570911 2012740930 -17564046</internalNodes>
          <leafValues>
            -3.8207238912582397e-01 4.3018290400505066e-01</leafValues></_>
        <_>
          <internalNodes>
            0 -1 42 132090338 545906894 1493373426 -137702389 34169811
            1083817984 286218727 -723266640</internalNodes>
          <leafValues>
            -5.3606951236724854e-01 3.2635429501533508e-01</leafValues></_>
        <_>
          <internalNodes>
            0 -1 116 -204514526 1486348662 1226188381 453066939
            1484988638 1520673728 -87450884 -354427971</internalNodes>
          <leafValues>
            -4.4402697682380676e-01 3.6704140901565552e-01</leafValues></_></weakClassifiers></_>
    <!-- stage 18 -->
    <_>
      <maxWeakCount>7</maxWeakCount>
      <stageThreshold>-1.4079132080078125e+00</stageThreshold>
      <weakClassifiers>
        <_>
          <internalNodes>
            0 -1 35 -69214721 -237523713 -11149985 -708323841 -67376149
            -124222975 -1112804407 -5244501</internalNodes>
          <leafValues>
            -7.4699521064758301e-01 1.6216215491294861e-01</leafValues></_>
        <_>
          <internalNodes>
            0 -1 70 -192811809 2112964829 -184461097 576311749
            2072732667 1759035422 1535867239 -87623435</internalNodes>
          <leafValues>
            -5.3392505645751953e-01 2.0275151729583740e-01</leafValues></_>
        <_>
          <internalNodes>
            0 -1 130 -2066792913 306767590 1962953458 1724505040
            362697554 1214268939 1466429585 -690226485</internalNodes>
          <leafValues>
            -5.1662105321884155e-01 2.7000805735588074e-01</leafValues></_>
        <_>
          <internalNodes>
            0 -1 104 -16793681 -202641429 -262278 -140312592 536649719
            -822083585 -107522 -168558622</internalNodes>
          <leafValues>
            -3.2984963059425354e-01 4.5300146937370300e-01</leafValues></_>
        <_>
          <internalNodes>
            0 -1 115 773851316 978360443 -1878958825 681218391
            1808474605 -1155921760 -251010312 -1935606929</internalNodes>
          <leafValues>
            -6.1362558603286743e-01 2.6260057091712952e-01</leafValues></_>
        <_>
          <internalNodes>
            0 -1 19 1783508026 -119618748 -134200038 -117779505
            -2021073387 -359920862 -98874477 -304617401</internalNodes>
          <leafValues>
            -4.3960836529731750e-01 3.7890341877937317e-01</leafValues></_>
        <_>
          <internalNodes>
            0 -1 22 970643392 751365506 -1391245490 459080361
            -1979921610 2139918399 554749674 2004834779</internalNodes>
          <leafValues>
            -5.6532782316207886e-01 2.8723716735839844e-01</leafValues></_></weakClassifiers></_>
    <!-- stage 19 -->
    <_>
      <maxWeakCount>7</maxWeakCount>
      <stageThreshold>-1.4881839752197266e+00</stageThreshold>
      <weakClassifiers>
        <_>
          <internalNodes>
            0 -1 65 -13640741 -1076932272 1024485879 -8047847
            -1163687780 -105840471 -1198945541 -4463657</internalNodes>
          <leafValues>
            -7.7770638465881348e-01 -6.6361553966999054e-02</leafValues></_>
        <_>
          <internalNodes>
            0 -1 64 -1534641703 533889373 -1341828707 1295042795
            -2129998785 -1147547544 -249919267 -850931460</internalNodes>
          <leafValues>
            -5.3623861074447632e-01 1.9129222631454468e-01</leafValues></_>
        <_>
          <internalNodes>
            0 -1 57 -607919425 -1687180978 -2075799183 809427009
            1088275172 -1098708759 1639728053 -1193094841</internalNodes>
          <leafValues>
            -3.8455167412757874e-01 3.9726951718330383e-01</leafValues></_>
        <_>
          <internalNodes>
            0 -1 128 375196231 1795982675 -1878912163 848642443
            -460384038 998884494 145926878 842658123</internalNodes>
          <leafValues>
            -6.1182993650436401e-01 2.7057799696922302e-01</leafValues></_>
        <_>
          <internalNodes>
            0 -1 73 1481550246 410617139 -180317777 1187901748 162021622
            -1059822973 568574810 -826056557</internalNodes>
          <leafValues>
            -4.8592582345008850e-01 3.5967379808425903e-01</leafValues></_>
        <_>
          <internalNodes>
            0 -1 124 -1279411324 -1487556158 1358991380 -1706953571
            -204920528 1852416703 1510931268 -2100696269</internalNodes>
          <leafValues>
            -5.8881336450576782e-01 2.8393104672431946e-01</leafValues></_>
        <_>
          <internalNodes>
            0 -1 107 1515446441 437336258 1363429806 1026157633
            1766685832 -1337858511 -28321206 705684767</internalNodes>
          <leafValues>
            -4.8521468043327332e-01 3.5285553336143494e-01</leafValues></_></weakClassifiers></_>
    <!-- stage 20 -->
    <_>
      <maxWeakCount>8</maxWeakCount>
      <stageThreshold>-1.4041937589645386e+00</stageThreshold>
      <weakClassifiers>
        <_>
          <internalNodes>
            0 -1 113 -229377313 2065639103 1628021247 2144596827
            -381762310 -74841843 -535652101 -7623942</internalNodes>
          <leafValues>
            -7.7952241897583008e-01 -1.3590264320373535e-01</leafValues></_>
        <_>
          <internalNodes>
            0 -1 61 -280548849 -1160282025 88782 -1329475239 -905269158
            1628602881 -771499298 -171181857</internalNodes>
          <leafValues>
            -5.2481055259704590e-01 1.9062803685665131e-01</leafValues></_>
        <_>
          <internalNodes>
            0 -1 91 243917698 1270831 -1850486320 210219658 -699478077
            415604970 76001845 -1140204811</internalNodes>
          <leafValues>
            -6.7027455568313599e-01 1.9798891246318817e-01</leafValues></_>
        <_>
          <internalNodes>
            0 -1 80 1738206327 -71933353 -1853732463 260069573
            -2109544961 -934256438 428374393 -1157733099</internalNodes>
          <leafValues>
            -4.6877354383468628e-01 3.1765246391296387e-01</leafValues></_>
        <_>
          <internalNodes>
            0 -1 36 1200669796 -1352884068 -2130524876 137552305
            -821923062 -1684404047 -255505786 2113933975</internalNodes>
          <leafValues>
            -7.3130363225936890e-01 2.5179368257522583e-01</leafValues></_>
        <_>
          <internalNodes>
            0 -1 129 -815812854 194633752 -1998028604 290013394
            579838082 1126269984 -89005149 -1921660747</internalNodes>
          <leafValues>
            -5.4736191034317017e-01 3.0030280351638794e-01</leafValues></_>
        <_>
          <internalNodes>
            0 -1 25 -788931697 -1033111361 -1213304835 1371493539
            1744792872 -138412673 925889802 -1515228773</internalNodes>
          <leafValues>
            -3.8793772459030151e-01 4.6095818281173706e-01</leafValues></_>
        <_>
          <internalNodes>
            0 -1 120 1406501222 865128737 -2096577078 -788475374
            -116559614 1595015472 -293050185 1156708891</internalNodes>
          <leafValues>
            -5.1323336362838745e-01 3.4067726135253906e-01</leafValues></_></weakClassifiers></_>
    <!-- stage 21 -->
    <_>
      <maxWeakCount>7</maxWeakCount>
      <stageThreshold>-1.9068906307220459e+00</stageThreshold>
      <weakClassifiers>
        <_>
          <internalNodes>
            0 -1 112 -2760737 -16525927 -15394497 -15339105 -25118498
            -70347847 -1341413153 -70263041</internalNodes>
          <leafValues>
            -7.4532502889633179e-01 3.3701658248901367e-01</leafValues></_>
        <_>
          <internalNodes>
            0 -1 2 1817693515 1770913860 -721397418 -783662892
            2030199027 -922709871 -1331458585 -3044361</internalNodes>
          <leafValues>
            -5.2201539278030396e-01 1.9744117558002472e-01</leafValues></_>
        <_>
          <internalNodes>
            0 -1 21 -751331825 -739955909 -546423681 2139039539
            1291745214 -721454242 1585330031 -436480731</internalNodes>
          <leafValues>
            -3.6748713254928589e-01 4.3936052918434143e-01</leafValues></_>
        <_>
          <internalNodes>
            0 -1 33 388422520 1033180272 219450713 2136421233 59886733
            -74728673 763799343 193522163</internalNodes>
          <leafValues>
            -4.6080854535102844e-01 3.3213865756988525e-01</leafValues></_>
        <_>
          <internalNodes>
            0 -1 74 324481278 -1455238964 1594479389 1041275868
            -2004670406 -15095665 -1013200804 1429392888</internalNodes>
          <leafValues>
            -6.5241587162017822e-01 2.3587574064731598e-01</leafValues></_>
        <_>
          <internalNodes>
            0 -1 26 -670189352 752681218 268438869 1439240594 -461137384
            377108633 1915292532 -135010043</internalNodes>
          <leafValues>
            -4.8292177915573120e-01 3.3467435836791992e-01</leafValues></_>
        <_>
          <internalNodes>
            0 -1 62 2140270746 932726920 1560969492 1393864784
            1401028859 1260462249 1124683246 -701114091</internalNodes>
          <leafValues>
            -4.7771504521369934e-01 3.5206496715545654e-01</leafValues></_></weakClassifiers></_>
    <!-- stage 22 -->
    <_>
      <maxWeakCount>8</maxWeakCount>
      <stageThreshold>-1.2492439746856689e+00</stageThreshold>
      <weakClassifiers>
        <_>
          <internalNodes>
            0 -1 95 -102892549 -143158369 -199127075 -35272231 -68093701
            -1104444758 -802032913 -14957685</internalNodes>
          <leafValues>
            -7.4626863002777100e-01 2.5000000000000000e-01</leafValues></_>
        <_>
          <internalNodes>
            0 -1 125 -213397793 1595198411 -1987448244 826542136
            2121998554 2135785601 -429807442 -1995969641</internalNodes>
          <leafValues>
            -4.6851673722267151e-01 2.9563146829605103e-01</leafValues></_>
        <_>
          <internalNodes>
            0 -1 86 1488802890 2143453442 33021 885334896 1781172300
            -670732272 713592523 -568471813</internalNodes>
          <leafValues>
            -4.6563017368316650e-01 3.0680558085441589e-01</leafValues></_>
        <_>
          <internalNodes>
            0 -1 72 210191182 274207726 1887490538 1518458008 1502179421
            -628555772 -242617259 -85036381</internalNodes>
          <leafValues>
            -5.2616977691650391e-01 2.8948497772216797e-01</leafValues></_>
        <_>
          <internalNodes>
            0 -1 37 -155016642 -1828356056 -771211220 -626581448
            193390895 713687208 277027424 1507146187</internalNodes>
          <leafValues>
            -4.7619032859802246e-01 3.4822076559066772e-01</leafValues></_>
        <_>
          <internalNodes>
            0 -1 58 -634683664 -216804665 -1855499744 -40394415
            448876991 2026259075 315066019 1519051725</internalNodes>
          <leafValues>
            -5.2859443426132202e-01 3.2035434246063232e-01</leafValues></_>
        <_>
          <internalNodes>
            0 -1 118 1322732764 890532299 403003715 921504053
            -1609956146 -1592786750 682382539 707817807</internalNodes>
          <leafValues>
            -6.1919456720352173e-01 2.7995407581329346e-01</leafValues></_>
        <_>
          <internalNodes>
            0 -1 106 40987340 1029636291 -234877770 411292035 176270604
            18907203 -1409201934 -171670778</internalNodes>
          <leafValues>
            -5.9532910585403442e-01 2.6300129294395447e-01</leafValues></_></weakClassifiers></_></stages>
  <features>
    <_>
      <rect>
        0 0 5 8</rect></_>
    <_>
      <rect>
        0 2 2 2</rect></_>
    <_>
      <rect>
        0 5 1 1</rect></_>
    <_>
      <rect>
        0 5 3 5</rect></_>
    <_>
      <rect>
        0 6 8 5</rect></_>
    <_>
      <rect>
        0 7 1 1</rect></_>
    <_>
      <rect>
        0 7 2 1</rect></_>
    <_>
      <rect>
        0 8 1 1</rect></_>
    <_>
      <rect>
        0 11 1 1</rect></_>
    <_>
      <rect>
        0 11 3 5</rect></_>
    <_>
      <rect>
        0 12 1 2</rect></_>
    <_>
      <rect>
        0 16 3 10</rect></_>
    <_>
      <rect>
        0 17 5 9</rect></_>
    <_>
      <rect>
        0 20 2 2</rect></_>
    <_>
      <rect>
        0 22 3 8</rect></_>
    <_>
      <rect>
        0 22 4 6</rect></_>
    <_>
      <rect>
        0 22 5 7</rect></_>
    <_>
      <rect>
        0 28 3 5</rect></_>
    <_>
      <rect>
        0 30 5 6</rect></_>
    <_>
      <rect>
        0 38 2 3</rect></_>
    <_>
      <rect>
        1 0 5 9</rect></_>
    <_>
      <rect>
        1 5 2 7</rect></_>
    <_>
      <rect>
        1 9 6 7</rect></_>
    <_>
      <rect>
        1 20 2 3</rect></_>
    <_>
      <rect>
        1 25 3 4</rect></_>
    <_>
      <rect>
        2 0 5 7</rect></_>
    <_>
      <rect>
        2 0 6 3</rect></_>
    <_>
      <rect>
        2 1 6 14</rect></_>
    <_>
      <rect>
        2 9 5 7</rect></_>
    <_>
      <rect>
        2 11 5 10</rect></_>
    <_>
      <rect>
        2 12 2 3</rect></_>
    <_>
      <rect>
        2 13 2 5</rect></_>
    <_>
      <rect>
        2 33 7 5</rect></_>
    <_>
      <rect>
        3 1 3 4</rect></_>
    <_>
      <rect>
        3 1 5 2</rect></_>
    <_>
      <rect>
        3 1 5 6</rect></_>
    <_>
      <rect>
        3 27 4 7</rect></_>
    <_>
      <rect>
        3 28 2 3</rect></_>
    <_>
      <rect>
        3 44 1 1</rect></_>
    <_>
      <rect>
        4 0 2 2</rect></_>
    <_>
      <rect>
        4 2 4 2</rect></_>
    <_>
      <rect>
        4 5 6 11</rect></_>
    <_>
      <rect>
        4 9 1 1</rect></_>
    <_>
      <rect>
        4 11 3 4</rect></_>
    <_>
      <rect>
        4 22 2 3</rect></_>
    <_>
      <rect>
        4 23 3 6</rect></_>
    <_>
      <rect>
        4 27 1 1</rect></_>
    <_>
      <rect>
        5 1 5 3</rect></_>
    <_>
      <rect>
        5 2 4 2</rect></_>
    <_>
      <rect>
        5 5 5 6</rect></_>
    <_>
      <rect>
        5 9 3 3</rect></_>
    <_>
      <rect>
        5 22 4 7</rect></_>
    <_>
      <rect>
        5 45 1 1</rect></_>
    <_>
      <rect>
        6 0 4 3</rect></_>
    <_>
      <rect>
        6 0 6 16</rect></_>
    <_>
      <rect>
        6 1 4 2</rect></_>
    <_>
      <rect>
        6 2 5 2</rect></_>
    <_>
      <rect>
        6 4 3 2</rect></_>
    <_>
      <rect>
        6 10 5 12</rect></_>
    <_>
      <rect>
        6 17 4 6</rect></_>
    <_>
      <rect>
        6 21 6 9</rect></_>
    <_>
      <rect>
        6 23 1 1</rect></_>
    <_>
      <rect>
        6 25 3 3</rect></_>
    <_>
      <rect>
        6 27 4 6</rect></_>
    <_>
      <rect>
        6 42 2 2</rect></_>
    <_>
      <rect>
        7 1 4 2</rect></_>
    <_>
      <rect>
        7 2 3 2</rect></_>
    <_>
      <rect>
        7 4 5 7</rect></_>
    <_>
      <rect>
        7 9 3 3</rect></_>
    <_>
      <rect>
        7 12 4 11</rect></_>
    <_>
      <rect>
        7 17 3 2</rect></_>
    <_>
      <rect>
        7 18 2 3</rect></_>
    <_>
      <rect>
        7 19 1 1</rect></_>
    <_>
      <rect>
        7 21 3 6</rect></_>
    <_>
      <rect>
        7 39 3 3</rect></_>
    <_>
      <rect>
        7 41 4 1</rect></_>
    <_>
      <rect>
        7 44 1 1</rect></_>
    <_>
      <rect>
        8 0 2 2</rect></_>
    <_>
      <rect>
        8 2 3 3</rect></_>
    <_>
      <rect>
        8 12 3 7</rect></_>
    <_>
      <rect>
        8 14 1 3</rect></_>
    <_>
      <rect>
        8 20 1 1</rect></_>
    <_>
      <rect>
        8 21 2 1</rect></_>
    <_>
      <rect>
        8 26 3 3</rect></_>
    <_>
      <rect>
        8 27 4 5</rect></_>
    <_>
      <rect>
        8 30 3 3</rect></_>
    <_>
      <rect>
        9 0 4 3</rect></_>
    <_>
      <rect>
        9 2 1 1</rect></_>
    <_>
      <rect>
        9 6 2 5</rect></_>
    <_>
      <rect>
        9 8 3 4</rect></_>
    <_>
      <rect>
        9 10 4 5</rect></_>
    <_>
      <rect>
        9 15 5 10</rect></_>
    <_>
      <rect>
        9 17 1 1</rect></_>
    <_>
      <rect>
        9 18 3 6</rect></_>
    <_>
      <rect>
        9 20 5 7</rect></_>
    <_>
      <rect>
        9 27 3 3</rect></_>
    <_>
      <rect>
        10 16 1 2</rect></_>
    <_>
      <rect>
        10 20 1 1</rect></_>
    <_>
      <rect>
        10 39 1 2</rect></_>
    <_>
      <rect>
        11 0 1 1</rect></_>
    <_>
      <rect>
        11 0 4 2</rect></_>
    <_>
      <rect>
        11 1 1 2</rect></_>
    <_>
      <rect>
        11 3 4 10</rect></_>
    <_>
      <rect>
        11 19 1 1</rect></_>
    <_>
      <rect>
        11 42 4 2</rect></_>
    <_>
      <rect>
        12 0 1 1</rect></_>
    <_>
      <rect>
        12 9 3 4</rect></_>
    <_>
      <rect>
        12 14 3 5</rect></_>
    <_>
      <rect>
        12 19 4 8</rect></_>
    <_>
      <rect>
        12 27 4 4</rect></_>
    <_>
      <rect>
        12 40 2 2</rect></_>
    <_>
      <rect>
        13 21 3 9</rect></_>
    <_>
      <rect>
        14 2 3 3</rect></_>
    <_>
      <rect>
        14 4 3 6</rect></_>
    <_>
      <rect>
        14 42 2 2</rect></_>
    <_>
      <rect>
        15 0 1 1</rect></_>
    <_>
      <rect>
        15 0 3 3</rect></_>
    <_>
      <rect>
        15 1 3 3</rect></_>
    <_>
      <rect>
        15 2 2 3</rect></_>
    <_>
      <rect>
        15 11 3 12</rect></_>
    <_>
      <rect>
        15 17 2 3</rect></_>
    <_>
      <rect>
        15 20 2 8</rect></_>
    <_>
      <rect>
        15 23 2 5</rect></_>
    <_>
      <rect>
        15 26 3 6</rect></_>
    <_>
      <rect>
        15 32 3 5</rect></_>
    <_>
      <rect>
        16 10 2 5</rect></_>
    <_>
      <rect>
        16 24 2 2</rect></_>
    <_>
      <rect>
        17 2 2 2</rect></_>
    <_>
      <rect>
        17 2 2 3</rect></_>
    <_>
      <rect>
        17 15 2 4</rect></_>
    <_>
      <rect>
        17 19 1 2</rect></_>
    <_>
      <rect>
        17 25 2 4</rect></_>
    <_>
      <rect>
        17 44 1 1</rect></_>
    <_>
      <rect>
        18 1 2 3</rect></_>
    <_>
      <rect>
        18 3 2 1</rect></_>
    <_>
      <rect>
        18 7 2 6</rect></_>
    <_>
      <rect>
        18 21 2 5</rect></_>
    <_>
      <rect>
        18 23 1 1</rect></_>
    <_>
      <rect>
        20 8 1 1</rect></_>
    <_>
      <rect>
        20 20 1 1</rect></_>
    <_>
      <rect>
        21 5 1 2</rect></_>
    <_>
      <rect>
        21 11 1 1</rect></_>
    <_>
      <rect>
        21 14 1 2</rect></_>
    <_>
      <rect>
        21 18 1 2</rect></_></features></cascade>
</opencv_storage>
