<?xml version="1.0"?>
<opencv_storage>
<cascade>
  <stageType>BOOST</stageType>
  <featureType>LBP</featureType>
  <height>48</height>
  <width>24</width>
  <stageParams>
    <boostType>GAB</boostType>
    <minHitRate>9.9500000476837158e-01</minHitRate>
    <maxFalseAlarm>5.0000000000000000e-01</maxFalseAlarm>
    <weightTrimRate>9.4999999999999996e-01</weightTrimRate>
    <maxDepth>1</maxDepth>
    <maxWeakCount>100</maxWeakCount></stageParams>
  <featureParams>
    <maxCatCount>256</maxCatCount>
    <featSize>1</featSize></featureParams>
  <stageNum>15</stageNum>
  <stages>
    <!-- stage 0 -->
    <_>
      <maxWeakCount>5</maxWeakCount>
      <stageThreshold>-9.9104827642440796e-01</stageThreshold>
      <weakClassifiers>
        <_>
          <internalNodes>
            0 -1 68 -682632237 118690051 -1879003055 1497747795
            -334325606 -628391936 1079624177 -8390689</internalNodes>
          <leafValues>
            -7.0255136489868164e-01 5.1381218433380127e-01</leafValues></_>
        <_>
          <internalNodes>
            0 -1 12 -884474113 1331405454 49373 -334577465 201984302
            -1953953144 1130971 -362294305</internalNodes>
          <leafValues>
            -5.8364152908325195e-01 5.5515187978744507e-01</leafValues></_>
        <_>
          <internalNodes>
            0 -1 40 -930847744 -486025199 120833 1427616705 -2000024849
            -7665008 1084277983 -538181665</internalNodes>
          <leafValues>
            -6.2323343753814697e-01 5.3011858463287354e-01</leafValues></_>
        <_>
          <internalNodes>
            0 -1 21 1594032314 990330882 1409421459 2031816784
            -2012553073 -1693955958 -1475947811 2134333947</internalNodes>
          <leafValues>
            -6.6615283489227295e-01 5.0965040922164917e-01</leafValues></_>
        <_>
          <internalNodes>
            0 -1 42 -1358213574 1477656983 1092633051 352653715
            151392475 -1744109440 142745707 1596150015</internalNodes>
          <leafValues>
            -7.3006588220596313e-01 4.6042656898498535e-01</leafValues></_></weakClassifiers></_>
    <!-- stage 1 -->
    <_>
      <maxWeakCount>4</maxWeakCount>
      <stageThreshold>-6.6910052299499512e-01</stageThreshold>
      <weakClassifiers>
        <_>
          <internalNodes>
            0 -1 7 -18878910 -1068314289 1543684274 -84164377 -750171370
            1375979523 -208150029 -17</internalNodes>
          <leafValues>
            -8.3053433895111084e-01 2.8333333134651184e-01</leafValues></_>
        <_>
          <internalNodes>
            0 -1 45 -943739093 771999229 -1710106289 840880347
            1504255847 587563144 -1337265355 -1298</internalNodes>
          <leafValues>
            -7.3880994319915771e-01 4.0570062398910522e-01</leafValues></_>
        <_>
          <internalNodes>
            0 -1 34 -1571109310 1364300065 25236369 870695139 -528088390
            1481613467 -251468593 -137626929</internalNodes>
          <leafValues>
            -7.2012513875961304e-01 4.7087144851684570e-01</leafValues></_>
        <_>
          <internalNodes>
            0 -1 11 -529537809 -1894006514 -939470689 1657258634
            134570007 1799969219 1720676703 -8404137</internalNodes>
          <leafValues>
            -6.3800930976867676e-01 5.4850333929061890e-01</leafValues></_></weakClassifiers></_>
    <!-- stage 2 -->
    <_>
      <maxWeakCount>5</maxWeakCount>
      <stageThreshold>-1.1287237405776978e+00</stageThreshold>
      <weakClassifiers>
        <_>
          <internalNodes>
            0 -1 58 -539232289 -283150857 -716843521 -27593442
            -1015420501 -890791285 -695752201 -136840209</internalNodes>
          <leafValues>
            -6.8553459644317627e-01 4.2857143282890320e-01</leafValues></_>
        <_>
          <internalNodes>
            0 -1 6 -476590329 -293088569 -497598458 -1159209001
            1203462503 1867500374 -523807897 -41</internalNodes>
          <leafValues>
            -6.3778132200241089e-01 4.7046104073524475e-01</leafValues></_>
        <_>
          <internalNodes>
            0 -1 86 1476382479 584036459 1112749126 36164477 -790471163
            817576262 -611337354 -1023410189</internalNodes>
          <leafValues>
            -6.9225263595581055e-01 4.5527517795562744e-01</leafValues></_>
        <_>
          <internalNodes>
            0 -1 32 -763670016 152826590 1715717281 -224464053
            1899687508 -115784761 1755276755 -1048577</internalNodes>
          <leafValues>
            -6.8076890707015991e-01 4.3876057863235474e-01</leafValues></_>
        <_>
          <internalNodes>
            0 -1 46 -1361105361 785893075 -1878996837 818901499
            2013485638 1536131434 -318612880 -553648269</internalNodes>
          <leafValues>
            -6.6513168811798096e-01 4.5350772142410278e-01</leafValues></_></weakClassifiers></_>
    <!-- stage 3 -->
    <_>
      <maxWeakCount>6</maxWeakCount>
      <stageThreshold>-1.6220110654830933e+00</stageThreshold>
      <weakClassifiers>
        <_>
          <internalNodes>
            0 -1 69 -241 1268473619 -1716054127 524799311 -67376373
            -2001767889 -680533564 -33557507</internalNodes>
          <leafValues>
            -6.7514675855636597e-01 2.9983791708946228e-01</leafValues></_>
        <_>
          <internalNodes>
            0 -1 15 -178664449 -284307193 -1188032522 -492285158
            -878471041 -353126145 -548292204 -176948393</internalNodes>
          <leafValues>
            -6.5044039487838745e-01 3.5146102309226990e-01</leafValues></_>
        <_>
          <internalNodes>
            0 -1 3 -827339989 1252681999 1627616303 -829349522
            1332435059 1314357267 1401397763 -27300009</internalNodes>
          <leafValues>
            -5.7036077976226807e-01 4.2003852128982544e-01</leafValues></_>
        <_>
          <internalNodes>
            0 -1 49 -1465365452 -134581931 -119287593 -697451151
            -2012763145 -338001709 1614856244 -313022985</internalNodes>
          <leafValues>
            -6.7890977859497070e-01 3.4586554765701294e-01</leafValues></_>
        <_>
          <internalNodes>
            0 -1 78 -1546689686 713332639 1493120234 -292686353
            -1014195968 1333854831 -703997517 -134218057</internalNodes>
          <leafValues>
            -6.1236041784286499e-01 4.0641340613365173e-01</leafValues></_>
        <_>
          <internalNodes>
            0 -1 56 -268994081 -1076166660 2134769663 -679690499
            1065287661 -1216872449 1576869137 -558178379</internalNodes>
          <leafValues>
            -4.4996753334999084e-01 5.5029004812240601e-01</leafValues></_></weakClassifiers></_>
    <!-- stage 4 -->
    <_>
      <maxWeakCount>5</maxWeakCount>
      <stageThreshold>-9.1331619024276733e-01</stageThreshold>
      <weakClassifiers>
        <_>
          <internalNodes>
            0 -1 61 -1458424997 -1148054053 -803760675 -83394223
            -1836512017 -1295809997 -1144790341 -2381137</internalNodes>
          <leafValues>
            -6.3796353340148926e-01 2.9516994953155518e-01</leafValues></_>
        <_>
          <internalNodes>
            0 -1 37 1527765968 406020315 285266139 1025098639 373888475
            2055962793 1498673083 1333525503</internalNodes>
          <leafValues>
            -6.1842930316925049e-01 3.3665037155151367e-01</leafValues></_>
        <_>
          <internalNodes>
            0 -1 31 -807408753 -867778537 574800122 1912853194
            -1702641850 1110919177 -1416121646 -135596825</internalNodes>
          <leafValues>
            -4.8818635940551758e-01 4.5073604583740234e-01</leafValues></_>
        <_>
          <internalNodes>
            0 -1 88 -410039769 -1374039646 -796114756 -527436942
            -217845494 965247307 -1194669925 -295699825</internalNodes>
          <leafValues>
            -5.0591927766799927e-01 4.5491924881935120e-01</leafValues></_>
        <_>
          <internalNodes>
            0 -1 55 -773868558 -946556327 486560088 -49409747 -644875592
            -905281397 -782890672 -576457759</internalNodes>
          <leafValues>
            -5.3487360477447510e-01 4.6817156672477722e-01</leafValues></_></weakClassifiers></_>
    <!-- stage 5 -->
    <_>
      <maxWeakCount>5</maxWeakCount>
      <stageThreshold>-1.0969504117965698e+00</stageThreshold>
      <weakClassifiers>
        <_>
          <internalNodes>
            0 -1 22 -253898542 -217505776 -1006152527 -1291598891
            -1068969736 -125173622 -804460325 -542118769</internalNodes>
          <leafValues>
            -6.9498330354690552e-01 2.8854963183403015e-01</leafValues></_>
        <_>
          <internalNodes>
            0 -1 17 -96013602 -241663856 71460185 335696457 -2012075268
            -111869943 -239015217 -29308133</internalNodes>
          <leafValues>
            -5.7038891315460205e-01 4.0390136837959290e-01</leafValues></_>
        <_>
          <internalNodes>
            0 -1 65 549685811 353079680 1392638553 2018509696 403103945
            -1677471616 -208936240 -91294988</internalNodes>
          <leafValues>
            -5.2107286453247070e-01 4.5769092440605164e-01</leafValues></_>
        <_>
          <internalNodes>
            0 -1 62 -1400762252 2130841812 25383390 -602980012
            -1870522184 -83329004 -150277954 -1104389211</internalNodes>
          <leafValues>
            -7.0773428678512573e-01 3.6391043663024902e-01</leafValues></_>
        <_>
          <internalNodes>
            0 -1 2 -463763570 -1610383104 -737091312 -798916342
            -799395835 -736198518 1233180802 -863245647</internalNodes>
          <leafValues>
            -5.5582511425018311e-01 4.4960859417915344e-01</leafValues></_></weakClassifiers></_>
    <!-- stage 6 -->
    <_>
      <maxWeakCount>6</maxWeakCount>
      <stageThreshold>-1.2113122940063477e+00</stageThreshold>
      <weakClassifiers>
        <_>
          <internalNodes>
            0 -1 59 -2086186123 -1717595687 50418903 -612818849
            -1450534405 -217412910 -393483537 -68160517</internalNodes>
          <leafValues>
            -6.1561560630798340e-01 3.6082473397254944e-01</leafValues></_>
        <_>
          <internalNodes>
            0 -1 41 -686568782 487838259 -830386985 521665233 14483595
            675512455 -624269121 -26223637</internalNodes>
          <leafValues>
            -5.1048463582992554e-01 4.1936922073364258e-01</leafValues></_>
        <_>
          <internalNodes>
            0 -1 60 -2037421121 -1344354829 -183805859 -293676258
            -607450605 -297531344 -2037972912 -1495340240</internalNodes>
          <leafValues>
            -6.5050196647644043e-01 3.4678965806961060e-01</leafValues></_>
        <_>
          <internalNodes>
            0 -1 57 -545305219 -1135054570 -742288899 1066703048
            -1093975364 -1181038579 -611697671 -6104307</internalNodes>
          <leafValues>
            -4.9053660035133362e-01 4.4707614183425903e-01</leafValues></_>
        <_>
          <internalNodes>
            0 -1 16 -280495361 2137057826 -2030010292 -498151277
            304185726 -1436317652 1250542842 1522905327</internalNodes>
          <leafValues>
            -4.7505605220794678e-01 4.7081372141838074e-01</leafValues></_>
        <_>
          <internalNodes>
            0 -1 80 -134222241 1601888187 1048526129 1474822001
            -402653702 -1937965057 -50397243 -809511426</internalNodes>
          <leafValues>
            -3.5259988903999329e-01 6.6164302825927734e-01</leafValues></_></weakClassifiers></_>
    <!-- stage 7 -->
    <_>
      <maxWeakCount>7</maxWeakCount>
      <stageThreshold>-1.1022003889083862e+00</stageThreshold>
      <weakClassifiers>
        <_>
          <internalNodes>
            0 -1 36 -141689857 -540306985 320467039 -539015015
            -1320443674 -678455808 -880760097 -3483448</internalNodes>
          <leafValues>
            -5.7835400104522705e-01 4.6808511018753052e-01</leafValues></_>
        <_>
          <internalNodes>
            0 -1 1 -337648317 749158690 -649735726 -6446634 1566208551
            -980383573 -1326806537 -2366729</internalNodes>
          <leafValues>
            -4.7376543283462524e-01 4.3823939561843872e-01</leafValues></_>
        <_>
          <internalNodes>
            0 -1 5 -1010082210 -8768939 -2147072486 -1437537981
            1325596885 1219108994 1097221259 -365890802</internalNodes>
          <leafValues>
            -5.7533311843872070e-01 3.6274346709251404e-01</leafValues></_>
        <_>
          <internalNodes>
            0 -1 29 1610646410 -141455254 -1986920171 -783951871
            155823099 -367361886 -1065238311 -758932494</internalNodes>
          <leafValues>
            -5.4529929161071777e-01 3.9302077889442444e-01</leafValues></_>
        <_>
          <internalNodes>
            0 -1 87 -476077270 -330772331 -2126413726 1389286295
            1479223604 1108871632 -259788618 -209724517</internalNodes>
          <leafValues>
            -5.4764258861541748e-01 4.1402742266654968e-01</leafValues></_>
        <_>
          <internalNodes>
            0 -1 67 793321647 178233473 -602819172 2124042967 1762619167
            -356974461 1913477415 -88186315</internalNodes>
          <leafValues>
            -6.1741918325424194e-01 3.4238815307617188e-01</leafValues></_>
        <_>
          <internalNodes>
            0 -1 50 1604042828 390698654 -2128559802 -1860727931
            1922915496 402850064 781082782 1155261403</internalNodes>
          <leafValues>
            -5.7427555322647095e-01 3.8351640105247498e-01</leafValues></_></weakClassifiers></_>
    <!-- stage 8 -->
    <_>
      <maxWeakCount>7</maxWeakCount>
      <stageThreshold>-1.1200580596923828e+00</stageThreshold>
      <weakClassifiers>
        <_>
          <internalNodes>
            0 -1 28 -144967457 -1084382566 1561352569 -69783262
            -91633494 -108363359 -1465152514 -17830969</internalNodes>
          <leafValues>
            -5.7118546962738037e-01 4.0568476915359497e-01</leafValues></_>
        <_>
          <internalNodes>
            0 -1 64 652149887 541365873 1358963127 550687543 1805333113
            1858603014 -608603824 -489000396</internalNodes>
          <leafValues>
            -7.6028358936309814e-01 2.2739174962043762e-01</leafValues></_>
        <_>
          <internalNodes>
            0 -1 85 -195829985 -972336995 1409537758 1356747025
            1787556364 -108877812 -635736386 -464541442</internalNodes>
          <leafValues>
            -5.0727909803390503e-01 3.8225612044334412e-01</leafValues></_>
        <_>
          <internalNodes>
            0 -1 35 -502414686 1964067377 1215318416 726398593 112018647
            974681123 -923555781 -1900033621</internalNodes>
          <leafValues>
            -5.3702980279922485e-01 4.0573993325233459e-01</leafValues></_>
        <_>
          <internalNodes>
            0 -1 72 1955663889 1212744275 151000541 928490128 1644697806
            -1174470431 -2112869157 -53609541</internalNodes>
          <leafValues>
            -4.7009927034378052e-01 4.5179030299186707e-01</leafValues></_>
        <_>
          <internalNodes>
            0 -1 52 -1412175937 1376256477 1364513119 -1429040753
            55345171 -485848940 -1467289055 -287436460</internalNodes>
          <leafValues>
            -5.4953873157501221e-01 3.9425396919250488e-01</leafValues></_>
        <_>
          <internalNodes>
            0 -1 20 1500333246 1501283088 -805273452 -841259198
            1145045930 -938999166 1216415979 -68769309</internalNodes>
          <leafValues>
            -5.0073975324630737e-01 4.3414825201034546e-01</leafValues></_></weakClassifiers></_>
    <!-- stage 9 -->
    <_>
      <maxWeakCount>7</maxWeakCount>
      <stageThreshold>-1.6326375007629395e+00</stageThreshold>
      <weakClassifiers>
        <_>
          <internalNodes>
            0 -1 26 -69476353 -69360497 -1861094273 -673529601 -79569697
            -1280440657 -208733185 -1130564</internalNodes>
          <leafValues>
            -5.6414568424224854e-01 4.3013697862625122e-01</leafValues></_>
        <_>
          <internalNodes>
            0 -1 0 265285631 -985267774 -712961629 -539074304 1058743987
            -1613725551 1536100659 -1579289</internalNodes>
          <leafValues>
            -4.8741069436073303e-01 4.3245512247085571e-01</leafValues></_>
        <_>
          <internalNodes>
            0 -1 74 736044327 613445851 1679411392 -297329141 2022394163
            1798442182 -203424908 -520160259</internalNodes>
          <leafValues>
            -6.6069692373275757e-01 2.9753664135932922e-01</leafValues></_>
        <_>
          <internalNodes>
            0 -1 19 1234169639 4964750 -2096937520 1402420119 1150766006
            1556979874 918665530 -545929209</internalNodes>
          <leafValues>
            -4.7521451115608215e-01 4.2925381660461426e-01</leafValues></_>
        <_>
          <internalNodes>
            0 -1 84 1715411471 2078839293 -1056635573 993046850
            -256270146 -87948813 1747645114 -1064324645</internalNodes>
          <leafValues>
            -4.2752000689506531e-01 5.0175923109054565e-01</leafValues></_>
        <_>
          <internalNodes>
            0 -1 83 -376462686 1712821187 1347274960 2023512090
            -309861678 1084981252 -1819696730 -692206709</internalNodes>
          <leafValues>
            -4.9736791849136353e-01 4.4518074393272400e-01</leafValues></_>
        <_>
          <internalNodes>
            0 -1 75 -682381345 -2053799727 2063833436 -6155550
            -761546344 -995430216 -142329672 -656343544</internalNodes>
          <leafValues>
            -4.6711674332618713e-01 5.2148467302322388e-01</leafValues></_></weakClassifiers></_>
    <!-- stage 10 -->
    <_>
      <maxWeakCount>7</maxWeakCount>
      <stageThreshold>-1.2804336547851563e+00</stageThreshold>
      <weakClassifiers>
        <_>
          <internalNodes>
            0 -1 38 -682495528 -41648010 421648863 -540728382
            -1197224740 -559224606 -1161193234 -283526657</internalNodes>
          <leafValues>
            -5.9806877374649048e-01 2.8600406646728516e-01</leafValues></_>
        <_>
          <internalNodes>
            0 -1 47 -1155544958 1494550560 -725285551 -2060468013
            -626163270 -1143978333 -662461885 -2018391357</internalNodes>
          <leafValues>
            -5.5218255519866943e-01 3.1930479407310486e-01</leafValues></_>
        <_>
          <internalNodes>
            0 -1 4 -983577915 1121764231 -1307540948 -66858647
            -513054634 -1190297079 -477439385 -34620469</internalNodes>
          <leafValues>
            -4.7055953741073608e-01 3.9880651235580444e-01</leafValues></_>
        <_>
          <internalNodes>
            0 -1 71 1342194440 402657650 -417857059 512778394 1477020888
            -73854877 -1089963286 150793135</internalNodes>
          <leafValues>
            -5.9163206815719604e-01 3.3565223217010498e-01</leafValues></_>
        <_>
          <internalNodes>
            0 -1 18 -1223132029 352502410 -1987817950 1066737800
            -392697945 -1113996359 -1657221635 305625887</internalNodes>
          <leafValues>
            -5.4051709175109863e-01 3.8425937294960022e-01</leafValues></_>
        <_>
          <internalNodes>
            0 -1 79 -10490750 -1001406383 -2080009968 831101147
            -266148463 -1598554080 1227470597 352185930</internalNodes>
          <leafValues>
            -5.9680414199829102e-01 3.3725607395172119e-01</leafValues></_>
        <_>
          <internalNodes>
            0 -1 13 -850468388 -41509510 237547860 784617742 554082084
            -1171095366 115701534 -254552457</internalNodes>
          <leafValues>
            -6.5209621191024780e-01 2.9146000742912292e-01</leafValues></_></weakClassifiers></_>
    <!-- stage 11 -->
    <_>
      <maxWeakCount>7</maxWeakCount>
      <stageThreshold>-1.2957193851470947e+00</stageThreshold>
      <weakClassifiers>
        <_>
          <internalNodes>
            0 -1 53 -894832977 495669791 -988479649 576229703 900338923
            1588232425 2040165351 -17402633</internalNodes>
          <leafValues>
            -7.1262460947036743e-01 8.4566595032811165e-03</leafValues></_>
        <_>
          <internalNodes>
            0 -1 9 -138424577 -846347201 -2113244433 -361836281 67658811
            1259020321 1959347711 -3671205</internalNodes>
          <leafValues>
            -4.8670858144760132e-01 3.3434060215950012e-01</leafValues></_>
        <_>
          <internalNodes>
            0 -1 51 31449986 203564841 -1827474960 1334825227 1179639495
            363326088 -1448349004 -1665144633</internalNodes>
          <leafValues>
            -5.9595233201980591e-01 2.8808549046516418e-01</leafValues></_>
        <_>
          <internalNodes>
            0 -1 63 1681327180 1905754565 1377349899 1612053456
            -964372240 -511278840 973140152 -1007359653</internalNodes>
          <leafValues>
            -5.4884505271911621e-01 3.3916413784027100e-01</leafValues></_>
        <_>
          <internalNodes>
            0 -1 89 -19663517 -342900522 16831134 -1034563119
            -1205329137 542294169 -1041043286 -555890005</internalNodes>
          <leafValues>
            -4.1280117630958557e-01 4.4088000059127808e-01</leafValues></_>
        <_>
          <internalNodes>
            0 -1 27 -2103393200 -548348744 -778384993 1600672389
            1749616692 -1316290438 1816441076 -582464811</internalNodes>
          <leafValues>
            -5.7438099384307861e-01 3.3413034677505493e-01</leafValues></_>
        <_>
          <internalNodes>
            0 -1 90 -310398077 1745264768 404492498 1120923793
            1921696518 -1475835890 1510132150 -341052697</internalNodes>
          <leafValues>
            -4.5753490924835205e-01 4.4388690590858459e-01</leafValues></_></weakClassifiers></_>
    <!-- stage 12 -->
    <_>
      <maxWeakCount>6</maxWeakCount>
      <stageThreshold>-1.0482510328292847e+00</stageThreshold>
      <weakClassifiers>
        <_>
          <internalNodes>
            0 -1 39 -569902881 -1345826612 423665111 -544219744
            -1607983780 -576025703 -393242372 -21503069</internalNodes>
          <leafValues>
            -6.4310228824615479e-01 1.2554112076759338e-01</leafValues></_>
        <_>
          <internalNodes>
            0 -1 25 -350307368 -812441443 1593901021 -1157988279
            -653288901 2139947411 -1975015087 -713036833</internalNodes>
          <leafValues>
            -5.4705011844635010e-01 2.7416279911994934e-01</leafValues></_>
        <_>
          <internalNodes>
            0 -1 43 -151920676 -1844209918 -784256818 936475659
            1356160511 -321891702 602168265 720198655</internalNodes>
          <leafValues>
            -5.3096699714660645e-01 3.3196142315864563e-01</leafValues></_>
        <_>
          <internalNodes>
            0 -1 82 1665647402 637982983 -632827482 -321744510
            1330380050 1461496010 -947709485 -192940047</internalNodes>
          <leafValues>
            -6.4217102527618408e-01 2.8546035289764404e-01</leafValues></_>
        <_>
          <internalNodes>
            0 -1 54 693578779 170935006 -784232185 719247507 1888107825
            327762688 -472739209 -621120956</internalNodes>
          <leafValues>
            -7.0118659734725952e-01 2.9369032382965088e-01</leafValues></_>
        <_>
          <internalNodes>
            0 -1 76 -1373630411 -1166389251 -8486921 2046345079
            -536969730 -25165833 -143655171 -1393557573</internalNodes>
          <leafValues>
            -4.3655869364738464e-01 4.6793153882026672e-01</leafValues></_></weakClassifiers></_>
    <!-- stage 13 -->
    <_>
      <maxWeakCount>8</maxWeakCount>
      <stageThreshold>-1.5830967426300049e+00</stageThreshold>
      <weakClassifiers>
        <_>
          <internalNodes>
            0 -1 33 -540683809 -581319720 -1727982465 -12890016
            -372520226 -108297062 -657089298 -85992457</internalNodes>
          <leafValues>
            -5.5406165122985840e-01 3.8082191348075867e-01</leafValues></_>
        <_>
          <internalNodes>
            0 -1 70 -1475858923 104514391 -264190894 -1617622179
            -133674565 1049165875 -58537269 -4365605</internalNodes>
          <leafValues>
            -4.7711360454559326e-01 3.3802625536918640e-01</leafValues></_>
        <_>
          <internalNodes>
            0 -1 24 -1017134557 568311951 -1004470102 1348405694
            2064332902 201952173 1177004071 -154141913</internalNodes>
          <leafValues>
            -5.6119191646575928e-01 2.9959860444068909e-01</leafValues></_>
        <_>
          <internalNodes>
            0 -1 66 -1166302582 1433454683 -1609961314 -102108701
            1808601280 -1106798265 584056554 964665258</internalNodes>
          <leafValues>
            -5.1623922586441040e-01 3.4299927949905396e-01</leafValues></_>
        <_>
          <internalNodes>
            0 -1 81 -929864955 226411806 -1827469999 1175444778
            1368984064 -1435991143 -1312562427 -935613189</internalNodes>
          <leafValues>
            -5.4987716674804688e-01 3.3195081353187561e-01</leafValues></_>
        <_>
          <internalNodes>
            0 -1 44 -2142649128 1597292993 221321808 -568471079
            1382302110 -1997766459 -1276398655 -123475783</internalNodes>
          <leafValues>
            -5.0489902496337891e-01 3.8460779190063477e-01</leafValues></_>
        <_>
          <internalNodes>
            0 -1 10 -70009090 2111473687 1610620159 -490061242 51073390
            2030108672 1112759803 2113224953</internalNodes>
          <leafValues>
            -5.5014050006866455e-01 3.7115681171417236e-01</leafValues></_>
        <_>
          <internalNodes>
            0 -1 8 642238350 2018598362 -805277604 -1299818102
            1384857679 1862860801 1921632685 -280162377</internalNodes>
          <leafValues>
            -5.0169903039932251e-01 3.7448108196258545e-01</leafValues></_></weakClassifiers></_>
    <!-- stage 14 -->
    <_>
      <maxWeakCount>6</maxWeakCount>
      <stageThreshold>-8.2629460096359253e-01</stageThreshold>
      <weakClassifiers>
        <_>
          <internalNodes>
            0 -1 48 -16263207 -1627367598 -1795041827 -539934540
            -393559332 -4677494 -134087781 -568734725</internalNodes>
          <leafValues>
            -5.8052885532379150e-01 2.3868313431739807e-01</leafValues></_>
        <_>
          <internalNodes>
            0 -1 73 1423136798 333093638 1371766763 1020199745
            -562548802 -1122461562 -95227921 975334743</internalNodes>
          <leafValues>
            -5.6655520200729370e-01 2.5323572754859924e-01</leafValues></_>
        <_>
          <internalNodes>
            0 -1 23 1592421418 -1327726164 210933957 -715261557
            1143262203 -775389005 1909272727 2003273147</internalNodes>
          <leafValues>
            -5.6379872560501099e-01 2.7740970253944397e-01</leafValues></_>
        <_>
          <internalNodes>
            0 -1 30 -1792983038 -737020623 101467712 1948700871
            -929298281 1478656133 316838091 2082933751</internalNodes>
          <leafValues>
            -6.1886191368103027e-01 2.9107189178466797e-01</leafValues></_>
        <_>
          <internalNodes>
            0 -1 14 -479205153 1691714512 -1926184321 -1370303806
            1080515263 -107995133 -995772671 1984160363</internalNodes>
          <leafValues>
            -4.4392231106758118e-01 4.0037003159523010e-01</leafValues></_>
        <_>
          <internalNodes>
            0 -1 77 -344999142 979059218 335649080 767467530 1387230075
            903643521 944548009 1818186157</internalNodes>
          <leafValues>
            -5.3283900022506714e-01 3.3100381493568420e-01</leafValues></_></weakClassifiers></_></stages>
  <features>
    <_>
      <rect>
        0 2 2 2</rect></_>
    <_>
      <rect>
        0 5 1 1</rect></_>
    <_>
      <rect>
        0 9 1 1</rect></_>
    <_>
      <rect>
        0 9 3 5</rect></_>
    <_>
      <rect>
        0 11 1 1</rect></_>
    <_>
      <rect>
        0 16 3 10</rect></_>
    <_>
      <rect>
        0 17 2 2</rect></_>
    <_>
      <rect>
        0 17 8 10</rect></_>
    <_>
      <rect>
        0 19 2 3</rect></_>
    <_>
      <rect>
        0 20 4 7</rect></_>
    <_>
      <rect>
        0 21 3 6</rect></_>
    <_>
      <rect>
        0 21 5 6</rect></_>
    <_>
      <rect>
        0 22 4 7</rect></_>
    <_>
      <rect>
        0 24 6 8</rect></_>
    <_>
      <rect>
        0 25 3 7</rect></_>
    <_>
      <rect>
        0 42 8 2</rect></_>
    <_>
      <rect>
        1 25 3 4</rect></_>
    <_>
      <rect>
        1 30 4 6</rect></_>
    <_>
      <rect>
        2 9 5 7</rect></_>
    <_>
      <rect>
        2 12 2 4</rect></_>
    <_>
      <rect>
        2 13 3 10</rect></_>
    <_>
      <rect>
        3 2 4 14</rect></_>
    <_>
      <rect>
        3 7 6 5</rect></_>
    <_>
      <rect>
        3 8 4 4</rect></_>
    <_>
      <rect>
        3 17 1 1</rect></_>
    <_>
      <rect>
        3 36 6 4</rect></_>
    <_>
      <rect>
        3 44 1 1</rect></_>
    <_>
      <rect>
        4 0 2 2</rect></_>
    <_>
      <rect>
        4 1 5 3</rect></_>
    <_>
      <rect>
        4 4 3 6</rect></_>
    <_>
      <rect>
        4 9 5 12</rect></_>
    <_>
      <rect>
        4 24 1 1</rect></_>
    <_>
      <rect>
        4 28 6 6</rect></_>
    <_>
      <rect>
        5 2 4 2</rect></_>
    <_>
      <rect>
        5 5 5 6</rect></_>
    <_>
      <rect>
        5 14 5 10</rect></_>
    <_>
      <rect>
        5 45 1 1</rect></_>
    <_>
      <rect>
        6 0 6 15</rect></_>
    <_>
      <rect>
        6 1 4 2</rect></_>
    <_>
      <rect>
        6 2 3 1</rect></_>
    <_>
      <rect>
        6 5 4 5</rect></_>
    <_>
      <rect>
        6 15 4 9</rect></_>
    <_>
      <rect>
        7 4 4 11</rect></_>
    <_>
      <rect>
        7 11 3 8</rect></_>
    <_>
      <rect>
        8 6 5 14</rect></_>
    <_>
      <rect>
        8 21 2 1</rect></_>
    <_>
      <rect>
        8 23 1 1</rect></_>
    <_>
      <rect>
        8 24 5 6</rect></_>
    <_>
      <rect>
        9 1 3 2</rect></_>
    <_>
      <rect>
        9 6 2 5</rect></_>
    <_>
      <rect>
        9 11 4 4</rect></_>
    <_>
      <rect>
        9 15 5 10</rect></_>
    <_>
      <rect>
        9 17 1 1</rect></_>
    <_>
      <rect>
        9 17 2 2</rect></_>
    <_>
      <rect>
        9 19 1 1</rect></_>
    <_>
      <rect>
        9 33 5 5</rect></_>
    <_>
      <rect>
        9 36 3 4</rect></_>
    <_>
      <rect>
        9 39 1 2</rect></_>
    <_>
      <rect>
        9 42 3 1</rect></_>
    <_>
      <rect>
        10 0 1 1</rect></_>
    <_>
      <rect>
        10 17 1 1</rect></_>
    <_>
      <rect>
        11 0 1 1</rect></_>
    <_>
      <rect>
        11 1 1 2</rect></_>
    <_>
      <rect>
        11 6 3 5</rect></_>
    <_>
      <rect>
        11 18 1 1</rect></_>
    <_>
      <rect>
        11 39 1 1</rect></_>
    <_>
      <rect>
        12 9 3 7</rect></_>
    <_>
      <rect>
        12 17 1 1</rect></_>
    <_>
      <rect>
        12 21 4 7</rect></_>
    <_>
      <rect>
        12 23 4 7</rect></_>
    <_>
      <rect>
        13 0 1 1</rect></_>
    <_>
      <rect>
        13 0 3 2</rect></_>
    <_>
      <rect>
        13 0 3 3</rect></_>
    <_>
      <rect>
        14 2 2 3</rect></_>
    <_>
      <rect>
        14 22 1 1</rect></_>
    <_>
      <rect>
        14 42 3 2</rect></_>
    <_>
      <rect>
        15 0 1 1</rect></_>
    <_>
      <rect>
        15 15 3 10</rect></_>
    <_>
      <rect>
        15 19 3 3</rect></_>
    <_>
      <rect>
        15 23 3 4</rect></_>
    <_>
      <rect>
        15 26 3 5</rect></_>
    <_>
      <rect>
        15 29 3 5</rect></_>
    <_>
      <rect>
        17 23 1 1</rect></_>
    <_>
      <rect>
        17 27 1 1</rect></_>
    <_>
      <rect>
        18 2 2 4</rect></_>
    <_>
      <rect>
        18 3 2 1</rect></_>
    <_>
      <rect>
        18 6 2 2</rect></_>
    <_>
      <rect>
        19 20 1 1</rect></_>
    <_>
      <rect>
        20 7 1 1</rect></_>
    <_>
      <rect>
        21 5 1 1</rect></_>
    <_>
      <rect>
        21 15 1 2</rect></_></features></cascade>
</opencv_storage>
