<?xml version="1.0"?>
<opencv_storage>
<cascade>
  <stageType>BOOST</stageType>
  <featureType>LBP</featureType>
  <height>24</height>
  <width>24</width>
  <stageParams>
    <boostType>GAB</boostType>
    <minHitRate>9.9500000476837158e-01</minHitRate>
    <maxFalseAlarm>5.0000000000000000e-01</maxFalseAlarm>
    <weightTrimRate>9.4999999999999996e-01</weightTrimRate>
    <maxDepth>1</maxDepth>
    <maxWeakCount>100</maxWeakCount></stageParams>
  <featureParams>
    <maxCatCount>256</maxCatCount>
    <featSize>1</featSize></featureParams>
  <stageNum>20</stageNum>
  <stages>
    <!-- stage 0 -->
    <_>
      <maxWeakCount>5</maxWeakCount>
      <stageThreshold>-1.1534003019332886e+00</stageThreshold>
      <weakClassifiers>
        <_>
          <internalNodes>
            0 -1 52 -1061141440 -216804223 -805055791 -720154313
            -931099489 -1165291511 -1946041925 -549465381</internalNodes>
          <leafValues>
            -8.0573952198028564e-01 2.8252300620079041e-01</leafValues></_>
        <_>
          <internalNodes>
            0 -1 93 -615460400 -46065324 -805005835 -585543339
            -1945583396 -1612541747 -359990535 -648283659</internalNodes>
          <leafValues>
            -6.5160608291625977e-01 5.1298964023590088e-01</leafValues></_>
        <_>
          <internalNodes>
            0 -1 81 -1104000771 -1614069545 -515681925 1029641627
            -1341433393 -926187253 75710655 -1073775745</internalNodes>
          <leafValues>
            -6.3754773139953613e-01 4.8348855972290039e-01</leafValues></_>
        <_>
          <internalNodes>
            0 -1 66 714616181 1734848632 -1042967619 -44730411 149576189
            -12025717 194050555 -76782603</internalNodes>
          <leafValues>
            -6.3884556293487549e-01 4.9366295337677002e-01</leafValues></_>
        <_>
          <internalNodes>
            0 -1 20 -984167684 -15773176 -226443171 851972167 136552
            -292786174 276835551 -96347018</internalNodes>
          <leafValues>
            -6.2896019220352173e-01 5.5769503116607666e-01</leafValues></_></weakClassifiers></_>
    <!-- stage 1 -->
    <_>
      <maxWeakCount>5</maxWeakCount>
      <stageThreshold>-1.0742901563644409e+00</stageThreshold>
      <weakClassifiers>
        <_>
          <internalNodes>
            0 -1 80 -1113563779 -7382643 1157880319 -577243887
            -622073605 -7692160 -1958020865 -5244165</internalNodes>
          <leafValues>
            -6.6851508617401123e-01 4.1247484087944031e-01</leafValues></_>
        <_>
          <internalNodes>
            0 -1 59 456086168 487569496 -1861201805 2031572127 428822683
            -1433452337 154016507 1596719103</internalNodes>
          <leafValues>
            -7.1812742948532104e-01 3.7810879945755005e-01</leafValues></_>
        <_>
          <internalNodes>
            0 -1 87 -1074102787 -643935352 -1860873731 1908261317
            445498105 -341519735 -1169622595 -1079455364</internalNodes>
          <leafValues>
            -6.1289888620376587e-01 4.2624074220657349e-01</leafValues></_>
        <_>
          <internalNodes>
            0 -1 115 -1141154983 1569869976 1342394769 1035433297
            4901098 -938788727 -1178046985 -1619029719</internalNodes>
          <leafValues>
            -5.4414296150207520e-01 5.1715445518493652e-01</leafValues></_>
        <_>
          <internalNodes>
            0 -1 43 -666690928 1023893795 -569161135 1367595129
            1104104655 1493599521 415978170 1599855347</internalNodes>
          <leafValues>
            -6.3104289770126343e-01 4.8290148377418518e-01</leafValues></_></weakClassifiers></_>
    <!-- stage 2 -->
    <_>
      <maxWeakCount>5</maxWeakCount>
      <stageThreshold>-1.0597282648086548e+00</stageThreshold>
      <weakClassifiers>
        <_>
          <internalNodes>
            0 -1 18 -270799169 -489299041 1715849311 -890255157
            117646191 -1617572073 461499055 -1537</internalNodes>
          <leafValues>
            -7.0871263742446899e-01 3.6082473397254944e-01</leafValues></_>
        <_>
          <internalNodes>
            0 -1 2 50012815 615186559 136409527 1340015311 265453383
            260965667 1911378683 -1342474241</internalNodes>
          <leafValues>
            -6.9529175758361816e-01 3.8851201534271240e-01</leafValues></_>
        <_>
          <internalNodes>
            0 -1 109 -4331 249492225 -2134173391 50562647 -11301065
            -1989172993 1565421653 -541066451</internalNodes>
          <leafValues>
            -5.6766694784164429e-01 5.0885218381881714e-01</leafValues></_>
        <_>
          <internalNodes>
            0 -1 76 178196293 786259647 1323301863 842995837 183130733
            -141861081 -1141825755 -88343599</internalNodes>
          <leafValues>
            -6.4714026451110840e-01 4.5268565416336060e-01</leafValues></_>
        <_>
          <internalNodes>
            0 -1 122 123409979 245238735 -1610343213 777320787
            1528394306 -475346895 -224658474 -285476353</internalNodes>
          <leafValues>
            -5.7402688264846802e-01 4.8954594135284424e-01</leafValues></_></weakClassifiers></_>
    <!-- stage 3 -->
    <_>
      <maxWeakCount>5</maxWeakCount>
      <stageThreshold>-1.2289922237396240e+00</stageThreshold>
      <weakClassifiers>
        <_>
          <internalNodes>
            0 -1 96 -134226093 18837507 -800630764 397138843 -815269238
            -368369649 286900693 -2113</internalNodes>
          <leafValues>
            -7.0310389995574951e-01 2.5391849875450134e-01</leafValues></_>
        <_>
          <internalNodes>
            0 -1 6 -425726449 -1060125950 17981490 -756350177 1573348647
            1242247455 1931972947 -530601</internalNodes>
          <leafValues>
            -6.1772960424423218e-01 4.0228191018104553e-01</leafValues></_>
        <_>
          <internalNodes>
            0 -1 114 -805369590 642601615 -2146188786 -358906422
            1685015111 1095448711 -1009782030 -353374210</internalNodes>
          <leafValues>
            -6.7748522758483887e-01 3.4407794475555420e-01</leafValues></_>
        <_>
          <internalNodes>
            0 -1 0 569847335 629887682 -599573972 -1286220862 399473278
            -360136046 528644951 -612552908</internalNodes>
          <leafValues>
            -6.5414571762084961e-01 3.7212097644805908e-01</leafValues></_>
        <_>
          <internalNodes>
            0 -1 65 -257319183 -334597993 -1050902439 -267498171
            -1834758789 -340573880 1527043413 -1908348</internalNodes>
          <leafValues>
            -5.5981689691543579e-01 4.7407370805740356e-01</leafValues></_></weakClassifiers></_>
    <!-- stage 4 -->
    <_>
      <maxWeakCount>5</maxWeakCount>
      <stageThreshold>-1.0474529266357422e+00</stageThreshold>
      <weakClassifiers>
        <_>
          <internalNodes>
            0 -1 47 -100663809 -805973579 -927283235 -554018339
            -71319681 -342888721 -850397707 -536872961</internalNodes>
          <leafValues>
            -6.7061758041381836e-01 3.7717601656913757e-01</leafValues></_>
        <_>
          <internalNodes>
            0 -1 83 -1392615971 -1614148396 -581915141 -539686756
            -1960648787 -342897237 -1399915585 -1078321923</internalNodes>
          <leafValues>
            -5.4775488376617432e-01 4.6116510033607483e-01</leafValues></_>
        <_>
          <internalNodes>
            0 -1 91 771645439 227483381 -459809859 -1564819178
            1319070335 -1176528131 1587051893 -1430619852</internalNodes>
          <leafValues>
            -6.5631735324859619e-01 4.0320530533790588e-01</leafValues></_>
        <_>
          <internalNodes>
            0 -1 88 362790399 -270937863 -1084564997 -1270422562
            -336610529 1317380543 -753208492 -237830448</internalNodes>
          <leafValues>
            -5.9287649393081665e-01 4.3011415004730225e-01</leafValues></_>
        <_>
          <internalNodes>
            0 -1 32 209723504 -69425315 152164187 -575325747 991112181
            -1114926363 -133473383 -1144488715</internalNodes>
          <leafValues>
            -6.1179721355438232e-01 4.3494474887847900e-01</leafValues></_></weakClassifiers></_>
    <!-- stage 5 -->
    <_>
      <maxWeakCount>6</maxWeakCount>
      <stageThreshold>-1.5108727216720581e+00</stageThreshold>
      <weakClassifiers>
        <_>
          <internalNodes>
            0 -1 95 -742204939 -745684559 -719990275 -649084521
            -1213924421 -276062033 -1626685729 -1081173571</internalNodes>
          <leafValues>
            -6.4972442388534546e-01 3.7166324257850647e-01</leafValues></_>
        <_>
          <internalNodes>
            0 -1 73 109073488 2112909562 -987997217 2071550104 466765980
            -872437335 981510584 -541410837</internalNodes>
          <leafValues>
            -5.9125596284866333e-01 3.5896411538124084e-01</leafValues></_>
        <_>
          <internalNodes>
            0 -1 13 -734794613 1334774986 -1036976913 -20190837
            1510294547 773687935 1868200919 -7083321</internalNodes>
          <leafValues>
            -5.2036744356155396e-01 4.4905310869216919e-01</leafValues></_>
        <_>
          <internalNodes>
            0 -1 84 -1931977628 -296189611 1929647895 -1806374443
            1142207864 -1160723503 -2024132164 -176834369</internalNodes>
          <leafValues>
            -6.6929984092712402e-01 3.4279558062553406e-01</leafValues></_>
        <_>
          <internalNodes>
            0 -1 48 -1398087195 -1118830512 1125189949 1066866884
            -909432514 -1152654538 703076834 799672553</internalNodes>
          <leafValues>
            -5.8058309555053711e-01 3.9048615097999573e-01</leafValues></_>
        <_>
          <internalNodes>
            0 -1 77 -264269 241651205 -213099 2143282808 2147340163
            -1610657953 -1267226687 -2621441</internalNodes>
          <leafValues>
            -4.6195742487907410e-01 5.3587174415588379e-01</leafValues></_></weakClassifiers></_>
    <!-- stage 6 -->
    <_>
      <maxWeakCount>5</maxWeakCount>
      <stageThreshold>-1.0041177272796631e+00</stageThreshold>
      <weakClassifiers>
        <_>
          <internalNodes>
            0 -1 17 -2097409 -42224827 1073745614 -431626145 34102331
            18522130 1196112031 -87297317</internalNodes>
          <leafValues>
            -6.9808644056320190e-01 1.4809590578079224e-01</leafValues></_>
        <_>
          <internalNodes>
            0 -1 89 352343384 -1316842284 50357373 421007861 1526737080
            -68681300 -385816577 -1140864193</internalNodes>
          <leafValues>
            -5.4455500841140747e-01 3.6436319351196289e-01</leafValues></_>
        <_>
          <internalNodes>
            0 -1 101 -223981548 1482167959 -1588570922 412434644
            -1173833320 -565464958 2022222523 -1137889877</internalNodes>
          <leafValues>
            -4.8728945851325989e-01 4.2482352256774902e-01</leafValues></_>
        <_>
          <internalNodes>
            0 -1 33 1094178000 -1773164077 1142674197 85311575
            1510687194 -1701510918 1012398961 -864028997</internalNodes>
          <leafValues>
            -5.3644955158233643e-01 3.8484472036361694e-01</leafValues></_>
        <_>
          <internalNodes>
            0 -1 41 -793849214 1157943760 -1224438972 1875104099
            -1567068449 -2001958643 1883324995 -241833669</internalNodes>
          <leafValues>
            -4.9283784627914429e-01 4.6220830082893372e-01</leafValues></_></weakClassifiers></_>
    <!-- stage 7 -->
    <_>
      <maxWeakCount>6</maxWeakCount>
      <stageThreshold>-1.0985400676727295e+00</stageThreshold>
      <weakClassifiers>
        <_>
          <internalNodes>
            0 -1 28 -1588822 298270990 -1459142576 1066631204
            -1064973621 -79839230 1653264527 924043823</internalNodes>
          <leafValues>
            -7.5847810506820679e-01 4.0614709258079529e-02</leafValues></_>
        <_>
          <internalNodes>
            0 -1 125 -1076151280 671662874 -2079121150 172884717
            -590845113 -6717311 -360001403 -52960773</internalNodes>
          <leafValues>
            -6.1386817693710327e-01 2.6040333509445190e-01</leafValues></_>
        <_>
          <internalNodes>
            0 -1 22 -825569028 -1211215542 515985884 -1843859049
            -798614465 -669546358 1528778991 -330959377</internalNodes>
          <leafValues>
            -5.7990074157714844e-01 3.5622391104698181e-01</leafValues></_>
        <_>
          <internalNodes>
            0 -1 85 -1397855175 -1978719083 2030122203 182325465
            587817158 -612237267 820390005 -1426952159</internalNodes>
          <leafValues>
            -6.6396164894104004e-01 3.2175225019454956e-01</leafValues></_>
        <_>
          <internalNodes>
            0 -1 82 456622082 1564311955 8635083 -1735802782 852671
            -892764150 -859453205 1037032341</internalNodes>
          <leafValues>
            -5.8203572034835815e-01 3.3297836780548096e-01</leafValues></_>
        <_>
          <internalNodes>
            0 -1 4 -1440051488 -523058922 1175465984 -556351157
            -166852573 -1182248952 -268406697 -71313167</internalNodes>
          <leafValues>
            -5.0978463888168335e-01 4.0238320827484131e-01</leafValues></_></weakClassifiers></_>
    <!-- stage 8 -->
    <_>
      <maxWeakCount>7</maxWeakCount>
      <stageThreshold>-1.0081697702407837e+00</stageThreshold>
      <weakClassifiers>
        <_>
          <internalNodes>
            0 -1 49 -35916833 -16547430 -1725872801 -539135168
            -895563108 -108953143 -938944262 -118490121</internalNodes>
          <leafValues>
            -5.9096044301986694e-01 4.7428572177886963e-01</leafValues></_>
        <_>
          <internalNodes>
            0 -1 116 -151068899 302286362 1409863933 2014041059
            -389832184 -1677131735 2047589002 -394265649</internalNodes>
          <leafValues>
            -4.6579429507255554e-01 4.5680257678031921e-01</leafValues></_>
        <_>
          <internalNodes>
            0 -1 8 -18955182 72733122 1687700190 -327686609 806416532
            -1823848445 538573939 -713031797</internalNodes>
          <leafValues>
            -5.8723330497741699e-01 3.6402735114097595e-01</leafValues></_>
        <_>
          <internalNodes>
            0 -1 97 -70264957 185721364 -1811561454 322524095 -792012406
            152076558 1910199617 2108416251</internalNodes>
          <leafValues>
            -5.6682920455932617e-01 3.3718022704124451e-01</leafValues></_>
        <_>
          <internalNodes>
            0 -1 78 -1978248112 860885272 -1719447331 485495109
            -1600239464 -1158078207 -1577043784 -1432203248</internalNodes>
          <leafValues>
            -6.4412647485733032e-01 3.2050099968910217e-01</leafValues></_>
        <_>
          <internalNodes>
            0 -1 34 2072509150 -1852669579 562561682 19494043 -119010337
            -368573920 268462683 1902078639</internalNodes>
          <leafValues>
            -5.1733553409576416e-01 4.1072687506675720e-01</leafValues></_>
        <_>
          <internalNodes>
            0 -1 16 -858787841 -98329 804056671 758312683 263273950
            -822706185 1307890943 -813832325</internalNodes>
          <leafValues>
            -3.9055919647216797e-01 5.6498622894287109e-01</leafValues></_></weakClassifiers></_>
    <!-- stage 9 -->
    <_>
      <maxWeakCount>7</maxWeakCount>
      <stageThreshold>-1.1687864065170288e+00</stageThreshold>
      <weakClassifiers>
        <_>
          <internalNodes>
            0 -1 72 -1727375920 -548409135 -500670985 -16002183
            -1181841266 -192179797 -1098193425 -1054001</internalNodes>
          <leafValues>
            -6.7983072996139526e-01 1.1965811997652054e-01</leafValues></_>
        <_>
          <internalNodes>
            0 -1 100 -1346979855 -206569168 1351671263 -46227757
            -376917585 -355283927 -611850243 -1176842864</internalNodes>
          <leafValues>
            -4.6720710396766663e-01 3.8626280426979065e-01</leafValues></_>
        <_>
          <internalNodes>
            0 -1 113 1473984085 752191771 -577205025 955562165
            1208167432 -1424588614 -1868911878 -1205996658</internalNodes>
          <leafValues>
            -5.1490652561187744e-01 3.7383389472961426e-01</leafValues></_>
        <_>
          <internalNodes>
            0 -1 63 774841415 752042079 -2120508476 -1164717754
            2058489621 -76931053 -704423116 -184553002</internalNodes>
          <leafValues>
            -5.6981015205383301e-01 3.4833475947380066e-01</leafValues></_>
        <_>
          <internalNodes>
            0 -1 27 -2029059293 595906690 -779943906 -138981311
            -1869732939 -343703334 -1429849518 -103851165</internalNodes>
          <leafValues>
            -4.7640618681907654e-01 4.5764753222465515e-01</leafValues></_>
        <_>
          <internalNodes>
            0 -1 36 -1651580419 1565708804 335706367 -552037448
            -1153273557 -1148524287 1816918430 -671952232</internalNodes>
          <leafValues>
            -4.2212915420532227e-01 5.0196337699890137e-01</leafValues></_>
        <_>
          <internalNodes>
            0 -1 74 381109252 1432078467 1631688524 357650689 -320118080
            2072592524 134251211 -1059888359</internalNodes>
          <leafValues>
            -7.1476054191589355e-01 3.0869087576866150e-01</leafValues></_></weakClassifiers></_>
    <!-- stage 10 -->
    <_>
      <maxWeakCount>6</maxWeakCount>
      <stageThreshold>-1.0699847936630249e+00</stageThreshold>
      <weakClassifiers>
        <_>
          <internalNodes>
            0 -1 56 -208178209 -606160524 1411405279 -36430853
            -1559237891 -340926358 -641676903 -552412932</internalNodes>
          <leafValues>
            -6.3938790559768677e-01 1.3128039240837097e-01</leafValues></_>
        <_>
          <internalNodes>
            0 -1 46 1791997074 1511356447 -1097542655 949970947
            -1601517653 -259514162 1812198339 -156508317</internalNodes>
          <leafValues>
            -5.5320793390274048e-01 3.1007966399192810e-01</leafValues></_>
        <_>
          <internalNodes>
            0 -1 53 -361902374 442235306 -1224707721 622941949
            1241925579 1491894402 1020533467 239823843</internalNodes>
          <leafValues>
            -6.1080342531204224e-01 2.9158914089202881e-01</leafValues></_>
        <_>
          <internalNodes>
            0 -1 67 -1440197544 2141978494 1073512439 -673350404
            -1929446178 -1141383689 -84610181 -1094846977</internalNodes>
          <leafValues>
            -4.2385086417198181e-01 4.4213894009590149e-01</leafValues></_>
        <_>
          <internalNodes>
            0 -1 12 1257205338 -177744049 -2113912744 -1470438826
            1095173065 1493368898 23216331 -368018429</internalNodes>
          <leafValues>
            -6.3148200511932373e-01 3.0503082275390625e-01</leafValues></_>
        <_>
          <internalNodes>
            0 -1 92 -1466235383 780599498 -469447213 144321998 23163005
            2055962753 -389385663 -1368763036</internalNodes>
          <leafValues>
            -7.4760115146636963e-01 2.5840699672698975e-01</leafValues></_></weakClassifiers></_>
    <!-- stage 11 -->
    <_>
      <maxWeakCount>6</maxWeakCount>
      <stageThreshold>-1.0376876592636108e+00</stageThreshold>
      <weakClassifiers>
        <_>
          <internalNodes>
            0 -1 124 -67117297 -355013129 4444570 -1566894381 -693437942
            -2000649981 -359948626 -84935441</internalNodes>
          <leafValues>
            -6.2933856248855591e-01 1.3659359514713287e-01</leafValues></_>
        <_>
          <internalNodes>
            0 -1 50 -2143097342 -541930751 1914773249 -717368831
            -2138660673 -80082869 1153014051 -600847921</internalNodes>
          <leafValues>
            -6.1150264739990234e-01 2.5982755422592163e-01</leafValues></_>
        <_>
          <internalNodes>
            0 -1 11 1187496102 -258030067 88151058 1915417294 1091794293
            1476395477 1213436397 -20581465</internalNodes>
          <leafValues>
            -6.0812294483184814e-01 2.9041123390197754e-01</leafValues></_>
        <_>
          <internalNodes>
            0 -1 55 1383594032 69119488 -1031040304 -11627645
            -1555882832 -1884224881 -1601634124 -645027253</internalNodes>
          <leafValues>
            -6.5733140707015991e-01 2.9964539408683777e-01</leafValues></_>
        <_>
          <internalNodes>
            0 -1 90 -1599971876 -1191291960 -1022803819 -1105366568
            -1168602128 -1198079869 -570376374 -1147518912</internalNodes>
          <leafValues>
            -5.5346190929412842e-01 3.1412076950073242e-01</leafValues></_>
        <_>
          <internalNodes>
            0 -1 62 -771248461 -401095869 352424402 -1457420992
            184420479 1277169671 46633190 974789595</internalNodes>
          <leafValues>
            -4.8277527093887329e-01 3.9121517539024353e-01</leafValues></_></weakClassifiers></_>
    <!-- stage 12 -->
    <_>
      <maxWeakCount>6</maxWeakCount>
      <stageThreshold>-1.3979506492614746e+00</stageThreshold>
      <weakClassifiers>
        <_>
          <internalNodes>
            0 -1 120 -2098185 -438341249 -686075135 429841281 -490480742
            -1897166169 -922390752 -660756494</internalNodes>
          <leafValues>
            -6.5368568897247314e-01 8.7976537644863129e-02</leafValues></_>
        <_>
          <internalNodes>
            0 -1 38 781763664 -35761064 -285036067 -1080085939
            -1535107908 -1074068085 -1966278478 -102728467</internalNodes>
          <leafValues>
            -5.1354658603668213e-01 3.2603022456169128e-01</leafValues></_>
        <_>
          <internalNodes>
            0 -1 107 920324097 1952150493 -1811842465 -1025560793
            1138550100 683264153 -354559298 -64292750</internalNodes>
          <leafValues>
            -5.2940768003463745e-01 3.3188018202781677e-01</leafValues></_>
        <_>
          <internalNodes>
            0 -1 108 -1366573301 926614656 1539606937 782184250
            -539020483 981845221 2019752429 -599008019</internalNodes>
          <leafValues>
            -4.7627806663513184e-01 3.9232385158538818e-01</leafValues></_>
        <_>
          <internalNodes>
            0 -1 119 -90447269 -2103380480 -1593314956 -1202545540
            -1240764540 -1436175894 1510746244 -124465990</internalNodes>
          <leafValues>
            -4.3037208914756775e-01 4.4043159484863281e-01</leafValues></_>
        <_>
          <internalNodes>
            0 -1 99 1126177800 933767155 1363154717 -1089695564
            -1572292161 -1312812916 -2020033621 -1673725224</internalNodes>
          <leafValues>
            -5.3406625986099243e-01 3.8264402747154236e-01</leafValues></_></weakClassifiers></_>
    <!-- stage 13 -->
    <_>
      <maxWeakCount>7</maxWeakCount>
      <stageThreshold>-1.1771522760391235e+00</stageThreshold>
      <weakClassifiers>
        <_>
          <internalNodes>
            0 -1 58 -217329165 -1232169790 -847231779 -182106832
            -124245812 -1191000901 -2134323030 -1159871501</internalNodes>
          <leafValues>
            -6.3198959827423096e-01 1.5807560086250305e-01</leafValues></_>
        <_>
          <internalNodes>
            0 -1 35 -66349790 -1309765458 -686762670 -572653082
            1122087671 -1912469297 -998210673 1735481719</internalNodes>
          <leafValues>
            -5.4770666360855103e-01 2.7080792188644409e-01</leafValues></_>
        <_>
          <internalNodes>
            0 -1 44 -905919774 356569592 46141782 2143875526 524502771
            512132350 1594261950 -14746127</internalNodes>
          <leafValues>
            -5.1203906536102295e-01 3.2780340313911438e-01</leafValues></_>
        <_>
          <internalNodes>
            0 -1 19 -825233873 -1118895169 -2146254777 1857012395
            1193581166 -70217718 1451856799 -405279985</internalNodes>
          <leafValues>
            -4.7560167312622070e-01 3.5495081543922424e-01</leafValues></_>
        <_>
          <internalNodes>
            0 -1 112 2027421720 1222116264 -1719009647 -1944578212
            -2012172132 2024411401 1791031358 709811897</internalNodes>
          <leafValues>
            -6.2735950946807861e-01 2.9112243652343750e-01</leafValues></_>
        <_>
          <internalNodes>
            0 -1 71 2079321315 -706888134 -134789295 -1405128713 -12821
            -604020761 -422202877 -424153214</internalNodes>
          <leafValues>
            -3.6949881911277771e-01 4.6206375956535339e-01</leafValues></_>
        <_>
          <internalNodes>
            0 -1 94 303235576 1384161400 34917 -177580599 -1604730193
            -1694497254 696959703 -1183708872</internalNodes>
          <leafValues>
            -5.1491457223892212e-01 3.4793213009834290e-01</leafValues></_></weakClassifiers></_>
    <!-- stage 14 -->
    <_>
      <maxWeakCount>8</maxWeakCount>
      <stageThreshold>-9.6503740549087524e-01</stageThreshold>
      <weakClassifiers>
        <_>
          <internalNodes>
            0 -1 39 -102763297 -180264862 -1723654689 -11046734
            -1740510760 -1148475142 -2000094498 -1090527237</internalNodes>
          <leafValues>
            -5.7307249307632446e-01 3.0366492271423340e-01</leafValues></_>
        <_>
          <internalNodes>
            0 -1 5 -397988294 -545029854 1141253212 906374195 1152324167
            1762528195 1745698831 -28839049</internalNodes>
          <leafValues>
            -5.2524858713150024e-01 2.5598981976509094e-01</leafValues></_>
        <_>
          <internalNodes>
            0 -1 60 -868047056 -1874016007 -615985124 -1882957434
            -2133576931 1070770445 -253570865 -119154629</internalNodes>
          <leafValues>
            -5.5749738216400146e-01 2.7839699387550354e-01</leafValues></_>
        <_>
          <internalNodes>
            0 -1 102 2000637179 1066615511 96471072 1703376388 831101785
            1485308032 251709972 -521278239</internalNodes>
          <leafValues>
            -4.5134422183036804e-01 3.5781571269035339e-01</leafValues></_>
        <_>
          <internalNodes>
            0 -1 54 1517276802 -2132094333 163640787 873886787
            1372809678 1142145627 -899451775 -2104529939</internalNodes>
          <leafValues>
            -5.6375545263290405e-01 3.0259290337562561e-01</leafValues></_>
        <_>
          <internalNodes>
            0 -1 79 -88468396 831063319 816337371 -1755696951 -367918344
            -1312129021 -1999523140 252316024</internalNodes>
          <leafValues>
            -5.6964576244354248e-01 2.9054358601570129e-01</leafValues></_>
        <_>
          <internalNodes>
            0 -1 103 -185863206 -1416605688 -1744223798 276398263
            -1837049264 -1728003576 -1291706133 1345564109</internalNodes>
          <leafValues>
            -4.9356395006179810e-01 3.2991662621498108e-01</leafValues></_>
        <_>
          <internalNodes>
            0 -1 105 1263749641 -1226856494 -1811905953 486916443
            -886332744 -926908409 671889643 67107023</internalNodes>
          <leafValues>
            -4.8275840282440186e-01 3.5521149635314941e-01</leafValues></_></weakClassifiers></_>
    <!-- stage 15 -->
    <_>
      <maxWeakCount>9</maxWeakCount>
      <stageThreshold>-1.3168503046035767e+00</stageThreshold>
      <weakClassifiers>
        <_>
          <internalNodes>
            0 -1 111 98434395 754045363 352637265 -975535716 -108925974
            -1971541870 1268566777 -839337896</internalNodes>
          <leafValues>
            -6.9485902786254883e-01 -4.5951858162879944e-02</leafValues></_>
        <_>
          <internalNodes>
            0 -1 86 -1261196093 483726431 -1742605857 582798047
            311040255 1257107115 1191338855 -32836329</internalNodes>
          <leafValues>
            -5.4235309362411499e-01 2.6373454928398132e-01</leafValues></_>
        <_>
          <internalNodes>
            0 -1 61 1732498120 1129554047 16829102 -1255109729 -39345956
            -1055685615 -1031463880 2001992379</internalNodes>
          <leafValues>
            -5.0358885526657104e-01 2.8786620497703552e-01</leafValues></_>
        <_>
          <internalNodes>
            0 -1 31 272948479 -1115577850 -2080351140 -759319550
            952876038 1208635440 2023882962 465813947</internalNodes>
          <leafValues>
            -4.6204519271850586e-01 3.5367852449417114e-01</leafValues></_>
        <_>
          <internalNodes>
            0 -1 49 -9449261 673767874 1132085323 -1244643072 -8306148
            -1742617521 134790332 1761462786</internalNodes>
          <leafValues>
            -4.8263198137283325e-01 3.3600896596908569e-01</leafValues></_>
        <_>
          <internalNodes>
            0 -1 3 -1560287545 1778632984 -1073675194 -78538106
            -656195006 -1870135165 2031284598 -336594793</internalNodes>
          <leafValues>
            -4.1472914814949036e-01 4.2191296815872192e-01</leafValues></_>
        <_>
          <internalNodes>
            0 -1 37 1795061501 -89491 -1342177345 -1045632004 -65843
            -8388611 -134234499 -539865092</internalNodes>
          <leafValues>
            -3.5830804705619812e-01 4.8690333962440491e-01</leafValues></_>
        <_>
          <internalNodes>
            0 -1 29 -1030822576 -559660682 -1050849121 -576912507
            159508657 -1327411191 1526794263 -1446565819</internalNodes>
          <leafValues>
            -4.1748571395874023e-01 4.2780840396881104e-01</leafValues></_>
        <_>
          <internalNodes>
            0 -1 123 -859958778 783114270 1082904846 -2038001194
            1728194658 1669365761 1313484046 -864294261</internalNodes>
          <leafValues>
            -5.6076323986053467e-01 3.2433810830116272e-01</leafValues></_></weakClassifiers></_>
    <!-- stage 16 -->
    <_>
      <maxWeakCount>8</maxWeakCount>
      <stageThreshold>-9.5979958772659302e-01</stageThreshold>
      <weakClassifiers>
        <_>
          <internalNodes>
            0 -1 68 -154667041 -540162606 -1761469123 -719852
            -1163818356 -1415679811 -1198985558 -125830285</internalNodes>
          <leafValues>
            -5.8383595943450928e-01 1.9047619402408600e-01</leafValues></_>
        <_>
          <internalNodes>
            0 -1 10 -2015690189 248025989 1074860124 818831778
            -859102365 1653096641 -795915082 -537397131</internalNodes>
          <leafValues>
            -5.6009638309478760e-01 2.2709825634956360e-01</leafValues></_>
        <_>
          <internalNodes>
            0 -1 75 -330214849 380650923 -217396769 721310153
            -1454566429 -292976295 -391435913 -1431671183</internalNodes>
          <leafValues>
            -5.0500118732452393e-01 2.9176232218742371e-01</leafValues></_>
        <_>
          <internalNodes>
            0 -1 106 960646239 961958361 488736151 -1344626808
            -796075356 -140754794 984242392 720416825</internalNodes>
          <leafValues>
            -4.5440170168876648e-01 3.5806205868721008e-01</leafValues></_>
        <_>
          <internalNodes>
            0 -1 45 -1637686646 -2752496 1317241108 -1539112826
            772251582 -1169534975 50534939 219326223</internalNodes>
          <leafValues>
            -5.6750088930130005e-01 2.5750118494033813e-01</leafValues></_>
        <_>
          <internalNodes>
            0 -1 121 -270529 -1686261831 -51339 997621648 -1342259349
            -1342341249 268310793 -550502609</internalNodes>
          <leafValues>
            -3.2503685355186462e-01 5.3315514326095581e-01</leafValues></_>
        <_>
          <internalNodes>
            0 -1 118 -1537498328 -1500937977 336265480 66750924
            -1140080887 1091182849 -13385277 -729813445</internalNodes>
          <leafValues>
            -6.0577267408370972e-01 2.8638470172882080e-01</leafValues></_>
        <_>
          <internalNodes>
            0 -1 51 -1561447216 1263976709 285803059 713900507
            -1056497615 -49577980 -745829805 -1296325977</internalNodes>
          <leafValues>
            -5.7957798242568970e-01 2.9583936929702759e-01</leafValues></_></weakClassifiers></_>
    <!-- stage 17 -->
    <_>
      <maxWeakCount>7</maxWeakCount>
      <stageThreshold>-1.5560251474380493e+00</stageThreshold>
      <weakClassifiers>
        <_>
          <internalNodes>
            0 -1 1 -928543169 -680614855 1284747671 -817549197
            1132593147 -1031283479 1504549867 -571479217</internalNodes>
          <leafValues>
            -6.3384187221527100e-01 5.0147492438554764e-02</leafValues></_>
        <_>
          <internalNodes>
            0 -1 104 -1196011792 2036099474 -746563499 -576954028
            -1198884639 -618233718 51308698 -1815393058</internalNodes>
          <leafValues>
            -4.4651526212692261e-01 3.1314283609390259e-01</leafValues></_>
        <_>
          <internalNodes>
            0 -1 42 -1022602504 958898358 -1001124196 999597627
            -580811081 403776057 1578179179 419318727</internalNodes>
          <leafValues>
            -6.1320996284484863e-01 2.4764399230480194e-01</leafValues></_>
        <_>
          <internalNodes>
            0 -1 24 1072619509 -134283269 -269025281 1605959422
            -1099046939 -545292353 1071316829 -537725385</internalNodes>
          <leafValues>
            -2.9861167073249817e-01 5.5412501096725464e-01</leafValues></_>
        <_>
          <internalNodes>
            0 -1 57 -1576354623 -209677679 -1056800763 -779087663
            -1332500711 -668532607 -1861562446 -1146350947</internalNodes>
          <leafValues>
            -4.4912910461425781e-01 3.6877134442329407e-01</leafValues></_>
        <_>
          <internalNodes>
            0 -1 15 -522791513 -141977598 -1165733745 -1026064384
            1346388006 -29650010 -229195561 -29654925</internalNodes>
          <leafValues>
            -4.4442641735076904e-01 3.7220120429992676e-01</leafValues></_>
        <_>
          <internalNodes>
            0 -1 64 -693313964 1069317342 -65537 535560157 -1094787340
            -41250 -84516 -1088742156</internalNodes>
          <leafValues>
            -3.8388141989707947e-01 4.3748110532760620e-01</leafValues></_></weakClassifiers></_>
    <!-- stage 18 -->
    <_>
      <maxWeakCount>8</maxWeakCount>
      <stageThreshold>-9.6122896671295166e-01</stageThreshold>
      <weakClassifiers>
        <_>
          <internalNodes>
            0 -1 25 -547924001 -235679585 487588255 -46337666 -267789889
            -73690888 -64451649 -3551045</internalNodes>
          <leafValues>
            -5.4074889421463013e-01 3.3552631735801697e-01</leafValues></_>
        <_>
          <internalNodes>
            0 -1 70 -1433702816 228488535 -377342564 781542799 948832260
            -130527150 -878021257 -1346708649</internalNodes>
          <leafValues>
            -5.9565299749374390e-01 2.1830244362354279e-01</leafValues></_>
        <_>
          <internalNodes>
            0 -1 26 245539896 2022457628 -1810828801 901828883 774052436
            -1079115095 147084598 717427123</internalNodes>
          <leafValues>
            -6.1238545179367065e-01 2.4003794789314270e-01</leafValues></_>
        <_>
          <internalNodes>
            0 -1 17 -204999125 -573337215 1112302619 -431930349
            218657083 1143089 1621776604 1290138255</internalNodes>
          <leafValues>
            -4.9852415919303894e-01 3.1477987766265869e-01</leafValues></_>
        <_>
          <internalNodes>
            0 -1 117 290919691 982763995 -1450877597 991729698
            -755914578 -581164921 176933534 -1467616869</internalNodes>
          <leafValues>
            -4.7533357143402100e-01 3.2519805431365967e-01</leafValues></_>
        <_>
          <internalNodes>
            0 -1 110 -645055596 -2079142923 -184544772 86377352
            1510648760 26251656 -220026048 501215991</internalNodes>
          <leafValues>
            -5.3827226161956787e-01 3.0219969153404236e-01</leafValues></_>
        <_>
          <internalNodes>
            0 -1 14 302939487 -1484338358 -457064165 -735806629
            -771348284 -385859199 2056903417 2096493424</internalNodes>
          <leafValues>
            -4.9378082156181335e-01 3.1534767150878906e-01</leafValues></_>
        <_>
          <internalNodes>
            0 -1 40 -186720344 -930081254 11076807 1292310703 268565641
            -1764818927 -779842546 -801674877</internalNodes>
          <leafValues>
            -4.6996694803237915e-01 3.5857224464416504e-01</leafValues></_></weakClassifiers></_>
    <!-- stage 19 -->
    <_>
      <maxWeakCount>7</maxWeakCount>
      <stageThreshold>-1.0713880062103271e+00</stageThreshold>
      <weakClassifiers>
        <_>
          <internalNodes>
            0 -1 30 -50137089 891125840 1368397277 -34918349 -129977667
            -108486504 -1350501473 -342890757</internalNodes>
          <leafValues>
            -5.5618613958358765e-01 2.7932959794998169e-01</leafValues></_>
        <_>
          <internalNodes>
            0 -1 7 -544442544 -16721530 846236318 -1158241 1899322693
            1699565831 -1092609033 -118232641</internalNodes>
          <leafValues>
            -5.1627391576766968e-01 2.5594630837440491e-01</leafValues></_>
        <_>
          <internalNodes>
            0 -1 23 -532280586 1189540172 67522575 -1394649786
            -2054064631 -807239583 1235341361 -698882256</internalNodes>
          <leafValues>
            -5.4206192493438721e-01 2.7314573526382446e-01</leafValues></_>
        <_>
          <internalNodes>
            0 -1 98 -2019889967 -612564993 -257 -545488907 -4788289
            -277020678 1069416255 -1088758547</internalNodes>
          <leafValues>
            -3.3733090758323669e-01 4.5254710316658020e-01</leafValues></_>
        <_>
          <internalNodes>
            0 -1 69 1996488415 922660778 1852784511 2113138292 -16824310
            -138936340 905899230 -1661079625</internalNodes>
          <leafValues>
            -3.5698747634887695e-01 4.4664940237998962e-01</leafValues></_>
        <_>
          <internalNodes>
            0 -1 9 178981499 1179627905 -50330022 1044382554 1753444426
            -1299038062 -1041610411 -63145327</internalNodes>
          <leafValues>
            -6.0422366857528687e-01 3.0039498209953308e-01</leafValues></_>
        <_>
          <internalNodes>
            0 -1 21 -1731853442 -1384898842 -2134221313 1830576591
            1610762440 -343779306 1959053453 390418208</internalNodes>
          <leafValues>
            -6.3243401050567627e-01 2.5424808263778687e-01</leafValues></_></weakClassifiers></_></stages>
  <features>
    <_>
      <rect>
        0 2 1 1</rect></_>
    <_>
      <rect>
        0 2 3 4</rect></_>
    <_>
      <rect>
        0 2 5 2</rect></_>
    <_>
      <rect>
        0 4 1 1</rect></_>
    <_>
      <rect>
        0 5 1 1</rect></_>
    <_>
      <rect>
        0 6 2 2</rect></_>
    <_>
      <rect>
        0 6 3 2</rect></_>
    <_>
      <rect>
        0 6 6 6</rect></_>
    <_>
      <rect>
        0 6 7 6</rect></_>
    <_>
      <rect>
        0 7 1 2</rect></_>
    <_>
      <rect>
        0 8 1 1</rect></_>
    <_>
      <rect>
        0 8 3 3</rect></_>
    <_>
      <rect>
        0 8 3 5</rect></_>
    <_>
      <rect>
        0 9 6 4</rect></_>
    <_>
      <rect>
        0 10 1 2</rect></_>
    <_>
      <rect>
        0 10 6 4</rect></_>
    <_>
      <rect>
        0 11 3 4</rect></_>
    <_>
      <rect>
        0 11 4 3</rect></_>
    <_>
      <rect>
        0 12 4 3</rect></_>
    <_>
      <rect>
        0 12 5 3</rect></_>
    <_>
      <rect>
        0 12 5 4</rect></_>
    <_>
      <rect>
        0 15 3 3</rect></_>
    <_>
      <rect>
        0 15 6 3</rect></_>
    <_>
      <rect>
        0 17 2 2</rect></_>
    <_>
      <rect>
        0 21 2 1</rect></_>
    <_>
      <rect>
        0 21 3 1</rect></_>
    <_>
      <rect>
        1 0 3 1</rect></_>
    <_>
      <rect>
        1 2 1 1</rect></_>
    <_>
      <rect>
        1 5 5 3</rect></_>
    <_>
      <rect>
        2 0 2 1</rect></_>
    <_>
      <rect>
        2 1 5 2</rect></_>
    <_>
      <rect>
        2 13 3 2</rect></_>
    <_>
      <rect>
        3 0 1 1</rect></_>
    <_>
      <rect>
        3 0 7 8</rect></_>
    <_>
      <rect>
        3 5 6 3</rect></_>
    <_>
      <rect>
        3 6 3 2</rect></_>
    <_>
      <rect>
        3 21 1 1</rect></_>
    <_>
      <rect>
        3 21 2 1</rect></_>
    <_>
      <rect>
        4 0 2 1</rect></_>
    <_>
      <rect>
        4 1 4 1</rect></_>
    <_>
      <rect>
        4 2 4 3</rect></_>
    <_>
      <rect>
        4 3 4 3</rect></_>
    <_>
      <rect>
        4 6 4 4</rect></_>
    <_>
      <rect>
        4 7 5 4</rect></_>
    <_>
      <rect>
        4 11 4 2</rect></_>
    <_>
      <rect>
        4 13 3 2</rect></_>
    <_>
      <rect>
        4 13 5 3</rect></_>
    <_>
      <rect>
        4 18 6 2</rect></_>
    <_>
      <rect>
        5 1 3 2</rect></_>
    <_>
      <rect>
        5 1 4 1</rect></_>
    <_>
      <rect>
        5 2 4 3</rect></_>
    <_>
      <rect>
        5 16 5 2</rect></_>
    <_>
      <rect>
        6 2 4 3</rect></_>
    <_>
      <rect>
        6 6 4 4</rect></_>
    <_>
      <rect>
        6 8 6 5</rect></_>
    <_>
      <rect>
        6 9 6 5</rect></_>
    <_>
      <rect>
        6 21 2 1</rect></_>
    <_>
      <rect>
        7 1 1 1</rect></_>
    <_>
      <rect>
        7 1 3 1</rect></_>
    <_>
      <rect>
        7 2 5 6</rect></_>
    <_>
      <rect>
        7 4 2 2</rect></_>
    <_>
      <rect>
        7 5 5 2</rect></_>
    <_>
      <rect>
        7 6 4 5</rect></_>
    <_>
      <rect>
        7 10 1 1</rect></_>
    <_>
      <rect>
        7 15 1 1</rect></_>
    <_>
      <rect>
        7 20 2 1</rect></_>
    <_>
      <rect>
        8 0 1 1</rect></_>
    <_>
      <rect>
        8 0 2 1</rect></_>
    <_>
      <rect>
        8 1 3 1</rect></_>
    <_>
      <rect>
        8 1 4 1</rect></_>
    <_>
      <rect>
        8 10 1 1</rect></_>
    <_>
      <rect>
        8 12 5 3</rect></_>
    <_>
      <rect>
        9 0 1 1</rect></_>
    <_>
      <rect>
        9 0 2 1</rect></_>
    <_>
      <rect>
        9 2 4 3</rect></_>
    <_>
      <rect>
        9 8 1 1</rect></_>
    <_>
      <rect>
        9 10 1 1</rect></_>
    <_>
      <rect>
        9 10 5 4</rect></_>
    <_>
      <rect>
        9 14 1 1</rect></_>
    <_>
      <rect>
        9 20 1 1</rect></_>
    <_>
      <rect>
        10 0 1 1</rect></_>
    <_>
      <rect>
        10 0 1 7</rect></_>
    <_>
      <rect>
        10 0 4 6</rect></_>
    <_>
      <rect>
        10 1 1 1</rect></_>
    <_>
      <rect>
        10 4 2 2</rect></_>
    <_>
      <rect>
        10 8 1 1</rect></_>
    <_>
      <rect>
        10 9 2 1</rect></_>
    <_>
      <rect>
        10 18 1 2</rect></_>
    <_>
      <rect>
        10 21 4 1</rect></_>
    <_>
      <rect>
        11 0 2 1</rect></_>
    <_>
      <rect>
        11 1 1 1</rect></_>
    <_>
      <rect>
        11 8 1 1</rect></_>
    <_>
      <rect>
        11 9 1 1</rect></_>
    <_>
      <rect>
        11 12 3 4</rect></_>
    <_>
      <rect>
        11 19 1 1</rect></_>
    <_>
      <rect>
        11 20 1 1</rect></_>
    <_>
      <rect>
        12 10 4 4</rect></_>
    <_>
      <rect>
        12 12 4 2</rect></_>
    <_>
      <rect>
        12 20 1 1</rect></_>
    <_>
      <rect>
        13 0 2 1</rect></_>
    <_>
      <rect>
        13 20 1 1</rect></_>
    <_>
      <rect>
        14 0 3 1</rect></_>
    <_>
      <rect>
        14 9 2 4</rect></_>
    <_>
      <rect>
        14 13 2 1</rect></_>
    <_>
      <rect>
        14 15 1 1</rect></_>
    <_>
      <rect>
        15 0 3 3</rect></_>
    <_>
      <rect>
        15 1 2 1</rect></_>
    <_>
      <rect>
        15 3 1 1</rect></_>
    <_>
      <rect>
        15 7 3 5</rect></_>
    <_>
      <rect>
        15 12 3 3</rect></_>
    <_>
      <rect>
        15 18 3 2</rect></_>
    <_>
      <rect>
        15 21 2 1</rect></_>
    <_>
      <rect>
        16 0 2 1</rect></_>
    <_>
      <rect>
        17 1 2 1</rect></_>
    <_>
      <rect>
        17 8 2 1</rect></_>
    <_>
      <rect>
        17 12 1 3</rect></_>
    <_>
      <rect>
        18 1 2 1</rect></_>
    <_>
      <rect>
        18 1 2 2</rect></_>
    <_>
      <rect>
        18 9 2 1</rect></_>
    <_>
      <rect>
        18 13 1 1</rect></_>
    <_>
      <rect>
        18 13 2 2</rect></_>
    <_>
      <rect>
        18 13 2 3</rect></_>
    <_>
      <rect>
        20 3 1 1</rect></_>
    <_>
      <rect>
        20 4 1 1</rect></_>
    <_>
      <rect>
        21 2 1 1</rect></_>
    <_>
      <rect>
        21 6 1 1</rect></_></features></cascade>
</opencv_storage>
