<?xml version="1.0"?>
<opencv_storage>
<cascade>
  <stageType>BOOST</stageType>
  <featureType>LBP</featureType>
  <height>48</height>
  <width>24</width>
  <stageParams>
    <boostType>GAB</boostType>
    <minHitRate>9.9500000476837158e-01</minHitRate>
    <maxFalseAlarm>5.0000000000000000e-01</maxFalseAlarm>
    <weightTrimRate>9.4999999999999996e-01</weightTrimRate>
    <maxDepth>1</maxDepth>
    <maxWeakCount>100</maxWeakCount></stageParams>
  <featureParams>
    <maxCatCount>256</maxCatCount>
    <featSize>1</featSize></featureParams>
  <stageNum>15</stageNum>
  <stages>
    <!-- stage 0 -->
    <_>
      <maxWeakCount>3</maxWeakCount>
      <stageThreshold>-9.7202044725418091e-01</stageThreshold>
      <weakClassifiers>
        <_>
          <internalNodes>
            0 -1 66 -549463589 252645649 -1291120303 1531139923
            -65304437 -1693745144 1075037157 -536874529</internalNodes>
          <leafValues>
            -7.5190842151641846e-01 4.0794223546981812e-01</leafValues></_>
        <_>
          <internalNodes>
            0 -1 23 -8207910 -1613082240 336253048 -722153408
            -1073738006 -620197888 -804470021 -20194573</internalNodes>
          <leafValues>
            -6.5471476316452026e-01 4.7337734699249268e-01</leafValues></_>
        <_>
          <internalNodes>
            0 -1 36 -2137758208 -519581695 1078040597 -719981631
            -2000024849 -24434030 1352847575 -546572321</internalNodes>
          <leafValues>
            -6.9348937273025513e-01 4.6169522404670715e-01</leafValues></_></weakClassifiers></_>
    <!-- stage 1 -->
    <_>
      <maxWeakCount>3</maxWeakCount>
      <stageThreshold>-1.1253144741058350e+00</stageThreshold>
      <weakClassifiers>
        <_>
          <internalNodes>
            0 -1 11 -296747345 -812653649 1086488779 -293084497
            1093091855 2075891791 1458559663 -1</internalNodes>
          <leafValues>
            -7.9444712400436401e-01 4.7068676352500916e-01</leafValues></_>
        <_>
          <internalNodes>
            0 -1 3 1309656610 34582542 1131042 273666863 224335107
            1084211486 22530823 2139095039</internalNodes>
          <leafValues>
            -8.7460047006607056e-01 3.5443353652954102e-01</leafValues></_>
        <_>
          <internalNodes>
            0 -1 6 -1384124701 -1431579701 -1801580506 -394790417
            -68589481 -483659365 -141569177 -150996225</internalNodes>
          <leafValues>
            -6.6668891906738281e-01 5.4373311996459961e-01</leafValues></_></weakClassifiers></_>
    <!-- stage 2 -->
    <_>
      <maxWeakCount>5</maxWeakCount>
      <stageThreshold>-1.2174253463745117e+00</stageThreshold>
      <weakClassifiers>
        <_>
          <internalNodes>
            0 -1 13 -271581201 -288367633 -594684676 -285247537 -3422353
            -2365093 -141564929 -1025</internalNodes>
          <leafValues>
            -7.6942610740661621e-01 2.4229075014591217e-01</leafValues></_>
        <_>
          <internalNodes>
            0 -1 49 -337649809 786421147 -258249388 1792996735
            1921741695 1871444651 2005660791 -277</internalNodes>
          <leafValues>
            -7.0970851182937622e-01 3.7998360395431519e-01</leafValues></_>
        <_>
          <internalNodes>
            0 -1 67 -276828413 56324955 362692881 1163096747 -107250991
            -393500545 1973121059 -537919493</internalNodes>
          <leafValues>
            -5.6829452514648438e-01 5.7210588455200195e-01</leafValues></_>
        <_>
          <internalNodes>
            0 -1 21 -335548662 779055503 553698087 658725867 1234135399
            1041958943 1083786079 -402654209</internalNodes>
          <leafValues>
            -7.2664320468902588e-01 4.0128695964813232e-01</leafValues></_>
        <_>
          <internalNodes>
            0 -1 1 264202595 -2026993214 -1861889549 -33734400 791609638
            -346124096 462094453 -8916761</internalNodes>
          <leafValues>
            -5.8300000429153442e-01 5.0242882966995239e-01</leafValues></_></weakClassifiers></_>
    <!-- stage 3 -->
    <_>
      <maxWeakCount>5</maxWeakCount>
      <stageThreshold>-1.1470075845718384e+00</stageThreshold>
      <weakClassifiers>
        <_>
          <internalNodes>
            0 -1 34 -10878977 -536879105 -580993539 -627393539 -4460673
            -11083109 -688932015 -8389697</internalNodes>
          <leafValues>
            -7.3203885555267334e-01 2.6779660582542419e-01</leafValues></_>
        <_>
          <internalNodes>
            0 -1 16 -683680257 -449905763 -733128236 -26310222
            -1146094722 2110618387 -1316489488 -436747465</internalNodes>
          <leafValues>
            -6.7006045579910278e-01 3.2365253567695618e-01</leafValues></_>
        <_>
          <internalNodes>
            0 -1 12 -1007681793 -1093713 -828187073 -320671745 237782875
            -816316609 620578551 -25822593</internalNodes>
          <leafValues>
            -4.8980784416198730e-01 5.4655480384826660e-01</leafValues></_>
        <_>
          <internalNodes>
            0 -1 57 -1897194049 226433527 1540453887 685670141
            1941907975 -543458561 915040119 -1428785036</internalNodes>
          <leafValues>
            -7.0712906122207642e-01 3.9737293124198914e-01</leafValues></_>
        <_>
          <internalNodes>
            0 -1 84 -874520637 -1980840009 -797978223 718992539
            1713621824 -879789909 -269359308 -1008862223</internalNodes>
          <leafValues>
            -5.7804697751998901e-01 4.7495263814926147e-01</leafValues></_></weakClassifiers></_>
    <!-- stage 4 -->
    <_>
      <maxWeakCount>6</maxWeakCount>
      <stageThreshold>-1.7247573137283325e+00</stageThreshold>
      <weakClassifiers>
        <_>
          <internalNodes>
            0 -1 60 -1894108325 -37610821 -762095841 -7122567
            -1987669073 -72646653 -141821441 -271461</internalNodes>
          <leafValues>
            -6.9827181100845337e-01 2.8487229347229004e-01</leafValues></_>
        <_>
          <internalNodes>
            0 -1 44 -638331169 -1080585937 -1795094115 390287227
            -645174817 -266737527 411065034 738154459</internalNodes>
          <leafValues>
            -5.4708850383758545e-01 4.4229069352149963e-01</leafValues></_>
        <_>
          <internalNodes>
            0 -1 46 463431680 1053937755 423794905 958384595 1506259379
            461468347 2093734811 1601960379</internalNodes>
          <leafValues>
            -6.8458253145217896e-01 3.1260362267494202e-01</leafValues></_>
        <_>
          <internalNodes>
            0 -1 15 -285233425 -329153634 1816284174 -521149737
            167830335 -269548765 1301627079 1252900991</internalNodes>
          <leafValues>
            -6.4073753356933594e-01 3.2673528790473938e-01</leafValues></_>
        <_>
          <internalNodes>
            0 -1 41 1442838736 1241104 -778395692 -1141902969 -384116036
            -625999426 -662046512 -1862272041</internalNodes>
          <leafValues>
            -6.0287225246429443e-01 3.6508560180664063e-01</leafValues></_>
        <_>
          <internalNodes>
            0 -1 85 -674504698 245281208 1413480476 -498085830
            1087068425 1636018217 -117204005 -122946865</internalNodes>
          <leafValues>
            -5.1634865999221802e-01 4.6683624386787415e-01</leafValues></_></weakClassifiers></_>
    <!-- stage 5 -->
    <_>
      <maxWeakCount>5</maxWeakCount>
      <stageThreshold>-1.2919243574142456e+00</stageThreshold>
      <weakClassifiers>
        <_>
          <internalNodes>
            0 -1 20 -793783654 -683453680 -1072426659 -208301303
            -972113732 -74725207 -2136218449 -3409681</internalNodes>
          <leafValues>
            -7.5717210769653320e-01 1.8338109552860260e-01</leafValues></_>
        <_>
          <internalNodes>
            0 -1 22 2120108250 1496535314 1207961758 2104053851
            2022281919 956377096 1336629503 1585139931</internalNodes>
          <leafValues>
            -7.0902359485626221e-01 2.7044612169265747e-01</leafValues></_>
        <_>
          <internalNodes>
            0 -1 42 1727407119 721388166 1615582410 -1327766665
            1788288068 1270056963 -804599306 -471868685</internalNodes>
          <leafValues>
            -6.1920541524887085e-01 3.7134644389152527e-01</leafValues></_>
        <_>
          <internalNodes>
            0 -1 54 -153330188 -1823440347 -2087484583 -5353067
            1933743068 2127233674 -225834245 -298124427</internalNodes>
          <leafValues>
            -5.9993559122085571e-01 3.8520279526710510e-01</leafValues></_>
        <_>
          <internalNodes>
            0 -1 80 -740322497 -1912139626 1174443226 1423479111
            -628498420 2089205771 -95933266 -528484099</internalNodes>
          <leafValues>
            -5.2661049365997314e-01 4.6740138530731201e-01</leafValues></_></weakClassifiers></_>
    <!-- stage 6 -->
    <_>
      <maxWeakCount>7</maxWeakCount>
      <stageThreshold>-1.0161036252975464e+00</stageThreshold>
      <weakClassifiers>
        <_>
          <internalNodes>
            0 -1 28 -70264609 -38829374 -1719544833 -2658030 -661931618
            -84114984 -1467168514 -23081997</internalNodes>
          <leafValues>
            -6.5826088190078735e-01 4.6857142448425293e-01</leafValues></_>
        <_>
          <internalNodes>
            0 -1 70 706355839 907411731 -1676032899 -1110156723
            -1196795141 -1096012725 -394018065 -274992437</internalNodes>
          <leafValues>
            -5.1820278167724609e-01 4.3326357007026672e-01</leafValues></_>
        <_>
          <internalNodes>
            0 -1 59 -951134989 -1694304078 -1874619905 847809288
            -640765875 -1030813680 1653541109 -54613648</internalNodes>
          <leafValues>
            -5.3872674703598022e-01 4.2203250527381897e-01</leafValues></_>
        <_>
          <internalNodes>
            0 -1 2 1660082882 -1283419637 -1594778729 -1820141335
            1630529810 -653473750 -721329745 -165686597</internalNodes>
          <leafValues>
            -5.6182122230529785e-01 3.8937550783157349e-01</leafValues></_>
        <_>
          <internalNodes>
            0 -1 14 -292552705 -1074266124 -268898737 -1927221525
            1337687518 -269058057 217502975 1328899963</internalNodes>
          <leafValues>
            -4.2364755272865295e-01 5.3565376996994019e-01</leafValues></_>
        <_>
          <internalNodes>
            0 -1 8 1309369950 -104345549 -988422084 -887451261
            -1957737332 -108394359 1112541903 -294590005</internalNodes>
          <leafValues>
            -5.3179013729095459e-01 4.0812587738037109e-01</leafValues></_>
        <_>
          <internalNodes>
            0 -1 18 -924622042 -2016751478 1212783697 -632404280
            973297730 1577093192 -1173746912 -344982701</internalNodes>
          <leafValues>
            -6.3406836986541748e-01 3.6328166723251343e-01</leafValues></_></weakClassifiers></_>
    <!-- stage 7 -->
    <_>
      <maxWeakCount>6</maxWeakCount>
      <stageThreshold>-1.0318323373794556e+00</stageThreshold>
      <weakClassifiers>
        <_>
          <internalNodes>
            0 -1 69 -291504385 -751462913 -250372097 -678501399
            -1550582849 -66534845 -811598853 -337459</internalNodes>
          <leafValues>
            -6.9655841588973999e-01 1.4821124076843262e-01</leafValues></_>
        <_>
          <internalNodes>
            0 -1 26 -2015392245 666882441 -1476158326 -218635106
            2079291982 151565003 -231998943 -154676377</internalNodes>
          <leafValues>
            -6.4595878124237061e-01 2.5882655382156372e-01</leafValues></_>
        <_>
          <internalNodes>
            0 -1 74 691149842 -1429726826 -914204591 517231180
            -803043164 -1149167447 -196815874 -623580731</internalNodes>
          <leafValues>
            -6.2390500307083130e-01 3.2198965549468994e-01</leafValues></_>
        <_>
          <internalNodes>
            0 -1 52 -1342231801 752817631 -917115875 853465787
            1140548449 264437793 -695509151 -18154762</internalNodes>
          <leafValues>
            -6.5819305181503296e-01 3.0593034625053406e-01</leafValues></_>
        <_>
          <internalNodes>
            0 -1 37 -1069025600 -687487705 1897494180 -1835956857
            -913357897 -268336745 -1240741746 -174344149</internalNodes>
          <leafValues>
            -5.1606476306915283e-01 4.1941604018211365e-01</leafValues></_>
        <_>
          <internalNodes>
            0 -1 65 -1309730629 215064970 -758656547 1016746386
            1787522843 -2124408445 2014271847 -17894688</internalNodes>
          <leafValues>
            -5.7618808746337891e-01 3.8476648926734924e-01</leafValues></_></weakClassifiers></_>
    <!-- stage 8 -->
    <_>
      <maxWeakCount>6</maxWeakCount>
      <stageThreshold>-1.5934132337570190e+00</stageThreshold>
      <weakClassifiers>
        <_>
          <internalNodes>
            0 -1 73 -161 1604309739 -1324154607 1461180743 -664797765
            -1416740689 1610306005 -570434657</internalNodes>
          <leafValues>
            -6.9223254919052124e-01 1.1111111193895340e-01</leafValues></_>
        <_>
          <internalNodes>
            0 -1 56 2131443800 1037193732 17651197 2110830876 -91072264
            -644093752 809540607 -569582759</internalNodes>
          <leafValues>
            -5.5514842271804810e-01 2.8267762064933777e-01</leafValues></_>
        <_>
          <internalNodes>
            0 -1 83 -1006643606 -359996178 1560395810 -353451566
            1136392531 1751745158 -159124576 -202128465</internalNodes>
          <leafValues>
            -5.6208062171936035e-01 3.4157028794288635e-01</leafValues></_>
        <_>
          <internalNodes>
            0 -1 33 -635843406 453242899 253545473 1042808153 1202261691
            168854050 -1971218181 2101335039</internalNodes>
          <leafValues>
            -5.5550432205200195e-01 3.3863797783851624e-01</leafValues></_>
        <_>
          <internalNodes>
            0 -1 7 -867176701 -1597538046 1099497662 -1059088069
            1372281847 1210778675 1078308942 -671661725</internalNodes>
          <leafValues>
            -5.6137883663177490e-01 3.6278554797172546e-01</leafValues></_>
        <_>
          <internalNodes>
            0 -1 81 2002733571 980353311 412192911 773323141 -1954864466
            2039056848 -1601445746 -390076985</internalNodes>
          <leafValues>
            -4.6486169099807739e-01 4.2598989605903625e-01</leafValues></_></weakClassifiers></_>
    <!-- stage 9 -->
    <_>
      <maxWeakCount>5</maxWeakCount>
      <stageThreshold>-1.0534157752990723e+00</stageThreshold>
      <weakClassifiers>
        <_>
          <internalNodes>
            0 -1 27 -48242689 -73407005 -37626401 -142936289 -75236385
            -142368550 -77011205 -1133652</internalNodes>
          <leafValues>
            -6.5055429935455322e-01 2.9620254039764404e-01</leafValues></_>
        <_>
          <internalNodes>
            0 -1 79 -203426881 -807407201 1157993309 -560162853
            -1389251585 -359558454 -842290691 -537069064</internalNodes>
          <leafValues>
            -4.4139292836189270e-01 4.7971460223197937e-01</leafValues></_>
        <_>
          <internalNodes>
            0 -1 62 802137975 773645183 1435274751 -1596129449
            1932474213 -340194113 -611748491 -419499024</internalNodes>
          <leafValues>
            -6.5528702735900879e-01 3.2054677605628967e-01</leafValues></_>
        <_>
          <internalNodes>
            0 -1 53 1367048016 -843352251 -238892720 -6433795
            -1178223628 -1309243659 -1380522667 -672203777</internalNodes>
          <leafValues>
            -5.5372864007949829e-01 3.5749617218971252e-01</leafValues></_>
        <_>
          <internalNodes>
            0 -1 61 -1912467212 -138128935 -2061506945 -1161312256
            -1105036295 -652688758 -49352981 -600023367</internalNodes>
          <leafValues>
            -5.8478522300720215e-01 3.6679783463478088e-01</leafValues></_></weakClassifiers></_>
    <!-- stage 10 -->
    <_>
      <maxWeakCount>7</maxWeakCount>
      <stageThreshold>-1.3637900352478027e+00</stageThreshold>
      <weakClassifiers>
        <_>
          <internalNodes>
            0 -1 35 -749996581 -140213774 1410505659 -540734656
            -628975460 -1161054062 -125064530 -1316137</internalNodes>
          <leafValues>
            -6.6042900085449219e-01 2.1132898330688477e-01</leafValues></_>
        <_>
          <internalNodes>
            0 -1 77 -108812766 1328412992 1677852386 -125526997
            -91496233 53117465 -1833316174 -1258816561</internalNodes>
          <leafValues>
            -5.3364139795303345e-01 2.9634222388267517e-01</leafValues></_>
        <_>
          <internalNodes>
            0 -1 29 -1972452214 1484696318 202790922 240713774 176037503
            -1199218683 639542075 474418743</internalNodes>
          <leafValues>
            -7.0485073328018188e-01 2.3365738987922668e-01</leafValues></_>
        <_>
          <internalNodes>
            0 -1 25 -565772798 997066127 -553563870 -1420205998
            -1869451525 -1404288832 1762415067 863403807</internalNodes>
          <leafValues>
            -5.5696880817413330e-01 3.3784654736518860e-01</leafValues></_>
        <_>
          <internalNodes>
            0 -1 86 -308560337 201694223 -2062317976 1313797527
            -536127670 -123269113 -939262078 -428082709</internalNodes>
          <leafValues>
            -4.5271915197372437e-01 4.2054012417793274e-01</leafValues></_>
        <_>
          <internalNodes>
            0 -1 51 1591503394 2002068052 -2012634794 -287055549
            1245758131 -40722287 574329010 -832316619</internalNodes>
          <leafValues>
            -5.8316236734390259e-01 3.2659667730331421e-01</leafValues></_>
        <_>
          <internalNodes>
            0 -1 9 -746738841 1280936086 -796278666 -1202335282
            -612814297 1485871126 1531300947 -142082597</internalNodes>
          <leafValues>
            -5.3532564640045166e-01 3.5355392098426819e-01</leafValues></_></weakClassifiers></_>
    <!-- stage 11 -->
    <_>
      <maxWeakCount>7</maxWeakCount>
      <stageThreshold>-1.1575504541397095e+00</stageThreshold>
      <weakClassifiers>
        <_>
          <internalNodes>
            0 -1 39 -3943181 -48239405 576710481 -4721295 -1000353537
            -89464585 1055627963 -71312905</internalNodes>
          <leafValues>
            -6.6511195898056030e-01 1.5019762516021729e-01</leafValues></_>
        <_>
          <internalNodes>
            0 -1 71 -1287914742 454291096 1526856661 -1113869525
            -820123415 -1709991423 1793457660 -572532243</internalNodes>
          <leafValues>
            -4.8128792643547058e-01 3.1575217843055725e-01</leafValues></_>
        <_>
          <internalNodes>
            0 -1 30 747299323 869466832 319108926 1039860952 -653973070
            -1165874122 57150378 730531746</internalNodes>
          <leafValues>
            -5.5228888988494873e-01 3.0062788724899292e-01</leafValues></_>
        <_>
          <internalNodes>
            0 -1 4 -2116161566 1191371074 -669760919 1607967040
            1113813874 -1449017340 -1558724282 -369361065</internalNodes>
          <leafValues>
            -4.9325194954872131e-01 3.5089159011840820e-01</leafValues></_>
        <_>
          <internalNodes>
            0 -1 63 -1362926814 525063039 -1592364160 713545159
            1880045191 948058665 -938708513 -500728854</internalNodes>
          <leafValues>
            -5.3569471836090088e-01 3.3249947428703308e-01</leafValues></_>
        <_>
          <internalNodes>
            0 -1 19 -3149089 -70030994 1812521498 1655436498 168288890
            726679729 353327096 -553919526</internalNodes>
          <leafValues>
            -4.2476686835289001e-01 4.3910676240921021e-01</leafValues></_>
        <_>
          <internalNodes>
            0 -1 58 -70259460 -82247585 1162481757 -1089021745
            -1056217891 -1431764482 1338662493 1596095853</internalNodes>
          <leafValues>
            -4.7041460871696472e-01 3.8110616803169250e-01</leafValues></_></weakClassifiers></_>
    <!-- stage 12 -->
    <_>
      <maxWeakCount>7</maxWeakCount>
      <stageThreshold>-1.4941540956497192e+00</stageThreshold>
      <weakClassifiers>
        <_>
          <internalNodes>
            0 -1 31 -578814209 -203202096 -1848476417 -2399936 -74727268
            -627406597 -624379650 -89261257</internalNodes>
          <leafValues>
            -6.5701150894165039e-01 1.6631579399108887e-01</leafValues></_>
        <_>
          <internalNodes>
            0 -1 17 227444156 -175492158 -771923969 1573212309 562640051
            -390874193 966863611 -908723497</internalNodes>
          <leafValues>
            -4.7552821040153503e-01 3.2394814491271973e-01</leafValues></_>
        <_>
          <internalNodes>
            0 -1 78 -103285014 -828716262 349822738 10459830 -765733504
            144835469 -638606640 1348457454</internalNodes>
          <leafValues>
            -6.1162519454956055e-01 2.6665559411048889e-01</leafValues></_>
        <_>
          <internalNodes>
            0 -1 82 2012202763 550344195 -2147474298 39436762 -762585587
            999254310 -208995329 -488643123</internalNodes>
          <leafValues>
            -5.5779737234115601e-01 2.8029900789260864e-01</leafValues></_>
        <_>
          <internalNodes>
            0 -1 24 -351267104 748308481 876648113 -1268886016
            -2113869189 -273381183 -815593325 1990836467</internalNodes>
          <leafValues>
            -6.1085307598114014e-01 2.8981789946556091e-01</leafValues></_>
        <_>
          <internalNodes>
            0 -1 32 1890086656 411408522 -942094049 -979130363
            -926365954 -1163116504 1422133417 -1043993849</internalNodes>
          <leafValues>
            -6.0691410303115845e-01 2.7044886350631714e-01</leafValues></_>
        <_>
          <internalNodes>
            0 -1 40 1116056588 53614662 1360053209 634771250 1349059503
            1777880205 2062094943 -158864621</internalNodes>
          <leafValues>
            -5.7360941171646118e-01 2.8680804371833801e-01</leafValues></_></weakClassifiers></_>
    <!-- stage 13 -->
    <_>
      <maxWeakCount>7</maxWeakCount>
      <stageThreshold>-1.3678450584411621e+00</stageThreshold>
      <weakClassifiers>
        <_>
          <internalNodes>
            0 -1 45 -1347789736 -148454086 1330992631 -140651439
            -1648510500 -83984227 -630154242 -1089</internalNodes>
          <leafValues>
            -7.4121779203414917e-01 -8.9171975851058960e-02</leafValues></_>
        <_>
          <internalNodes>
            0 -1 38 -88744230 488586077 -1827384684 893089519 1239881947
            1557595345 998793054 1000692443</internalNodes>
          <leafValues>
            -6.3056969642639160e-01 1.7812189459800720e-01</leafValues></_>
        <_>
          <internalNodes>
            0 -1 87 -8669393 246398758 -1090621630 1676592509 2138562391
            -806355073 368549814 -67371265</internalNodes>
          <leafValues>
            -3.8513869047164917e-01 4.2004150152206421e-01</leafValues></_>
        <_>
          <internalNodes>
            0 -1 5 -396892337 239976495 -1189886230 -95626539
            -1361828283 428015882 2022309207 -145755473</internalNodes>
          <leafValues>
            -5.1531559228897095e-01 3.3462262153625488e-01</leafValues></_>
        <_>
          <internalNodes>
            0 -1 55 -1210173351 923391305 354537817 -586852257
            -1978936627 -1716895635 -1978951175 -910510980</internalNodes>
          <leafValues>
            -4.6850275993347168e-01 4.1073963046073914e-01</leafValues></_>
        <_>
          <internalNodes>
            0 -1 47 2093898884 -762261163 -373775876 -1080958901
            -602246719 -1399932219 2132366137 -1260267545</internalNodes>
          <leafValues>
            -5.1406759023666382e-01 3.5236877202987671e-01</leafValues></_>
        <_>
          <internalNodes>
            0 -1 75 -347078909 746754971 1480601926 13611222 1351248451
            1115751065 -1564433662 -251730965</internalNodes>
          <leafValues>
            -6.2414306402206421e-01 2.7309533953666687e-01</leafValues></_></weakClassifiers></_>
    <!-- stage 14 -->
    <_>
      <maxWeakCount>9</maxWeakCount>
      <stageThreshold>-1.6454935073852539e+00</stageThreshold>
      <weakClassifiers>
        <_>
          <internalNodes>
            0 -1 43 -2752801 -48407862 352699743 -719994602 -121272182
            -82272110 1519315711 -68814089</internalNodes>
          <leafValues>
            -6.4047938585281372e-01 2.3425692319869995e-01</leafValues></_>
        <_>
          <internalNodes>
            0 -1 0 193110688 522199565 1428058425 1438081996 542801853
            -24597333 1908751177 1475179492</internalNodes>
          <leafValues>
            -6.5331423282623291e-01 1.7257951200008392e-01</leafValues></_>
        <_>
          <internalNodes>
            0 -1 50 -613972864 595405842 -75676397 -2026780193 -91324352
            -1681848192 210868483 -927085926</internalNodes>
          <leafValues>
            -6.2306392192840576e-01 2.2145678102970123e-01</leafValues></_>
        <_>
          <internalNodes>
            0 -1 64 2119557792 -1164881471 -670479990 900420501
            -301119864 541313349 -120722710 720369596</internalNodes>
          <leafValues>
            -4.8327124118804932e-01 3.3582085371017456e-01</leafValues></_>
        <_>
          <internalNodes>
            0 -1 10 1928318030 1707816975 -1006356849 -2045855342
            202858862 2122124223 2081253241 2145843975</internalNodes>
          <leafValues>
            -5.9938240051269531e-01 2.6650065183639526e-01</leafValues></_>
        <_>
          <internalNodes>
            0 -1 72 -320390902 1883885846 1073954032 2139379163
            1707210912 153489444 -1967021327 -755502814</internalNodes>
          <leafValues>
            -5.1551532745361328e-01 3.1382742524147034e-01</leafValues></_>
        <_>
          <internalNodes>
            0 -1 76 871698963 713945158 -1856479905 969359578 -224851766
            1031848000 718187230 813563659</internalNodes>
          <leafValues>
            -5.6615191698074341e-01 2.9048663377761841e-01</leafValues></_>
        <_>
          <internalNodes>
            0 -1 48 716859699 652182851 -594478652 983086724 587426370
            1600553354 -364164256 -21698299</internalNodes>
          <leafValues>
            -7.0447117090225220e-01 2.2069209814071655e-01</leafValues></_>
        <_>
          <internalNodes>
            0 -1 68 -769922818 -178572681 1329487325 1607936250
            -177379649 -1078988888 925113595 -82206886</internalNodes>
          <leafValues>
            -3.1206020712852478e-01 5.7609486579895020e-01</leafValues></_></weakClassifiers></_></stages>
  <features>
    <_>
      <rect>
        0 0 3 6</rect></_>
    <_>
      <rect>
        0 2 2 2</rect></_>
    <_>
      <rect>
        0 4 6 6</rect></_>
    <_>
      <rect>
        0 4 8 13</rect></_>
    <_>
      <rect>
        0 5 1 2</rect></_>
    <_>
      <rect>
        0 8 1 1</rect></_>
    <_>
      <rect>
        0 11 1 1</rect></_>
    <_>
      <rect>
        0 12 3 4</rect></_>
    <_>
      <rect>
        0 15 3 10</rect></_>
    <_>
      <rect>
        0 18 1 1</rect></_>
    <_>
      <rect>
        0 19 4 7</rect></_>
    <_>
      <rect>
        0 19 5 8</rect></_>
    <_>
      <rect>
        0 20 4 8</rect></_>
    <_>
      <rect>
        0 22 2 1</rect></_>
    <_>
      <rect>
        0 22 3 8</rect></_>
    <_>
      <rect>
        0 25 4 5</rect></_>
    <_>
      <rect>
        0 42 7 2</rect></_>
    <_>
      <rect>
        1 0 3 3</rect></_>
    <_>
      <rect>
        1 11 1 1</rect></_>
    <_>
      <rect>
        1 24 3 4</rect></_>
    <_>
      <rect>
        2 6 6 5</rect></_>
    <_>
      <rect>
        2 6 7 3</rect></_>
    <_>
      <rect>
        2 9 5 11</rect></_>
    <_>
      <rect>
        2 21 5 9</rect></_>
    <_>
      <rect>
        2 28 5 6</rect></_>
    <_>
      <rect>
        3 11 4 5</rect></_>
    <_>
      <rect>
        3 17 1 1</rect></_>
    <_>
      <rect>
        3 44 1 1</rect></_>
    <_>
      <rect>
        4 2 4 2</rect></_>
    <_>
      <rect>
        4 27 3 4</rect></_>
    <_>
      <rect>
        5 2 3 4</rect></_>
    <_>
      <rect>
        5 2 4 2</rect></_>
    <_>
      <rect>
        5 6 3 5</rect></_>
    <_>
      <rect>
        5 15 5 8</rect></_>
    <_>
      <rect>
        5 38 5 3</rect></_>
    <_>
      <rect>
        6 1 4 2</rect></_>
    <_>
      <rect>
        6 5 4 5</rect></_>
    <_>
      <rect>
        6 8 5 4</rect></_>
    <_>
      <rect>
        6 11 4 8</rect></_>
    <_>
      <rect>
        6 13 5 11</rect></_>
    <_>
      <rect>
        6 18 3 4</rect></_>
    <_>
      <rect>
        6 18 6 10</rect></_>
    <_>
      <rect>
        6 23 1 1</rect></_>
    <_>
      <rect>
        7 1 5 3</rect></_>
    <_>
      <rect>
        7 10 3 8</rect></_>
    <_>
      <rect>
        8 0 2 2</rect></_>
    <_>
      <rect>
        8 0 5 13</rect></_>
    <_>
      <rect>
        8 8 3 5</rect></_>
    <_>
      <rect>
        8 19 1 1</rect></_>
    <_>
      <rect>
        8 19 2 1</rect></_>
    <_>
      <rect>
        8 26 5 5</rect></_>
    <_>
      <rect>
        8 27 4 5</rect></_>
    <_>
      <rect>
        9 21 1 1</rect></_>
    <_>
      <rect>
        9 30 5 6</rect></_>
    <_>
      <rect>
        9 34 1 4</rect></_>
    <_>
      <rect>
        9 41 1 2</rect></_>
    <_>
      <rect>
        10 0 3 3</rect></_>
    <_>
      <rect>
        10 16 1 2</rect></_>
    <_>
      <rect>
        10 39 2 3</rect></_>
    <_>
      <rect>
        10 41 1 1</rect></_>
    <_>
      <rect>
        11 0 1 1</rect></_>
    <_>
      <rect>
        11 1 1 2</rect></_>
    <_>
      <rect>
        11 18 1 1</rect></_>
    <_>
      <rect>
        11 18 2 3</rect></_>
    <_>
      <rect>
        12 14 3 5</rect></_>
    <_>
      <rect>
        12 17 1 1</rect></_>
    <_>
      <rect>
        12 19 4 8</rect></_>
    <_>
      <rect>
        12 22 4 6</rect></_>
    <_>
      <rect>
        12 27 2 3</rect></_>
    <_>
      <rect>
        12 40 1 2</rect></_>
    <_>
      <rect>
        13 0 1 1</rect></_>
    <_>
      <rect>
        15 8 3 13</rect></_>
    <_>
      <rect>
        15 14 3 6</rect></_>
    <_>
      <rect>
        15 23 3 7</rect></_>
    <_>
      <rect>
        16 2 1 1</rect></_>
    <_>
      <rect>
        16 22 1 1</rect></_>
    <_>
      <rect>
        17 2 2 3</rect></_>
    <_>
      <rect>
        17 27 1 1</rect></_>
    <_>
      <rect>
        17 27 2 2</rect></_>
    <_>
      <rect>
        17 44 1 1</rect></_>
    <_>
      <rect>
        18 3 2 1</rect></_>
    <_>
      <rect>
        18 3 2 4</rect></_>
    <_>
      <rect>
        18 6 2 2</rect></_>
    <_>
      <rect>
        18 23 1 1</rect></_>
    <_>
      <rect>
        18 25 2 3</rect></_>
    <_>
      <rect>
        20 7 1 1</rect></_>
    <_>
      <rect>
        21 5 1 2</rect></_>
    <_>
      <rect>
        21 15 1 2</rect></_></features></cascade>
</opencv_storage>
