<?xml version="1.0"?>
<opencv_storage>
<cascade>
  <stageType>BOOST</stageType>
  <featureType>LBP</featureType>
  <height>48</height>
  <width>24</width>
  <stageParams>
    <boostType>GAB</boostType>
    <minHitRate>9.9500000476837158e-01</minHitRate>
    <maxFalseAlarm>5.0000000000000000e-01</maxFalseAlarm>
    <weightTrimRate>9.4999999999999996e-01</weightTrimRate>
    <maxDepth>1</maxDepth>
    <maxWeakCount>100</maxWeakCount></stageParams>
  <featureParams>
    <maxCatCount>256</maxCatCount>
    <featSize>1</featSize></featureParams>
  <stageNum>15</stageNum>
  <stages>
    <!-- stage 0 -->
    <_>
      <maxWeakCount>5</maxWeakCount>
      <stageThreshold>-1.2294923067092896e+00</stageThreshold>
      <weakClassifiers>
        <_>
          <internalNodes>
            0 -1 73 -549463589 252645649 -1291120303 1531139923
            -65304437 -1693745144 1074906081 -536874529</internalNodes>
          <leafValues>
            -7.3484849929809570e-01 4.2857143282890320e-01</leafValues></_>
        <_>
          <internalNodes>
            0 -1 19 -8207910 -539340416 336253048 -722153408 -1073738006
            -620066816 -804470021 -20194573</internalNodes>
          <leafValues>
            -6.3470792770385742e-01 4.9892592430114746e-01</leafValues></_>
        <_>
          <internalNodes>
            0 -1 35 -792303616 -1204518365 -805187347 -181279999
            -1599575809 -624232239 1084738807 -583010833</internalNodes>
          <leafValues>
            -6.5815234184265137e-01 4.8910683393478394e-01</leafValues></_>
        <_>
          <internalNodes>
            0 -1 23 201523258 1057947648 1409421459 1025060976 134930607
            -1156953974 1745279709 2138536315</internalNodes>
          <leafValues>
            -7.8541445732116699e-01 3.8447141647338867e-01</leafValues></_>
        <_>
          <internalNodes>
            0 -1 70 1849650043 -1363590813 1342274655 -502105802
            438917135 2140832350 -91131535 -360253932</internalNodes>
          <leafValues>
            -6.8273293972015381e-01 4.3637174367904663e-01</leafValues></_></weakClassifiers></_>
    <!-- stage 1 -->
    <_>
      <maxWeakCount>5</maxWeakCount>
      <stageThreshold>-1.0810823440551758e+00</stageThreshold>
      <weakClassifiers>
        <_>
          <internalNodes>
            0 -1 10 -286263569 -878197841 1113772491 -494409841
            1126384143 1873539671 1995429551 -33</internalNodes>
          <leafValues>
            -7.6712328195571899e-01 4.0853658318519592e-01</leafValues></_>
        <_>
          <internalNodes>
            0 -1 8 -153097214 1716512527 -1609842622 -622862853
            1322206739 56754215 -125 -1025</internalNodes>
          <leafValues>
            -7.5698953866958618e-01 4.0344366431236267e-01</leafValues></_>
        <_>
          <internalNodes>
            0 -1 33 -527450110 1079211206 1092444427 1390411133
            1667437060 1612286159 -450366997 -402916353</internalNodes>
          <leafValues>
            -7.2749406099319458e-01 4.5241573452949524e-01</leafValues></_>
        <_>
          <internalNodes>
            0 -1 3 -1921028509 714861519 -1877782490 -389025433
            2072734295 -215227493 -5278873 -150995073</internalNodes>
          <leafValues>
            -6.7727112770080566e-01 5.0441157817840576e-01</leafValues></_>
        <_>
          <internalNodes>
            0 -1 74 -276825277 85686106 -134221568 494927807 -8429
            2129555231 -671094893 -402661441</internalNodes>
          <leafValues>
            -4.8829743266105652e-01 7.0807808637619019e-01</leafValues></_></weakClassifiers></_>
    <!-- stage 2 -->
    <_>
      <maxWeakCount>5</maxWeakCount>
      <stageThreshold>-1.3070287704467773e+00</stageThreshold>
      <weakClassifiers>
        <_>
          <internalNodes>
            0 -1 38 -543171585 -34090723 -657206281 -84477473 -548750465
            -68167173 -70585355 -134218769</internalNodes>
          <leafValues>
            -7.2783899307250977e-01 3.5725939273834229e-01</leafValues></_>
        <_>
          <internalNodes>
            0 -1 66 -1495318665 786100811 -220725505 719112183
            2074036519 1606670783 1541404273 -285411980</internalNodes>
          <leafValues>
            -7.5125437974929810e-01 2.9681056737899780e-01</leafValues></_>
        <_>
          <internalNodes>
            0 -1 45 1606416383 -275785223 -246300174 -1236607554
            -539246779 -834692539 -18383916 -714670426</internalNodes>
          <leafValues>
            -6.7063522338867188e-01 3.8355946540832520e-01</leafValues></_>
        <_>
          <internalNodes>
            0 -1 7 -272650713 242219941 -521682874 -87031809 1127968631
            759421559 -523873434 -33555497</internalNodes>
          <leafValues>
            -6.5540373325347900e-01 4.2731028795242310e-01</leafValues></_>
        <_>
          <internalNodes>
            0 -1 90 -1428456421 651401627 -128582785 1761169887
            1085770252 -1475639549 1222360598 -1405355009</internalNodes>
          <leafValues>
            -6.0415613651275635e-01 4.8289185762405396e-01</leafValues></_></weakClassifiers></_>
    <!-- stage 3 -->
    <_>
      <maxWeakCount>7</maxWeakCount>
      <stageThreshold>-1.1248850822448730e+00</stageThreshold>
      <weakClassifiers>
        <_>
          <internalNodes>
            0 -1 61 -67110957 224909063 -247209579 -8396289 -740439409
            -609547061 -1120017471 -1</internalNodes>
          <leafValues>
            -6.9995081424713135e-01 1.8440780043601990e-01</leafValues></_>
        <_>
          <internalNodes>
            0 -1 13 -268436737 -2102370 -1064777122 -294460457 168485759
            -874022135 1195231955 -352855169</internalNodes>
          <leafValues>
            -5.0191628932952881e-01 4.6074324846267700e-01</leafValues></_>
        <_>
          <internalNodes>
            0 -1 34 -1496332800 -774649503 22091057 -150482941
            -456510982 -17727265 -208834177 -135267633</internalNodes>
          <leafValues>
            -5.6386482715606689e-01 3.9160922169685364e-01</leafValues></_>
        <_>
          <internalNodes>
            0 -1 63 2123922548 -749026856 -1019997411 -1533912811
            -1232086020 -83325779 -208619279 -17637420</internalNodes>
          <leafValues>
            -6.4581608772277832e-01 3.3023416996002197e-01</leafValues></_>
        <_>
          <internalNodes>
            0 -1 9 1793058914 -422258869 -100617142 2090522391
            1948479847 2034806923 1133244775 -707003441</internalNodes>
          <leafValues>
            -5.8275920152664185e-01 3.9901745319366455e-01</leafValues></_>
        <_>
          <internalNodes>
            0 -1 82 -137364645 117369095 -712288974 1494077725 -37375134
            -929533671 -244620494 -369100069</internalNodes>
          <leafValues>
            -4.7175940871238708e-01 4.9616768956184387e-01</leafValues></_>
        <_>
          <internalNodes>
            0 -1 17 -1561348505 -1375509050 -1069471449 -35798943
            12274521 -82149104 1428898647 -1142953513</internalNodes>
          <leafValues>
            -4.7470143437385559e-01 4.9514213204383850e-01</leafValues></_></weakClassifiers></_>
    <!-- stage 4 -->
    <_>
      <maxWeakCount>5</maxWeakCount>
      <stageThreshold>-1.3712260723114014e+00</stageThreshold>
      <weakClassifiers>
        <_>
          <internalNodes>
            0 -1 42 1494473690 521371899 17027483 352964667 1518404027
            -605380478 1536924603 1610349307</internalNodes>
          <leafValues>
            -7.8513354063034058e-01 5.3169734776020050e-02</leafValues></_>
        <_>
          <internalNodes>
            0 -1 68 -1927667431 -1282256738 -770316801 2073549265
            448791487 -87390149 -471076417 -268714261</internalNodes>
          <leafValues>
            -5.0753587484359741e-01 4.7864401340484619e-01</leafValues></_>
        <_>
          <internalNodes>
            0 -1 31 -983968566 957977681 1417833181 991156461 402856878
            1498316849 1531071179 1580989183</internalNodes>
          <leafValues>
            -5.8247733116149902e-01 4.3487092852592468e-01</leafValues></_>
        <_>
          <internalNodes>
            0 -1 71 781127191 176672066 1421906395 683413722 2019230465
            2066356885 -91597451 -285541675</internalNodes>
          <leafValues>
            -7.8550666570663452e-01 3.1022366881370544e-01</leafValues></_>
        <_>
          <internalNodes>
            0 -1 77 970662675 504983687 -1840244645 405963235
            -2004400128 -1154924501 -1463287554 -151891820</internalNodes>
          <leafValues>
            -5.6622421741485596e-01 3.9603105187416077e-01</leafValues></_></weakClassifiers></_>
    <!-- stage 5 -->
    <_>
      <maxWeakCount>5</maxWeakCount>
      <stageThreshold>-1.7875826358795166e+00</stageThreshold>
      <weakClassifiers>
        <_>
          <internalNodes>
            0 -1 32 -49818117 -553483982 353704441 -587132464 -997487464
            -850753395 -938944258 -69735697</internalNodes>
          <leafValues>
            -6.4137929677963257e-01 4.9473685026168823e-01</leafValues></_>
        <_>
          <internalNodes>
            0 -1 25 -16605542 -116334542 2113951633 521159440 173068026
            -1188461989 -2012718950 -30213381</internalNodes>
          <leafValues>
            -5.7568770647048950e-01 3.8004237413406372e-01</leafValues></_>
        <_>
          <internalNodes>
            0 -1 79 -79214582 400494919 1375785311 2017588587 -67049286
            -1311145824 805440239 302775035</internalNodes>
          <leafValues>
            -5.3139460086822510e-01 3.9641940593719482e-01</leafValues></_>
        <_>
          <internalNodes>
            0 -1 51 -2113175526 -1970798382 -587180835 1951748978
            -1707451780 -1143316414 -242726166 -1427446860</internalNodes>
          <leafValues>
            -5.3399056196212769e-01 3.8578027486801147e-01</leafValues></_>
        <_>
          <internalNodes>
            0 -1 1 -352336633 749729638 -34603150 -215093250 2138531687
            1207828479 1979682294 -17305609</internalNodes>
          <leafValues>
            -4.6086055040359497e-01 4.8473265767097473e-01</leafValues></_></weakClassifiers></_>
    <!-- stage 6 -->
    <_>
      <maxWeakCount>5</maxWeakCount>
      <stageThreshold>-1.0679316520690918e+00</stageThreshold>
      <weakClassifiers>
        <_>
          <internalNodes>
            0 -1 72 -103811073 -753949761 -2128887329 -6297011
            -614475265 -309362633 -770975041 -65539</internalNodes>
          <leafValues>
            -6.4663994312286377e-01 3.3774834871292114e-01</leafValues></_>
        <_>
          <internalNodes>
            0 -1 80 -1345323217 581903123 -988296030 -833621761
            2072903207 128698987 -607537165 -185076737</internalNodes>
          <leafValues>
            -5.8943533897399902e-01 3.2016205787658691e-01</leafValues></_>
        <_>
          <internalNodes>
            0 -1 56 916133493 1062626259 1258622297 1071485439
            1217206952 -647371638 861098943 -1612721321</internalNodes>
          <leafValues>
            -4.8043790459632874e-01 4.5156055688858032e-01</leafValues></_>
        <_>
          <internalNodes>
            0 -1 58 -288430892 -61738667 -2146885133 827838801
            -1945593895 -659092281 -394805010 -638059885</internalNodes>
          <leafValues>
            -4.8139950633049011e-01 4.5445781946182251e-01</leafValues></_>
        <_>
          <internalNodes>
            0 -1 60 249505591 114168215 -1404986127 -1600858081
            582642003 1267830937 -677027564 -159713097</internalNodes>
          <leafValues>
            -7.1161478757858276e-01 3.6487439274787903e-01</leafValues></_></weakClassifiers></_>
    <!-- stage 7 -->
    <_>
      <maxWeakCount>7</maxWeakCount>
      <stageThreshold>-1.1559295654296875e+00</stageThreshold>
      <weakClassifiers>
        <_>
          <internalNodes>
            0 -1 40 -44302849 -607656739 -1714957601 -539508257
            -124917522 -91569013 -338888481 -1388360</internalNodes>
          <leafValues>
            -6.3123643398284912e-01 3.9240506291389465e-01</leafValues></_>
        <_>
          <internalNodes>
            0 -1 46 -586429222 -580688225 461500659 1572074187 81352843
            -622881914 679680219 1571552911</internalNodes>
          <leafValues>
            -5.1519763469696045e-01 3.7108954787254333e-01</leafValues></_>
        <_>
          <internalNodes>
            0 -1 50 143277138 -1411755080 -1849010471 -140992208
            282884304 -2138091105 -343401487 -2564404</internalNodes>
          <leafValues>
            -5.7424348592758179e-01 3.4003719687461853e-01</leafValues></_>
        <_>
          <internalNodes>
            0 -1 93 -358613246 -1898999447 -1585343310 -228015990
            1904851808 476811395 1910606836 -187698721</internalNodes>
          <leafValues>
            -5.6737345457077026e-01 3.4964472055435181e-01</leafValues></_>
        <_>
          <internalNodes>
            0 -1 11 -422841633 -133207674 -267991909 776126743
            1162760334 -1958739903 1162205418 -96419573</internalNodes>
          <leafValues>
            -4.8361903429031372e-01 4.3176132440567017e-01</leafValues></_>
        <_>
          <internalNodes>
            0 -1 95 1666920970 -933392325 -670203650 -1575824179
            -1610452884 1338740904 -234822689 -92296518</internalNodes>
          <leafValues>
            -5.2235794067382813e-01 3.8123312592506409e-01</leafValues></_>
        <_>
          <internalNodes>
            0 -1 49 -889451001 -1906323070 -996928362 -1295854910
            -1869988798 -131235812 -251133920 -604741165</internalNodes>
          <leafValues>
            -5.6879800558090210e-01 3.6686372756958008e-01</leafValues></_></weakClassifiers></_>
    <!-- stage 8 -->
    <_>
      <maxWeakCount>7</maxWeakCount>
      <stageThreshold>-1.2829687595367432e+00</stageThreshold>
      <weakClassifiers>
        <_>
          <internalNodes>
            0 -1 27 -142609185 -1077329790 -1795074049 -537456368
            -1996363302 -23033413 -392631554 -322049293</internalNodes>
          <leafValues>
            -6.5018314123153687e-01 2.3255814611911774e-01</leafValues></_>
        <_>
          <internalNodes>
            0 -1 62 -848037040 -2120231819 -1015899788 -44237863
            -386877704 -1198479169 -250875836 -975177025</internalNodes>
          <leafValues>
            -6.0260045528411865e-01 2.7264642715454102e-01</leafValues></_>
        <_>
          <internalNodes>
            0 -1 24 -1056785 -1764977526 1427690838 -1243696350
            1370223869 -1941804883 -133115969 2004052855</internalNodes>
          <leafValues>
            -4.3524634838104248e-01 4.2185926437377930e-01</leafValues></_>
        <_>
          <internalNodes>
            0 -1 94 -171722969 781318350 88153302 -934178541 2056329794
            1644593592 -75304414 -121386245</internalNodes>
          <leafValues>
            -5.2057296037673950e-01 3.3554327487945557e-01</leafValues></_>
        <_>
          <internalNodes>
            0 -1 69 -1372447628 2076480985 151771551 -24655376
            -1442165800 -245612518 -116196626 -30647683</internalNodes>
          <leafValues>
            -5.7749098539352417e-01 3.4174793958663940e-01</leafValues></_>
        <_>
          <internalNodes>
            0 -1 2 -957898430 -473299904 -1005490022 -1089355518
            1074614646 -367959552 280564566 -138029577</internalNodes>
          <leafValues>
            -5.6540006399154663e-01 3.3657804131507874e-01</leafValues></_>
        <_>
          <internalNodes>
            0 -1 54 1559536128 1595613523 -1019062985 -1348607644
            -1861123918 -75484022 -1979170381 -29370094</internalNodes>
          <leafValues>
            -5.6012839078903198e-01 3.3716210722923279e-01</leafValues></_></weakClassifiers></_>
    <!-- stage 9 -->
    <_>
      <maxWeakCount>7</maxWeakCount>
      <stageThreshold>-1.4455208778381348e+00</stageThreshold>
      <weakClassifiers>
        <_>
          <internalNodes>
            0 -1 39 -1073775169 -604147415 1169235421 -52506192
            -270276033 -91508733 964995325 -11343636</internalNodes>
          <leafValues>
            -7.1103894710540771e-01 1.6431923955678940e-02</leafValues></_>
        <_>
          <internalNodes>
            0 -1 5 -898675074 -2362681 -1907995413 -1421155498
            1339229405 1544110346 1219972303 -361693845</internalNodes>
          <leafValues>
            -6.0379523038864136e-01 2.5583159923553467e-01</leafValues></_>
        <_>
          <internalNodes>
            0 -1 76 1370756953 1985507669 1036303807 1328568980
            -498525442 -342138722 704645823 -117899265</internalNodes>
          <leafValues>
            -4.5721119642257690e-01 4.2596665024757385e-01</leafValues></_>
        <_>
          <internalNodes>
            0 -1 29 -529862870 -154878263 -1075282344 -33631325
            -525806599 1152399007 -1318223185 -219680897</internalNodes>
          <leafValues>
            -4.6607258915901184e-01 4.1524720191955566e-01</leafValues></_>
        <_>
          <internalNodes>
            0 -1 15 51966295 634487217 -1722788236 -560983282
            -1458976693 989896704 -1968650032 -1245478782</internalNodes>
          <leafValues>
            -6.1650156974792480e-01 3.4508895874023438e-01</leafValues></_>
        <_>
          <internalNodes>
            0 -1 87 -1417674981 2123342430 566327408 320721313
            -347685974 -385168319 -1731221216 1236271046</internalNodes>
          <leafValues>
            -4.9526396393775940e-01 4.1642162203788757e-01</leafValues></_>
        <_>
          <internalNodes>
            0 -1 91 1468999175 671559711 46225410 576360669 -1283842480
            332343472 1216563150 -419562801</internalNodes>
          <leafValues>
            -6.1611360311508179e-01 3.3479902148246765e-01</leafValues></_></weakClassifiers></_>
    <!-- stage 10 -->
    <_>
      <maxWeakCount>7</maxWeakCount>
      <stageThreshold>-1.2090766429901123e+00</stageThreshold>
      <weakClassifiers>
        <_>
          <internalNodes>
            0 -1 47 -23593985 -1111159674 419976151 1607303264 -5648760
            -351565152 -1834176513 -81280171</internalNodes>
          <leafValues>
            -6.3959854841232300e-01 2.0078739523887634e-01</leafValues></_>
        <_>
          <internalNodes>
            0 -1 18 -72433142 394213123 -195016464 527778400 -662493045
            2077091904 -611597577 2139077119</internalNodes>
          <leafValues>
            -5.7962965965270996e-01 2.5868180394172668e-01</leafValues></_>
        <_>
          <internalNodes>
            0 -1 88 -74469710 -269497472 -469384992 1894891803 -40181562
            1243840800 -1869953546 -687866881</internalNodes>
          <leafValues>
            -4.4240191578865051e-01 3.9345321059226990e-01</leafValues></_>
        <_>
          <internalNodes>
            0 -1 14 1458489270 -1377611314 -1051836130 -1463751220
            1275426936 -569179735 -861477937 -161363617</internalNodes>
          <leafValues>
            -6.3126611709594727e-01 2.8359180688858032e-01</leafValues></_>
        <_>
          <internalNodes>
            0 -1 20 -62324998 -1324908022 -937933988 1444217226
            273410410 185270278 236146142 400812187</internalNodes>
          <leafValues>
            -5.0526040792465210e-01 3.7495732307434082e-01</leafValues></_>
        <_>
          <internalNodes>
            0 -1 92 -806617714 103334107 369393856 1658569165
            -1153688574 117686408 1107418827 -156239138</internalNodes>
          <leafValues>
            -5.2934926748275757e-01 3.3970165252685547e-01</leafValues></_>
        <_>
          <internalNodes>
            0 -1 81 -188756073 1939408936 16830964 487151201 -929711958
            -1400889344 489410777 1600912356</internalNodes>
          <leafValues>
            -4.2931902408599854e-01 4.3886390328407288e-01</leafValues></_></weakClassifiers></_>
    <!-- stage 11 -->
    <_>
      <maxWeakCount>7</maxWeakCount>
      <stageThreshold>-1.3595556020736694e+00</stageThreshold>
      <weakClassifiers>
        <_>
          <internalNodes>
            0 -1 65 -1432857231 -1684950135 1074204791 1532867531
            -1416685601 -346127288 -1551717441 -71578117</internalNodes>
          <leafValues>
            -6.9939661026000977e-01 -2.8506271541118622e-02</leafValues></_>
        <_>
          <internalNodes>
            0 -1 52 -662570537 -1827312946 -1862175459 731369475
            156502494 -1126602743 585656830 1000301375</internalNodes>
          <leafValues>
            -5.0703841447830200e-01 2.8369742631912231e-01</leafValues></_>
        <_>
          <internalNodes>
            0 -1 41 52118024 16697563 469850523 1045326071 463303339
            459225325 1321529323 1874328783</internalNodes>
          <leafValues>
            -7.3523819446563721e-01 2.1783590316772461e-01</leafValues></_>
        <_>
          <internalNodes>
            0 -1 37 1582808115 2017455719 271234613 774356017 174847735
            -20971594 1848606355 -591663565</internalNodes>
          <leafValues>
            -3.8362595438957214e-01 4.4515952467918396e-01</leafValues></_>
        <_>
          <internalNodes>
            0 -1 12 -202379654 -484523842 -1605102388 -491019770
            174266234 2064198183 1192300765 -67798774</internalNodes>
          <leafValues>
            -4.6831619739532471e-01 3.5385492444038391e-01</leafValues></_>
        <_>
          <internalNodes>
            0 -1 78 1207162144 424675506 1137396532 979460233 1301004915
            -1688567136 430662401 1360002039</internalNodes>
          <leafValues>
            -6.4400959014892578e-01 2.4787372350692749e-01</leafValues></_>
        <_>
          <internalNodes>
            0 -1 84 109712944 224166821 369611834 1969029848 -934384387
            -251559724 -1635341830 -1794225505</internalNodes>
          <leafValues>
            -4.9001386761665344e-01 3.3425945043563843e-01</leafValues></_></weakClassifiers></_>
    <!-- stage 12 -->
    <_>
      <maxWeakCount>8</maxWeakCount>
      <stageThreshold>-1.2253345251083374e+00</stageThreshold>
      <weakClassifiers>
        <_>
          <internalNodes>
            0 -1 28 -524361814 -108873978 -2079094901 -583553613
            -1933252385 -235204475 1089001391 -242749025</internalNodes>
          <leafValues>
            -7.4566471576690674e-01 -1.2160979956388474e-01</leafValues></_>
        <_>
          <internalNodes>
            0 -1 53 -1932186817 172962013 -717208484 786430215
            1506233685 966792335 -612208011 -20793485</internalNodes>
          <leafValues>
            -6.7551559209823608e-01 1.4936451613903046e-01</leafValues></_>
        <_>
          <internalNodes>
            0 -1 64 -1344395139 935948625 293946749 -566274961
            -1892785507 -120970599 -1898067016 -340079492</internalNodes>
          <leafValues>
            -4.8444476723670959e-01 3.0783495306968689e-01</leafValues></_>
        <_>
          <internalNodes>
            0 -1 86 1855424302 583991695 1887667756 719356302 -938796983
            20242688 -1031169294 -1024460358</internalNodes>
          <leafValues>
            -6.2788033485412598e-01 2.6434248685836792e-01</leafValues></_>
        <_>
          <internalNodes>
            0 -1 26 -682635046 -1893068480 -1626321123 -649064014
            2022328916 251303075 -996111764 -17323497</internalNodes>
          <leafValues>
            -4.9135908484458923e-01 3.3752566576004028e-01</leafValues></_>
        <_>
          <internalNodes>
            0 -1 6 -420500489 -2018545681 -822084046 -487460874
            2097046599 -578945049 -813869313 -2097281</internalNodes>
          <leafValues>
            -3.7710717320442200e-01 4.4605123996734619e-01</leafValues></_>
        <_>
          <internalNodes>
            0 -1 83 -1051327470 977590686 -1047784487 -677621027
            -1039494768 -1196809830 -222295922 -590028519</internalNodes>
          <leafValues>
            -4.2482662200927734e-01 4.0524405241012573e-01</leafValues></_>
        <_>
          <internalNodes>
            0 -1 36 1112253072 -1784080246 -670809614 -1325087872
            176279806 248960129 1203895387 -930610631</internalNodes>
          <leafValues>
            -5.3197383880615234e-01 3.4166696667671204e-01</leafValues></_></weakClassifiers></_>
    <!-- stage 13 -->
    <_>
      <maxWeakCount>8</maxWeakCount>
      <stageThreshold>-1.6713573932647705e+00</stageThreshold>
      <weakClassifiers>
        <_>
          <internalNodes>
            0 -1 59 -1027613441 1574654623 -384542245 850325751
            2107183099 2145800667 2040230902 -16846185</internalNodes>
          <leafValues>
            -7.0403093099594116e-01 -2.8121484443545341e-02</leafValues></_>
        <_>
          <internalNodes>
            0 -1 21 -616113704 1113241983 -855222296 -994834233
            1401014641 -1660714741 -82875083 -1247618161</internalNodes>
          <leafValues>
            -7.3384815454483032e-01 1.2818163633346558e-01</leafValues></_>
        <_>
          <internalNodes>
            0 -1 43 -542651209 -1651867406 -1256958465 1368474180
            1887971468 -1442068078 704702702 -632305866</internalNodes>
          <leafValues>
            -3.7640094757080078e-01 4.0487670898437500e-01</leafValues></_>
        <_>
          <internalNodes>
            0 -1 22 782288568 2067925330 893801945 1070698572 2125481845
            -108291661 689726394 -1126366923</internalNodes>
          <leafValues>
            -4.5522645115852356e-01 3.6639612913131714e-01</leafValues></_>
        <_>
          <internalNodes>
            0 -1 67 660486695 705443485 -1072604385 1859387834
            1756181823 2017712129 -638606735 -319882526</internalNodes>
          <leafValues>
            -6.5660446882247925e-01 2.4395607411861420e-01</leafValues></_>
        <_>
          <internalNodes>
            0 -1 4 -1066414330 -2142633966 18126876 -867229429
            1134057907 1108041862 13079579 -135435905</internalNodes>
          <leafValues>
            -5.7444834709167480e-01 2.8409320116043091e-01</leafValues></_>
        <_>
          <internalNodes>
            0 -1 57 1452797060 1435736849 1090777592 1363960653
            1032263634 -207967720 -268322657 -314054513</internalNodes>
          <leafValues>
            -4.6417582035064697e-01 3.7907436490058899e-01</leafValues></_>
        <_>
          <internalNodes>
            0 -1 16 1428772815 -1615087694 -168116367 -18575 109037547
            -1094713345 2012339705 -168970253</internalNodes>
          <leafValues>
            -3.2775413990020752e-01 5.5826860666275024e-01</leafValues></_></weakClassifiers></_>
    <!-- stage 14 -->
    <_>
      <maxWeakCount>9</maxWeakCount>
      <stageThreshold>-1.3284869194030762e+00</stageThreshold>
      <weakClassifiers>
        <_>
          <internalNodes>
            0 -1 85 -674235425 -36356931 1531085023 -1082393797
            -23339890 -74872117 -1708479750 -119539749</internalNodes>
          <leafValues>
            -5.9744679927825928e-01 2.9714286327362061e-01</leafValues></_>
        <_>
          <internalNodes>
            0 -1 89 -138939457 -1881435897 -879767203 1591501529
            -1290929431 -895444598 -1178615814 1610415100</internalNodes>
          <leafValues>
            -4.5483991503715515e-01 3.4067746996879578e-01</leafValues></_>
        <_>
          <internalNodes>
            0 -1 0 50548362 298970814 333033554 292536716 2098186546
            -71579609 1993558856 2012732231</internalNodes>
          <leafValues>
            -6.4940732717514038e-01 2.3510137200355530e-01</leafValues></_>
        <_>
          <internalNodes>
            0 -1 44 -489224697 2063319503 1209522410 -1297235881
            1078168140 1259177987 -24732985 -1043338287</internalNodes>
          <leafValues>
            -4.6726581454277039e-01 3.1766083836555481e-01</leafValues></_>
        <_>
          <internalNodes>
            0 -1 75 -113256672 1193428342 520818193 123982095
            -1332221910 -975460338 -1550216649 1558940671</internalNodes>
          <leafValues>
            -5.3317797183990479e-01 3.1106659770011902e-01</leafValues></_>
        <_>
          <internalNodes>
            0 -1 55 -1342496841 260796140 780070911 2139061855
            -268451889 -873038857 1610530717 -36504324</internalNodes>
          <leafValues>
            -3.5210746526718140e-01 4.8133340477943420e-01</leafValues></_>
        <_>
          <internalNodes>
            0 -1 30 -1780155062 -583143335 -1922802624 -1880509933
            -571319880 -374177776 600132153 407323603</internalNodes>
          <leafValues>
            -5.0385880470275879e-01 3.3530724048614502e-01</leafValues></_>
        <_>
          <internalNodes>
            0 -1 96 1875854339 -2112793957 1884750402 -2043989397
            -1416990138 1494220929 -339620918 -387013640</internalNodes>
          <leafValues>
            -4.9132221937179565e-01 3.4650102257728577e-01</leafValues></_>
        <_>
          <internalNodes>
            0 -1 48 -1060388176 -52770085 96830416 -1101543984
            1076627593 1324517775 1913612532 -89166903</internalNodes>
          <leafValues>
            -5.8522117137908936e-01 2.8553578257560730e-01</leafValues></_></weakClassifiers></_></stages>
  <features>
    <_>
      <rect>
        0 0 6 10</rect></_>
    <_>
      <rect>
        0 5 1 1</rect></_>
    <_>
      <rect>
        0 5 2 2</rect></_>
    <_>
      <rect>
        0 11 1 1</rect></_>
    <_>
      <rect>
        0 11 3 5</rect></_>
    <_>
      <rect>
        0 16 3 10</rect></_>
    <_>
      <rect>
        0 17 1 2</rect></_>
    <_>
      <rect>
        0 17 2 2</rect></_>
    <_>
      <rect>
        0 17 8 8</rect></_>
    <_>
      <rect>
        0 19 3 4</rect></_>
    <_>
      <rect>
        0 19 5 8</rect></_>
    <_>
      <rect>
        0 20 4 9</rect></_>
    <_>
      <rect>
        0 21 3 6</rect></_>
    <_>
      <rect>
        0 22 4 7</rect></_>
    <_>
      <rect>
        0 27 5 7</rect></_>
    <_>
      <rect>
        0 42 8 1</rect></_>
    <_>
      <rect>
        1 5 3 5</rect></_>
    <_>
      <rect>
        1 7 1 2</rect></_>
    <_>
      <rect>
        1 8 5 8</rect></_>
    <_>
      <rect>
        2 21 5 9</rect></_>
    <_>
      <rect>
        2 26 3 4</rect></_>
    <_>
      <rect>
        2 33 7 5</rect></_>
    <_>
      <rect>
        3 0 2 2</rect></_>
    <_>
      <rect>
        3 2 4 14</rect></_>
    <_>
      <rect>
        3 12 3 4</rect></_>
    <_>
      <rect>
        3 21 4 9</rect></_>
    <_>
      <rect>
        4 1 5 2</rect></_>
    <_>
      <rect>
        4 2 4 2</rect></_>
    <_>
      <rect>
        4 5 4 5</rect></_>
    <_>
      <rect>
        4 10 3 3</rect></_>
    <_>
      <rect>
        4 12 5 6</rect></_>
    <_>
      <rect>
        4 14 5 7</rect></_>
    <_>
      <rect>
        5 1 4 2</rect></_>
    <_>
      <rect>
        5 4 6 7</rect></_>
    <_>
      <rect>
        5 5 5 6</rect></_>
    <_>
      <rect>
        5 6 4 5</rect></_>
    <_>
      <rect>
        5 24 4 4</rect></_>
    <_>
      <rect>
        5 25 4 6</rect></_>
    <_>
      <rect>
        5 39 5 2</rect></_>
    <_>
      <rect>
        5 42 2 2</rect></_>
    <_>
      <rect>
        5 45 1 1</rect></_>
    <_>
      <rect>
        6 0 6 12</rect></_>
    <_>
      <rect>
        6 0 6 15</rect></_>
    <_>
      <rect>
        6 1 4 3</rect></_>
    <_>
      <rect>
        6 23 1 1</rect></_>
    <_>
      <rect>
        6 42 5 2</rect></_>
    <_>
      <rect>
        7 1 5 15</rect></_>
    <_>
      <rect>
        7 2 4 2</rect></_>
    <_>
      <rect>
        7 11 5 12</rect></_>
    <_>
      <rect>
        7 26 1 1</rect></_>
    <_>
      <rect>
        8 2 1 1</rect></_>
    <_>
      <rect>
        8 4 1 1</rect></_>
    <_>
      <rect>
        8 10 3 8</rect></_>
    <_>
      <rect>
        8 20 1 1</rect></_>
    <_>
      <rect>
        8 26 4 5</rect></_>
    <_>
      <rect>
        8 44 1 1</rect></_>
    <_>
      <rect>
        9 0 1 1</rect></_>
    <_>
      <rect>
        9 5 4 6</rect></_>
    <_>
      <rect>
        9 6 3 5</rect></_>
    <_>
      <rect>
        9 17 2 2</rect></_>
    <_>
      <rect>
        9 20 1 1</rect></_>
    <_>
      <rect>
        9 20 5 8</rect></_>
    <_>
      <rect>
        9 30 5 6</rect></_>
    <_>
      <rect>
        9 32 2 5</rect></_>
    <_>
      <rect>
        9 41 1 2</rect></_>
    <_>
      <rect>
        10 0 1 1</rect></_>
    <_>
      <rect>
        10 18 1 1</rect></_>
    <_>
      <rect>
        10 21 1 1</rect></_>
    <_>
      <rect>
        11 0 1 1</rect></_>
    <_>
      <rect>
        11 1 1 2</rect></_>
    <_>
      <rect>
        11 17 1 1</rect></_>
    <_>
      <rect>
        11 19 1 1</rect></_>
    <_>
      <rect>
        11 40 1 2</rect></_>
    <_>
      <rect>
        12 19 4 8</rect></_>
    <_>
      <rect>
        12 23 4 6</rect></_>
    <_>
      <rect>
        12 27 4 5</rect></_>
    <_>
      <rect>
        13 0 3 3</rect></_>
    <_>
      <rect>
        14 6 1 1</rect></_>
    <_>
      <rect>
        14 20 3 6</rect></_>
    <_>
      <rect>
        15 1 3 6</rect></_>
    <_>
      <rect>
        15 22 1 1</rect></_>
    <_>
      <rect>
        15 23 2 5</rect></_>
    <_>
      <rect>
        15 24 3 5</rect></_>
    <_>
      <rect>
        16 2 1 1</rect></_>
    <_>
      <rect>
        17 0 1 1</rect></_>
    <_>
      <rect>
        17 2 2 2</rect></_>
    <_>
      <rect>
        17 16 2 2</rect></_>
    <_>
      <rect>
        17 25 2 4</rect></_>
    <_>
      <rect>
        17 27 1 1</rect></_>
    <_>
      <rect>
        17 44 1 1</rect></_>
    <_>
      <rect>
        18 2 2 2</rect></_>
    <_>
      <rect>
        18 5 2 3</rect></_>
    <_>
      <rect>
        18 8 2 2</rect></_>
    <_>
      <rect>
        18 25 1 1</rect></_>
    <_>
      <rect>
        21 5 1 1</rect></_>
    <_>
      <rect>
        21 7 1 1</rect></_>
    <_>
      <rect>
        21 8 1 3</rect></_></features></cascade>
</opencv_storage>
